{
    "in_shape": [
        null,
        1
    ],
    "layers": [
        {
            "type": "dense",
            "activation": "tanh",
            "shape": [
                null,
                8
            ],
            "weights": [
                [
                    [
                        -0.009215044789016247,
                        0.027372295036911964,
                        0.0628971979022026,
                        0.13030944764614105,
                        -0.1159898191690445,
                        0.008250712417066097,
                        -0.02456040494143963,
                        0.05851683020591736
                    ]
                ],
                [
                    0.0112275006249547,
                    -0.05187010392546654,
                    0.0499233640730381,
                    0.052049219608306885,
                    0.023461781442165375,
                    -0.059494443237781525,
                    -0.055097389966249466,
                    -0.03198380395770073
                ]
            ]
        },
        {
            "type": "dense",
            "activation": "",
            "shape": [
                null,
                8
            ],
            "weights": [
                [
                    [
                        -0.0007103049429133534,
                        -0.03457613289356232,
                        0.04732726141810417,
                        0.027448827400803566,
                        -0.02199094370007515,
                        -0.028229719027876854,
                        -0.03614627197384834,
                        -0.026074228808283806
                    ],
                    [
                        0.055189330130815506,
                        0.026395389810204506,
                        -0.0403113067150116,
                        0.040218599140644073,
                        0.04861496016383171,
                        0.05892264470458031,
                        -0.03318460285663605,
                        0.07586527615785599
                    ],
                    [
                        -0.01155859138816595,
                        0.06584270298480988,
                        0.031377680599689484,
                        0.05933713540434837,
                        0.08570551872253418,
                        0.06152316555380821,
                        0.06630471348762512,
                        0.023508628830313683
                    ],
                    [
                        0.018184391781687737,
                        0.06976740062236786,
                        -0.042668502777814865,
                        0.0663682147860527,
                        0.05715010315179825,
                        0.0032747448422014713,
                        -0.053010400384664536,
                        0.01856841705739498
                    ],
                    [
                        -0.13718445599079132,
                        -0.033850766718387604,
                        -0.05200238153338432,
                        0.010422361083328724,
                        0.09138654172420502,
                        0.03226279467344284,
                        -0.019437281414866447,
                        0.039656415581703186
                    ],
                    [
                        -0.006960683967918158,
                        -0.047911204397678375,
                        -0.017493663355708122,
                        0.020451894029974937,
                        -0.06555808335542679,
                        0.022892557084560394,
                        -0.03426307439804077,
                        -0.025487808510661125
                    ],
                    [
                        0.016381295397877693,
                        -0.05231579765677452,
                        -0.03781051188707352,
                        0.0033901233691722155,
                        -0.01091939676553011,
                        -0.01553085446357727,
                        -0.04956033453345299,
                        0.05973348766565323
                    ],
                    [
                        -0.08395686745643616,
                        -0.026444140821695328,
                        -0.062477778643369675,
                        0.08864451199769974,
                        -0.05437362194061279,
                        -0.05977123975753784,
                        0.10869818180799484,
                        0.022225530818104744
                    ]
                ],
                [
                    0.01634286530315876,
                    0.028713533654808998,
                    -0.1068805381655693,
                    -0.07126085460186005,
                    0.028629684820771217,
                    0.06632872670888901,
                    -0.10031046718358994,
                    0.11725403368473053
                ]
            ]
        },
        {
            "type": "gated_activation",
            "activation": "",
            "shape": [
                null,
                4
            ]
        },
        {
            "type": "dense",
            "activation": "",
            "shape": [
                null,
                1
            ],
            "weights": [
                [
                    [
                        0.01307358592748642
                    ],
                    [
                        0.13504627346992493
                    ],
                    [
                        0.10772281885147095
                    ],
                    [
                        -0.031008590012788773
                    ]
                ],
                [
                    -1.523569426353788e-05
                ]
            ]
        }
    ]
}