{
    "in_shape": [
        null,
        100,
        50,
        1
    ],
    "layers": [
        {
            "type": "conv2d",
            "activation": "",
            "shape": [
                null,
                96,
                16,
                8
            ],
            "kernel_size_time": 5,
            "kernel_size_feature": 3,
            "dilation": 1,
            "strides": 3,
            "num_filters_in": 1,
            "num_features_in": 50,
            "num_filters_out": 8,
            "weights": [
                [
                    [
                        [
                            [
                                0.09916777163743973,
                                0.088884636759758,
                                0.08996140211820602,
                                -0.005771653726696968,
                                -0.08548465371131897,
                                0.07429247349500656,
                                -0.024713914841413498,
                                0.008112110197544098
                            ]
                        ],
                        [
                            [
                                -0.050867676734924316,
                                -0.008692214265465736,
                                0.03761376440525055,
                                0.004701721947640181,
                                5.905943453399232e-06,
                                -0.005246343556791544,
                                0.04383103922009468,
                                0.034598950296640396
                            ]
                        ],
                        [
                            [
                                0.03065815381705761,
                                0.04590080305933952,
                                0.013082141987979412,
                                0.013007767498493195,
                                0.016268467530608177,
                                0.03300061449408531,
                                0.051441460847854614,
                                -0.037256624549627304
                            ]
                        ]
                    ],
                    [
                        [
                            [
                                -0.021962208673357964,
                                -0.07110567390918732,
                                -0.00826155673712492,
                                0.04466254636645317,
                                0.04924144968390465,
                                0.041151922196149826,
                                0.049029640853405,
                                -0.06828001141548157
                            ]
                        ],
                        [
                            [
                                -0.06971392780542374,
                                -0.059237074106931686,
                                -0.07172782719135284,
                                0.025398343801498413,
                                0.029057655483484268,
                                -0.0673765167593956,
                                0.060809362679719925,
                                -0.09021497517824173
                            ]
                        ],
                        [
                            [
                                -0.042687322944402695,
                                0.0706542357802391,
                                0.017507880926132202,
                                0.061003949493169785,
                                0.004044776316732168,
                                0.07414291799068451,
                                -0.016101324930787086,
                                -0.02237602137029171
                            ]
                        ]
                    ],
                    [
                        [
                            [
                                0.04998841509222984,
                                0.09036128968000412,
                                0.060531508177518845,
                                -0.03448473662137985,
                                -0.0017509941244497895,
                                -0.008628219366073608,
                                0.04140287637710571,
                                0.02126258984208107
                            ]
                        ],
                        [
                            [
                                0.02901034988462925,
                                0.014071508310735226,
                                0.021589534357190132,
                                -0.029810264706611633,
                                0.032912727445364,
                                -0.004184916149824858,
                                -0.017649609595537186,
                                -0.05298353359103203
                            ]
                        ],
                        [
                            [
                                -0.02878263033926487,
                                -0.003738512983545661,
                                -0.045966822654008865,
                                -0.05326605588197708,
                                -0.04086429253220558,
                                -0.053308792412281036,
                                -0.1247875839471817,
                                -0.030597427859902382
                            ]
                        ]
                    ],
                    [
                        [
                            [
                                0.08256510645151138,
                                -0.05330780893564224,
                                -0.05722404643893242,
                                0.13213981688022614,
                                0.012273363769054413,
                                -0.01860657148063183,
                                -0.019219761714339256,
                                0.010202045552432537
                            ]
                        ],
                        [
                            [
                                -0.0037363877054303885,
                                0.01656939648091793,
                                0.11332632601261139,
                                0.036447566002607346,
                                -0.09607072174549103,
                                0.05048658326268196,
                                -0.039712093770504,
                                -0.030039915814995766
                            ]
                        ],
                        [
                            [
                                0.05248602107167244,
                                -0.0879918560385704,
                                0.013636216521263123,
                                0.049443475902080536,
                                -0.09740953892469406,
                                0.011769648641347885,
                                -0.005561687517911196,
                                -0.022453144192695618
                            ]
                        ]
                    ],
                    [
                        [
                            [
                                0.002846303628757596,
                                0.01567336730659008,
                                -0.10993849486112595,
                                -0.02102639339864254,
                                0.01856827549636364,
                                -0.046239279210567474,
                                -0.019746748730540276,
                                0.029026729986071587
                            ]
                        ],
                        [
                            [
                                0.0828394815325737,
                                -0.08850117772817612,
                                -0.009047257713973522,
                                0.09221254289150238,
                                -0.02454373799264431,
                                0.008170678280293941,
                                -0.029343528673052788,
                                -0.008532460778951645
                            ]
                        ],
                        [
                            [
                                0.07669628411531448,
                                -0.010070164687931538,
                                -0.06915976107120514,
                                -0.03980320692062378,
                                0.06827614456415176,
                                0.002900759456679225,
                                -0.0029707530047744513,
                                0.02254915051162243
                            ]
                        ]
                    ]
                ],
                [
                    0.03849576786160469,
                    0.08994592726230621,
                    0.03498107194900513,
                    0.0027044694870710373,
                    0.04319259896874428,
                    0.011112827807664871,
                    0.053715962916612625,
                    -0.04517779499292374
                ]
            ]
        },
        {
            "type": "relu",
            "activation": "",
            "shape": [
                null,
                96,
                16,
                8
            ],
            "weights": []
        },
        {
            "type": "conv2d",
            "activation": "",
            "shape": [
                null,
                76,
                10,
                1
            ],
            "kernel_size_time": 5,
            "kernel_size_feature": 7,
            "dilation": 5,
            "strides": 1,
            "num_filters_in": 8,
            "num_features_in": 16,
            "num_filters_out": 1,
            "weights": [
                [
                    [
                        [
                            [
                                0.0381271168589592
                            ],
                            [
                                -0.03279242664575577
                            ],
                            [
                                -0.02791645936667919
                            ],
                            [
                                -0.0676959753036499
                            ],
                            [
                                -0.011639456264674664
                            ],
                            [
                                0.02496647648513317
                            ],
                            [
                                -0.026596251875162125
                            ],
                            [
                                0.031292352825403214
                            ]
                        ],
                        [
                            [
                                -0.02188672125339508
                            ],
                            [
                                0.038964927196502686
                            ],
                            [
                                0.08835025131702423
                            ],
                            [
                                0.01468640100210905
                            ],
                            [
                                -0.04299333319067955
                            ],
                            [
                                -0.047705505043268204
                            ],
                            [
                                -0.04802129790186882
                            ],
                            [
                                0.09767529368400574
                            ]
                        ],
                        [
                            [
                                0.0072787972167134285
                            ],
                            [
                                0.02584516443312168
                            ],
                            [
                                -0.045089706778526306
                            ],
                            [
                                -0.018044719472527504
                            ],
                            [
                                0.051147669553756714
                            ],
                            [
                                -0.031247494742274284
                            ],
                            [
                                0.00945259165018797
                            ],
                            [
                                0.04143155366182327
                            ]
                        ],
                        [
                            [
                                0.023774776607751846
                            ],
                            [
                                0.06070999428629875
                            ],
                            [
                                0.043220262974500656
                            ],
                            [
                                0.14204443991184235
                            ],
                            [
                                -0.009114865213632584
                            ],
                            [
                                -0.03958306461572647
                            ],
                            [
                                -0.0054035186767578125
                            ],
                            [
                                -0.004841381683945656
                            ]
                        ],
                        [
                            [
                                -0.05723493918776512
                            ],
                            [
                                -0.06579600274562836
                            ],
                            [
                                -0.0014124329900369048
                            ],
                            [
                                0.041070472449064255
                            ],
                            [
                                0.03340360149741173
                            ],
                            [
                                -0.044128477573394775
                            ],
                            [
                                0.09046981483697891
                            ],
                            [
                                -0.047075849026441574
                            ]
                        ],
                        [
                            [
                                0.03645060583949089
                            ],
                            [
                                -0.03227170184254646
                            ],
                            [
                                -0.0729069784283638
                            ],
                            [
                                0.015794748440384865
                            ],
                            [
                                0.009576584212481976
                            ],
                            [
                                -0.015827013179659843
                            ],
                            [
                                0.002306819660589099
                            ],
                            [
                                0.006778481882065535
                            ]
                        ],
                        [
                            [
                                0.005016665440052748
                            ],
                            [
                                -0.01636219583451748
                            ],
                            [
                                -0.12126951664686203
                            ],
                            [
                                0.0186526570469141
                            ],
                            [
                                0.06214753910899162
                            ],
                            [
                                0.07827579230070114
                            ],
                            [
                                0.030413923785090446
                            ],
                            [
                                0.041155774146318436
                            ]
                        ]
                    ],
                    [
                        [
                            [
                                -0.03487071767449379
                            ],
                            [
                                0.04246817156672478
                            ],
                            [
                                -0.0016767134657129645
                            ],
                            [
                                0.04418334737420082
                            ],
                            [
                                0.00784189160913229
                            ],
                            [
                                -0.04784390330314636
                            ],
                            [
                                0.03779348358511925
                            ],
                            [
                                -0.0876305103302002
                            ]
                        ],
                        [
                            [
                                0.012680371291935444
                            ],
                            [
                                0.06813933700323105
                            ],
                            [
                                -0.025074562057852745
                            ],
                            [
                                -0.011404587887227535
                            ],
                            [
                                -0.021040178835392
                            ],
                            [
                                -0.04620444402098656
                            ],
                            [
                                -0.05932310223579407
                            ],
                            [
                                0.06477856636047363
                            ]
                        ],
                        [
                            [
                                0.029877860099077225
                            ],
                            [
                                -0.01889938674867153
                            ],
                            [
                                0.0385165698826313
                            ],
                            [
                                -0.06895041465759277
                            ],
                            [
                                -0.06066787242889404
                            ],
                            [
                                0.013120526447892189
                            ],
                            [
                                0.05773685500025749
                            ],
                            [
                                -0.040981363505125046
                            ]
                        ],
                        [
                            [
                                -0.03608483448624611
                            ],
                            [
                                0.010697529651224613
                            ],
                            [
                                -0.09111282229423523
                            ],
                            [
                                -0.099068783223629
                            ],
                            [
                                -0.11056464910507202
                            ],
                            [
                                0.008220436982810497
                            ],
                            [
                                -0.01784920133650303
                            ],
                            [
                                -0.06248895451426506
                            ]
                        ],
                        [
                            [
                                -0.04265811666846275
                            ],
                            [
                                -0.012847376056015491
                            ],
                            [
                                -0.01800987869501114
                            ],
                            [
                                -0.06568338721990585
                            ],
                            [
                                0.0827106162905693
                            ],
                            [
                                0.06686437875032425
                            ],
                            [
                                -0.007284119725227356
                            ],
                            [
                                0.011253838427364826
                            ]
                        ],
                        [
                            [
                                -0.05179851874709129
                            ],
                            [
                                0.019289173185825348
                            ],
                            [
                                0.02942262589931488
                            ],
                            [
                                -0.06913357973098755
                            ],
                            [
                                -0.038783829659223557
                            ],
                            [
                                -0.0719115287065506
                            ],
                            [
                                -0.03332221135497093
                            ],
                            [
                                -0.06588942557573318
                            ]
                        ],
                        [
                            [
                                0.020097464323043823
                            ],
                            [
                                -0.031425800174474716
                            ],
                            [
                                0.015947848558425903
                            ],
                            [
                                -0.0031865432392805815
                            ],
                            [
                                -0.034646715968847275
                            ],
                            [
                                0.03977371007204056
                            ],
                            [
                                -0.004903518594801426
                            ],
                            [
                                -0.026631712913513184
                            ]
                        ]
                    ],
                    [
                        [
                            [
                                0.06766976416110992
                            ],
                            [
                                0.029259581118822098
                            ],
                            [
                                -0.06488576531410217
                            ],
                            [
                                0.07942896336317062
                            ],
                            [
                                -0.0022301573771983385
                            ],
                            [
                                -0.036844488233327866
                            ],
                            [
                                0.0047073401510715485
                            ],
                            [
                                0.0045524169690907
                            ]
                        ],
                        [
                            [
                                -0.00039073204970918596
                            ],
                            [
                                0.06446684896945953
                            ],
                            [
                                -0.02593950740993023
                            ],
                            [
                                0.013778991997241974
                            ],
                            [
                                -0.04879934713244438
                            ],
                            [
                                0.009118548594415188
                            ],
                            [
                                0.04214855283498764
                            ],
                            [
                                0.06324566155672073
                            ]
                        ],
                        [
                            [
                                0.027095993980765343
                            ],
                            [
                                0.0022558155469596386
                            ],
                            [
                                0.02215665765106678
                            ],
                            [
                                0.022352954372763634
                            ],
                            [
                                -0.043247200548648834
                            ],
                            [
                                -0.08592402189970016
                            ],
                            [
                                -0.04122160002589226
                            ],
                            [
                                -0.004981975071132183
                            ]
                        ],
                        [
                            [
                                -0.07018928974866867
                            ],
                            [
                                0.014114225283265114
                            ],
                            [
                                0.08028928935527802
                            ],
                            [
                                0.001974422251805663
                            ],
                            [
                                -0.062185972929000854
                            ],
                            [
                                -0.029663652181625366
                            ],
                            [
                                0.04307980462908745
                            ],
                            [
                                -0.037414249032735825
                            ]
                        ],
                        [
                            [
                                0.02278280071914196
                            ],
                            [
                                0.033376310020685196
                            ],
                            [
                                0.054664891213178635
                            ],
                            [
                                0.03893287852406502
                            ],
                            [
                                0.004183229990303516
                            ],
                            [
                                0.08380540460348129
                            ],
                            [
                                -0.007986598648130894
                            ],
                            [
                                -0.08028417825698853
                            ]
                        ],
                        [
                            [
                                0.017588036134839058
                            ],
                            [
                                0.023700250312685966
                            ],
                            [
                                0.008957326412200928
                            ],
                            [
                                0.0865856260061264
                            ],
                            [
                                -0.03249131515622139
                            ],
                            [
                                -0.08950704336166382
                            ],
                            [
                                -0.00683063268661499
                            ],
                            [
                                -0.0032326001673936844
                            ]
                        ],
                        [
                            [
                                -0.0009819751139730215
                            ],
                            [
                                -0.021599216386675835
                            ],
                            [
                                -0.017310848459601402
                            ],
                            [
                                0.06324878334999084
                            ],
                            [
                                0.0710408166050911
                            ],
                            [
                                0.02512352168560028
                            ],
                            [
                                -0.06395273655653
                            ],
                            [
                                -0.0444178469479084
                            ]
                        ]
                    ],
                    [
                        [
                            [
                                -0.07824891060590744
                            ],
                            [
                                -0.028736520558595657
                            ],
                            [
                                -0.05403032898902893
                            ],
                            [
                                0.03247755393385887
                            ],
                            [
                                -0.07315155118703842
                            ],
                            [
                                0.1369972974061966
                            ],
                            [
                                -0.03947469964623451
                            ],
                            [
                                0.0036813474725931883
                            ]
                        ],
                        [
                            [
                                0.0845063328742981
                            ],
                            [
                                0.03784878924489021
                            ],
                            [
                                -0.002118835225701332
                            ],
                            [
                                0.02385821007192135
                            ],
                            [
                                0.07672059535980225
                            ],
                            [
                                0.06456637382507324
                            ],
                            [
                                0.02524515800178051
                            ],
                            [
                                -0.06700902432203293
                            ]
                        ],
                        [
                            [
                                0.0082226088270545
                            ],
                            [
                                -0.0074455090798437595
                            ],
                            [
                                -0.06281405687332153
                            ],
                            [
                                -0.09105449914932251
                            ],
                            [
                                -0.03854257985949516
                            ],
                            [
                                -0.03606438264250755
                            ],
                            [
                                -0.019793326035141945
                            ],
                            [
                                -0.003653130028396845
                            ]
                        ],
                        [
                            [
                                0.008576923049986362
                            ],
                            [
                                -0.06900420039892197
                            ],
                            [
                                0.02524765394628048
                            ],
                            [
                                0.018241874873638153
                            ],
                            [
                                -0.024081844836473465
                            ],
                            [
                                -0.044179800897836685
                            ],
                            [
                                0.0001099364526453428
                            ],
                            [
                                -0.018529566004872322
                            ]
                        ],
                        [
                            [
                                0.03739827498793602
                            ],
                            [
                                -0.029996344819664955
                            ],
                            [
                                -0.06753955781459808
                            ],
                            [
                                0.042699746787548065
                            ],
                            [
                                -0.04486501216888428
                            ],
                            [
                                0.06268686056137085
                            ],
                            [
                                -0.05554552748799324
                            ],
                            [
                                -0.060742128640413284
                            ]
                        ],
                        [
                            [
                                -0.01217292994260788
                            ],
                            [
                                -0.00820913165807724
                            ],
                            [
                                0.029207129031419754
                            ],
                            [
                                0.041013188660144806
                            ],
                            [
                                -0.0711805447936058
                            ],
                            [
                                0.06254781782627106
                            ],
                            [
                                -0.0736515074968338
                            ],
                            [
                                -0.03033878281712532
                            ]
                        ],
                        [
                            [
                                -0.030118590220808983
                            ],
                            [
                                0.0038099864032119513
                            ],
                            [
                                0.027507169172167778
                            ],
                            [
                                0.030641203746199608
                            ],
                            [
                                0.01555391401052475
                            ],
                            [
                                -0.01611899398267269
                            ],
                            [
                                0.0060474867932498455
                            ],
                            [
                                0.09014301747083664
                            ]
                        ]
                    ],
                    [
                        [
                            [
                                0.04407798498868942
                            ],
                            [
                                0.03294844180345535
                            ],
                            [
                                0.03996485099196434
                            ],
                            [
                                0.032432060688734055
                            ],
                            [
                                -0.06444256007671356
                            ],
                            [
                                -0.006189228966832161
                            ],
                            [
                                -0.005333224777132273
                            ],
                            [
                                0.05953816697001457
                            ]
                        ],
                        [
                            [
                                -0.022529980167746544
                            ],
                            [
                                -0.023919543251395226
                            ],
                            [
                                -0.005099313333630562
                            ],
                            [
                                0.015095098875463009
                            ],
                            [
                                0.009610584005713463
                            ],
                            [
                                0.026867393404245377
                            ],
                            [
                                -0.03559279069304466
                            ],
                            [
                                0.06474530696868896
                            ]
                        ],
                        [
                            [
                                0.09115369617938995
                            ],
                            [
                                -0.05454108864068985
                            ],
                            [
                                0.006861125119030476
                            ],
                            [
                                -0.11867741495370865
                            ],
                            [
                                0.04389222711324692
                            ],
                            [
                                0.06636419147253036
                            ],
                            [
                                0.003699474735185504
                            ],
                            [
                                0.005605452228337526
                            ]
                        ],
                        [
                            [
                                -0.022462019696831703
                            ],
                            [
                                0.08218631893396378
                            ],
                            [
                                -0.014371409080922604
                            ],
                            [
                                0.07810881733894348
                            ],
                            [
                                -0.043158091604709625
                            ],
                            [
                                -0.06066771224141121
                            ],
                            [
                                -0.05763843655586243
                            ],
                            [
                                0.0045713684521615505
                            ]
                        ],
                        [
                            [
                                -0.02295270748436451
                            ],
                            [
                                0.07474297285079956
                            ],
                            [
                                -0.09810157120227814
                            ],
                            [
                                0.02221173606812954
                            ],
                            [
                                -0.03240124508738518
                            ],
                            [
                                -0.10789302736520767
                            ],
                            [
                                -0.04974433034658432
                            ],
                            [
                                -0.06881307810544968
                            ]
                        ],
                        [
                            [
                                0.09513374418020248
                            ],
                            [
                                0.015086899511516094
                            ],
                            [
                                -0.032264113426208496
                            ],
                            [
                                -0.04086676612496376
                            ],
                            [
                                0.01206915732473135
                            ],
                            [
                                -0.07601457089185715
                            ],
                            [
                                -0.11435895413160324
                            ],
                            [
                                -0.004581490531563759
                            ]
                        ],
                        [
                            [
                                -0.026858726516366005
                            ],
                            [
                                0.0096901161596179
                            ],
                            [
                                -0.07712070643901825
                            ],
                            [
                                0.10867255181074142
                            ],
                            [
                                -0.004740225151181221
                            ],
                            [
                                0.0579429529607296
                            ],
                            [
                                0.0517185740172863
                            ],
                            [
                                0.03382968530058861
                            ]
                        ]
                    ]
                ],
                [
                    0.046221669763326645
                ]
            ]
        },
        {
            "type": "relu",
            "activation": "",
            "shape": [
                null,
                76,
                10,
                1
            ],
            "weights": []
        }
    ]
}