{
    "in_shape": [
        null,
        128,
        1
    ],
    "layers": [
        {
            "type": "conv1d",
            "activation": "",
            "shape": [
                null,
                64,
                12
            ],
            "kernel_size": [
                65
            ],
            "dilation": [
                1
            ],
            "weights": [
                [
                    [
                        [
                            0.001057639718055725,
                            0.045167818665504456,
                            -0.030232932418584824,
                            -0.021652430295944214,
                            0.003283381462097168,
                            -0.0593864731490612,
                            -0.049491796642541885,
                            0.043755605816841125,
                            -0.043957892805337906,
                            0.04918833076953888,
                            -0.052413053810596466,
                            0.07448302209377289
                        ]
                    ],
                    [
                        [
                            0.022375136613845825,
                            0.024503953754901886,
                            0.02995046228170395,
                            0.044204890727996826,
                            -0.08052818477153778,
                            -0.07897540181875229,
                            -0.032699987292289734,
                            0.07985012233257294,
                            -0.014903157949447632,
                            -0.026996038854122162,
                            0.06641463935375214,
                            -0.044187162071466446
                        ]
                    ],
                    [
                        [
                            0.07607358694076538,
                            -0.03789971023797989,
                            -0.06768900901079178,
                            0.05673570930957794,
                            0.05678345263004303,
                            -0.035786427557468414,
                            0.08000041544437408,
                            0.08421789109706879,
                            -0.06968662887811661,
                            0.04006960988044739,
                            -0.0786495953798294,
                            0.07708854973316193
                        ]
                    ],
                    [
                        [
                            -0.08314545452594757,
                            0.07278178632259369,
                            -0.024531956762075424,
                            0.03132261335849762,
                            -0.07976788282394409,
                            -0.0567089319229126,
                            -0.008574679493904114,
                            -0.06844042986631393,
                            0.08315318822860718,
                            -0.024761568754911423,
                            -0.04946218430995941,
                            0.03390192985534668
                        ]
                    ],
                    [
                        [
                            0.04118576645851135,
                            -0.0028268322348594666,
                            0.05939468741416931,
                            0.01994997262954712,
                            -0.01942308247089386,
                            0.02313019335269928,
                            -0.04855699464678764,
                            0.07477205991744995,
                            -0.0038767531514167786,
                            0.0820261538028717,
                            -0.004367440938949585,
                            0.04588903486728668
                        ]
                    ],
                    [
                        [
                            -0.02674054726958275,
                            -0.02087392657995224,
                            -0.048176806420087814,
                            -0.04862461984157562,
                            0.03677348792552948,
                            0.04089660942554474,
                            -0.051253922283649445,
                            -0.08424975723028183,
                            0.024595946073532104,
                            -0.05854285880923271,
                            -0.008041098713874817,
                            0.061347395181655884
                        ]
                    ],
                    [
                        [
                            0.08352187275886536,
                            0.061145901679992676,
                            0.06044931709766388,
                            0.066213458776474,
                            -0.009725473821163177,
                            -0.03990516811609268,
                            -0.007194191217422485,
                            0.07252292335033417,
                            0.08102664351463318,
                            -0.06625622510910034,
                            0.022752195596694946,
                            0.07990550994873047
                        ]
                    ],
                    [
                        [
                            -0.02425691857933998,
                            -0.028847504407167435,
                            -0.037278395146131516,
                            0.008202463388442993,
                            0.0262138769030571,
                            0.015172712504863739,
                            0.0023153945803642273,
                            -0.06530708074569702,
                            -0.0027583464980125427,
                            0.01730819046497345,
                            0.0703379213809967,
                            0.004753075540065765
                        ]
                    ],
                    [
                        [
                            -0.06620059907436371,
                            -0.06384365260601044,
                            0.03371364623308182,
                            0.026434794068336487,
                            -0.059831153601408005,
                            -0.03965327516198158,
                            0.029385119676589966,
                            0.04674968123435974,
                            -0.05107644572854042,
                            -0.039539724588394165,
                            0.042795151472091675,
                            -0.06449279189109802
                        ]
                    ],
                    [
                        [
                            0.06061312556266785,
                            -0.052763067185878754,
                            -0.0224761925637722,
                            -0.005543448030948639,
                            -0.016175076365470886,
                            0.08111496269702911,
                            -0.0007092878222465515,
                            -0.05368742346763611,
                            0.05966682732105255,
                            -0.001402348279953003,
                            0.045918866991996765,
                            -0.009810253977775574
                        ]
                    ],
                    [
                        [
                            0.014005422592163086,
                            0.05426590144634247,
                            -0.02518640086054802,
                            -0.02269624173641205,
                            0.035984136164188385,
                            -0.0629742294549942,
                            -0.07230070978403091,
                            0.020356297492980957,
                            -0.05541800707578659,
                            0.0491536408662796,
                            0.05271860957145691,
                            0.08391258120536804
                        ]
                    ],
                    [
                        [
                            -0.06963492184877396,
                            0.04805433750152588,
                            -0.03692890331149101,
                            -0.08350814878940582,
                            -0.06905834376811981,
                            0.0832711011171341,
                            0.07335793972015381,
                            0.0763118714094162,
                            -0.02709544450044632,
                            0.06140260398387909,
                            0.059189483523368835,
                            -0.055110447108745575
                        ]
                    ],
                    [
                        [
                            0.044663384556770325,
                            0.015197478234767914,
                            -0.031462863087654114,
                            -0.04939711093902588,
                            0.011309877038002014,
                            0.07356119155883789,
                            0.03763624280691147,
                            0.07124140858650208,
                            -0.014630429446697235,
                            0.02449677884578705,
                            0.004302062094211578,
                            -0.05451679229736328
                        ]
                    ],
                    [
                        [
                            -0.05582399293780327,
                            0.049212247133255005,
                            -0.010306745767593384,
                            -0.021818052977323532,
                            -0.0706140398979187,
                            0.00867336243391037,
                            -0.061165936291217804,
                            -0.06960747390985489,
                            0.07832247018814087,
                            0.05018159747123718,
                            0.014245942234992981,
                            -0.021977491676807404
                        ]
                    ],
                    [
                        [
                            -0.029014937579631805,
                            0.08190774917602539,
                            0.041244328022003174,
                            0.025137200951576233,
                            0.041279494762420654,
                            0.03157448768615723,
                            0.05745938420295715,
                            -0.07388294488191605,
                            0.004695914685726166,
                            0.006880238652229309,
                            0.0666639655828476,
                            0.009862929582595825
                        ]
                    ],
                    [
                        [
                            -0.0655287504196167,
                            0.02810126543045044,
                            0.04863610863685608,
                            -0.0783429965376854,
                            -0.018123656511306763,
                            -0.02699660137295723,
                            -0.016195788979530334,
                            0.046617671847343445,
                            0.07910327613353729,
                            0.04700537025928497,
                            -0.060825202614068985,
                            0.03524591773748398
                        ]
                    ],
                    [
                        [
                            0.012526512145996094,
                            0.062347233295440674,
                            0.06613035500049591,
                            0.040511153638362885,
                            0.026850484311580658,
                            -0.06536377221345901,
                            0.0711958110332489,
                            0.08407370746135712,
                            0.028095237910747528,
                            -0.0784403383731842,
                            0.07847893238067627,
                            0.05267322063446045
                        ]
                    ],
                    [
                        [
                            0.0645354837179184,
                            0.03586871922016144,
                            -0.055657483637332916,
                            0.08143611252307892,
                            -0.08349699527025223,
                            -0.046595051884651184,
                            0.06707972288131714,
                            0.03558843582868576,
                            -0.0297565720975399,
                            -0.07616980373859406,
                            -0.04438196122646332,
                            0.05873580276966095
                        ]
                    ],
                    [
                        [
                            -0.01649738848209381,
                            0.030697420239448547,
                            -0.013489343225955963,
                            0.03732908517122269,
                            0.0006535425782203674,
                            0.05433535575866699,
                            -0.013704106211662292,
                            0.0011403709650039673,
                            -0.05154406651854515,
                            0.051806166768074036,
                            0.04583318531513214,
                            0.010489970445632935
                        ]
                    ],
                    [
                        [
                            -0.01865454763174057,
                            -0.01497957855463028,
                            0.04894034564495087,
                            0.016857221722602844,
                            0.007884517312049866,
                            0.04664038121700287,
                            0.0008346959948539734,
                            0.08063109219074249,
                            -0.07050085067749023,
                            0.049200430512428284,
                            -0.041522782295942307,
                            0.011446952819824219
                        ]
                    ],
                    [
                        [
                            -0.006808117032051086,
                            0.058412641286849976,
                            0.04652409255504608,
                            -0.018860414624214172,
                            -0.057242393493652344,
                            -0.0819665938615799,
                            -0.04659903049468994,
                            -0.04890739172697067,
                            0.06530323624610901,
                            -0.031967371702194214,
                            0.06963801383972168,
                            -0.03347840905189514
                        ]
                    ],
                    [
                        [
                            0.019854463636875153,
                            -0.010637298226356506,
                            -0.030108090490102768,
                            0.06276197731494904,
                            0.006306536495685577,
                            0.08349733054637909,
                            0.07019200921058655,
                            0.04471462965011597,
                            0.07804377377033234,
                            -0.06779845803976059,
                            -0.03599454089999199,
                            0.03816044330596924
                        ]
                    ],
                    [
                        [
                            0.00025288015604019165,
                            0.028842195868492126,
                            -0.027240395545959473,
                            0.03732868283987045,
                            -0.003323689103126526,
                            -0.03151829540729523,
                            0.018096253275871277,
                            -0.07362691313028336,
                            -0.07284630089998245,
                            0.03000844269990921,
                            -0.011327274143695831,
                            -0.041712235659360886
                        ]
                    ],
                    [
                        [
                            -0.08116333931684494,
                            0.027950428426265717,
                            0.029349543154239655,
                            -0.015721559524536133,
                            -0.018771231174468994,
                            -0.04306885600090027,
                            0.03099294751882553,
                            0.06552194058895111,
                            -0.061796389520168304,
                            -0.006957449018955231,
                            -0.042337484657764435,
                            -0.034165237098932266
                        ]
                    ],
                    [
                        [
                            0.02813602238893509,
                            -0.04639635980129242,
                            -0.079253189265728,
                            -0.009715050458908081,
                            -0.08100000768899918,
                            -0.05408246070146561,
                            0.005987241864204407,
                            -0.07511056214570999,
                            0.01959865540266037,
                            -0.07312165945768356,
                            -0.0060699135065078735,
                            -0.04776322469115257
                        ]
                    ],
                    [
                        [
                            -0.06554786115884781,
                            0.04352506995201111,
                            0.057215675711631775,
                            -0.006366610527038574,
                            0.001982778310775757,
                            -0.03606951981782913,
                            0.075539231300354,
                            0.029340840876102448,
                            0.033713407814502716,
                            0.022744841873645782,
                            0.013962209224700928,
                            0.05214002728462219
                        ]
                    ],
                    [
                        [
                            -0.02265608310699463,
                            -0.05615474283695221,
                            -0.023191850632429123,
                            -0.021078266203403473,
                            -0.02728220447897911,
                            0.015045516192913055,
                            0.038795776665210724,
                            -0.08032646030187607,
                            -0.01694989949464798,
                            0.050684645771980286,
                            0.006205722689628601,
                            0.01735416054725647
                        ]
                    ],
                    [
                        [
                            -0.04278331249952316,
                            -0.00029327720403671265,
                            0.07954990863800049,
                            0.013370566070079803,
                            -0.036894991993904114,
                            -0.048565372824668884,
                            0.07243391871452332,
                            0.04371142387390137,
                            -0.008129678666591644,
                            0.023461319506168365,
                            -0.0791035145521164,
                            0.06051306426525116
                        ]
                    ],
                    [
                        [
                            0.05027547478675842,
                            0.026966162025928497,
                            0.03116130828857422,
                            -0.04612716659903526,
                            0.03506367653608322,
                            -0.03613146021962166,
                            -0.014186255633831024,
                            -0.05135577917098999,
                            -0.05798358470201492,
                            0.02658315747976303,
                            -0.05226605385541916,
                            -0.030535254627466202
                        ]
                    ],
                    [
                        [
                            0.019728779792785645,
                            0.01334342360496521,
                            0.004342488944530487,
                            -0.030477754771709442,
                            0.05133292078971863,
                            -0.044021498411893845,
                            0.06811253726482391,
                            0.050497040152549744,
                            0.0036911368370056152,
                            0.007343024015426636,
                            0.07751612365245819,
                            -0.06239604949951172
                        ]
                    ],
                    [
                        [
                            0.06136980652809143,
                            -0.015755631029605865,
                            -0.03207051753997803,
                            -0.03694240376353264,
                            -0.07815834879875183,
                            0.00678495317697525,
                            -0.05175873264670372,
                            -0.03880154713988304,
                            -0.08245313912630081,
                            -0.0677453801035881,
                            -0.07043583691120148,
                            -0.058270372450351715
                        ]
                    ],
                    [
                        [
                            -0.007657453417778015,
                            0.025308772921562195,
                            -0.01357412338256836,
                            0.03795381635427475,
                            0.016833193600177765,
                            0.036786727607250214,
                            0.04562179744243622,
                            0.03353974223136902,
                            -0.07033048570156097,
                            0.04617723822593689,
                            0.030669033527374268,
                            -0.048776961863040924
                        ]
                    ],
                    [
                        [
                            -0.052097052335739136,
                            0.056682392954826355,
                            0.05788722634315491,
                            -0.04643527418375015,
                            0.03053971379995346,
                            0.08343489468097687,
                            0.08318676054477692,
                            0.000128135085105896,
                            -0.0677124559879303,
                            0.07385078072547913,
                            0.054579958319664,
                            0.018026381731033325
                        ]
                    ],
                    [
                        [
                            0.07503978908061981,
                            -0.07313716411590576,
                            0.03736739605665207,
                            -0.05521232262253761,
                            -0.005018465220928192,
                            0.06005066633224487,
                            -0.028372306376695633,
                            -0.01772257685661316,
                            -0.03940791264176369,
                            -0.03370504826307297,
                            0.0032173916697502136,
                            -0.03465025871992111
                        ]
                    ],
                    [
                        [
                            0.04611577093601227,
                            -0.05884584039449692,
                            -0.04235484451055527,
                            -0.022144299000501633,
                            0.008488990366458893,
                            0.03958874195814133,
                            -0.025307927280664444,
                            -0.06725315004587173,
                            0.08312049508094788,
                            0.05082808434963226,
                            -0.026533737778663635,
                            0.034252285957336426
                        ]
                    ],
                    [
                        [
                            0.03025798499584198,
                            -0.026896890252828598,
                            -0.03350137174129486,
                            0.05952078104019165,
                            0.035186126828193665,
                            0.05006004869937897,
                            -0.02961624041199684,
                            -0.04632604122161865,
                            0.06202039122581482,
                            -0.013294503092765808,
                            -0.06264536827802658,
                            -0.009465642273426056
                        ]
                    ],
                    [
                        [
                            0.059842705726623535,
                            0.006187282502651215,
                            -0.00860220193862915,
                            -0.05401885509490967,
                            0.015783637762069702,
                            0.003840327262878418,
                            0.07531887292861938,
                            -0.06958499550819397,
                            -0.06842614710330963,
                            0.06193818151950836,
                            0.023923397064208984,
                            0.02678639441728592
                        ]
                    ],
                    [
                        [
                            0.025232724845409393,
                            -0.06622106581926346,
                            -0.07699166238307953,
                            0.02565848082304001,
                            0.014227360486984253,
                            0.00808793306350708,
                            0.0769709050655365,
                            -0.05032096803188324,
                            -0.02505512908101082,
                            -0.02796507626771927,
                            -0.059207767248153687,
                            -0.010205894708633423
                        ]
                    ],
                    [
                        [
                            -0.08206953853368759,
                            -0.006301477551460266,
                            -0.07862882316112518,
                            -0.04729146510362625,
                            0.0466141551733017,
                            -0.0121331587433815,
                            -0.04331958293914795,
                            -0.08308208733797073,
                            -0.06615936756134033,
                            0.07954661548137665,
                            -0.0806371346116066,
                            -0.05373525992035866
                        ]
                    ],
                    [
                        [
                            -0.06438784301280975,
                            -0.04849614202976227,
                            -0.000402890145778656,
                            0.08324207365512848,
                            -0.07192845642566681,
                            -0.035241518169641495,
                            0.031794413924217224,
                            -0.04031312093138695,
                            0.07861222326755524,
                            -0.04606042802333832,
                            -0.054078444838523865,
                            0.05710139870643616
                        ]
                    ],
                    [
                        [
                            0.0662805587053299,
                            0.005831964313983917,
                            -0.014186933636665344,
                            -0.029236551374197006,
                            -0.018680661916732788,
                            -0.006829410791397095,
                            -0.009809471666812897,
                            -0.04992815852165222,
                            0.06025785207748413,
                            0.04435953497886658,
                            -0.058558568358421326,
                            -0.07932983338832855
                        ]
                    ],
                    [
                        [
                            -0.00808330625295639,
                            0.060507118701934814,
                            0.07533058524131775,
                            -0.07421469688415527,
                            -0.0032200366258621216,
                            0.024894826114177704,
                            -0.05892527848482132,
                            -0.06789497286081314,
                            -0.0693574920296669,
                            -0.009706832468509674,
                            0.0635448545217514,
                            0.06504538655281067
                        ]
                    ],
                    [
                        [
                            -0.040445536375045776,
                            0.015426293015480042,
                            0.016567379236221313,
                            -0.0667719691991806,
                            -0.04966917634010315,
                            -0.009333372116088867,
                            0.013240277767181396,
                            -0.036633074283599854,
                            0.023848220705986023,
                            0.02105831354856491,
                            0.08416813611984253,
                            0.07211606204509735
                        ]
                    ],
                    [
                        [
                            0.0038992315530776978,
                            0.07951299846172333,
                            -0.06937658041715622,
                            0.020864687860012054,
                            -0.05416455119848251,
                            0.01990685611963272,
                            -0.06222084164619446,
                            -0.03681067377328873,
                            -0.03399268165230751,
                            -0.030951466411352158,
                            0.04267136752605438,
                            -0.014950551092624664
                        ]
                    ],
                    [
                        [
                            0.043897226452827454,
                            0.012639760971069336,
                            -0.016685932874679565,
                            -0.04590141400694847,
                            -0.03888190537691116,
                            0.07552026212215424,
                            0.055262625217437744,
                            -0.05328011512756348,
                            0.044691309332847595,
                            -0.002309463918209076,
                            0.06795872747898102,
                            0.018748849630355835
                        ]
                    ],
                    [
                        [
                            0.04538446664810181,
                            -0.0580313578248024,
                            -0.0818624421954155,
                            -0.05459058657288551,
                            0.04934866726398468,
                            -0.06709298491477966,
                            0.002618156373500824,
                            0.08289243280887604,
                            -0.012639179825782776,
                            0.046803221106529236,
                            0.03560185432434082,
                            -0.02856113389134407
                        ]
                    ],
                    [
                        [
                            -0.024432789534330368,
                            0.009516775608062744,
                            -0.07536517083644867,
                            0.008973374962806702,
                            -0.02385599911212921,
                            0.004254348576068878,
                            -0.01635313779115677,
                            0.053864628076553345,
                            0.04620881378650665,
                            0.012671925127506256,
                            -0.07004470378160477,
                            0.015423677861690521
                        ]
                    ],
                    [
                        [
                            -0.07024654746055603,
                            -0.06184599548578262,
                            -0.052025068551301956,
                            0.04978005588054657,
                            0.060416921973228455,
                            -0.027351997792720795,
                            0.012364462018013,
                            -0.005452297627925873,
                            -0.06998035311698914,
                            0.01078224927186966,
                            -0.04631376639008522,
                            0.06553438305854797
                        ]
                    ],
                    [
                        [
                            -0.042260780930519104,
                            -0.026243112981319427,
                            0.031237691640853882,
                            -0.0038448497653007507,
                            -0.01085103303194046,
                            -0.017813943326473236,
                            0.048668697476387024,
                            -0.058897897601127625,
                            -0.01899135857820511,
                            0.004828393459320068,
                            -0.01191815733909607,
                            -0.020000457763671875
                        ]
                    ],
                    [
                        [
                            -0.003274105489253998,
                            0.07213637232780457,
                            -0.01323467493057251,
                            -0.00446174293756485,
                            -0.03893490508198738,
                            0.019480422139167786,
                            -0.021917421370744705,
                            -0.042928241193294525,
                            -0.009662330150604248,
                            0.07418015599250793,
                            0.01776030659675598,
                            -0.04186996445059776
                        ]
                    ],
                    [
                        [
                            -6.489455699920654e-05,
                            0.003588378429412842,
                            -0.0035187453031539917,
                            0.05017551779747009,
                            -0.006681226193904877,
                            -0.07675531506538391,
                            0.046258941292762756,
                            -0.05406281352043152,
                            0.06365908682346344,
                            0.0681852400302887,
                            0.053722888231277466,
                            -0.022954903542995453
                        ]
                    ],
                    [
                        [
                            0.07233600318431854,
                            0.018168523907661438,
                            -0.07877608388662338,
                            -0.039110273122787476,
                            0.029659636318683624,
                            0.050050511956214905,
                            0.0174618661403656,
                            0.03145213425159454,
                            0.056041449308395386,
                            -0.04534107446670532,
                            0.050571009516716,
                            -0.03394492715597153
                        ]
                    ],
                    [
                        [
                            -0.0009640753269195557,
                            0.01567167043685913,
                            0.05773843824863434,
                            -0.05131798982620239,
                            -0.032811589539051056,
                            0.019821256399154663,
                            0.07894019782543182,
                            -0.02241525799036026,
                            -0.060580261051654816,
                            0.06487011909484863,
                            -0.015863940119743347,
                            -0.023735836148262024
                        ]
                    ],
                    [
                        [
                            0.014436721801757812,
                            0.039364755153656006,
                            -0.0014814585447311401,
                            0.04296422004699707,
                            0.05963356792926788,
                            -0.06922122091054916,
                            0.031463950872421265,
                            -0.021483488380908966,
                            0.06764844059944153,
                            0.08106140792369843,
                            -0.018424391746520996,
                            -0.016673661768436432
                        ]
                    ],
                    [
                        [
                            0.08214305341243744,
                            -0.005395382642745972,
                            -0.04209358990192413,
                            0.06473861634731293,
                            -0.025972656905651093,
                            -0.0542159229516983,
                            0.03070208430290222,
                            -0.08008023351430893,
                            0.03153175115585327,
                            0.061092108488082886,
                            0.015919409692287445,
                            0.025864973664283752
                        ]
                    ],
                    [
                        [
                            -0.0811224952340126,
                            0.07424099743366241,
                            0.044258832931518555,
                            0.05482783913612366,
                            -0.04110124707221985,
                            0.04780934751033783,
                            0.03198860585689545,
                            -0.049152933061122894,
                            0.04473225772380829,
                            -0.0223541222512722,
                            0.05125662684440613,
                            0.048967018723487854
                        ]
                    ],
                    [
                        [
                            -0.05215151980519295,
                            0.025745093822479248,
                            0.03646749258041382,
                            -0.009119205176830292,
                            0.058216795325279236,
                            -0.07593701779842377,
                            -0.0379050150513649,
                            -0.03807523846626282,
                            -0.047780442982912064,
                            -0.08422836661338806,
                            0.05851814150810242,
                            0.0008028075098991394
                        ]
                    ],
                    [
                        [
                            0.013283312320709229,
                            -0.017525188624858856,
                            0.010099336504936218,
                            0.03499024361371994,
                            -0.013465911149978638,
                            -0.03882131353020668,
                            -0.051660168915987015,
                            -0.0643647164106369,
                            0.05813033878803253,
                            -0.013085044920444489,
                            -0.06199393793940544,
                            -0.009391836822032928
                        ]
                    ],
                    [
                        [
                            -0.07596604526042938,
                            -0.054573409259319305,
                            -0.04090948402881622,
                            -0.05888156220316887,
                            -0.08365243673324585,
                            0.004718273878097534,
                            0.019149228930473328,
                            0.0015110746026039124,
                            0.059839606285095215,
                            0.05010969936847687,
                            -0.009682722389698029,
                            -0.033095989376306534
                        ]
                    ],
                    [
                        [
                            0.07062384486198425,
                            0.05777265131473541,
                            0.07371114194393158,
                            0.020149648189544678,
                            0.020312465727329254,
                            0.03364332765340805,
                            -0.0736086517572403,
                            0.07973280549049377,
                            -0.046190571039915085,
                            -0.06548990309238434,
                            -0.0783076360821724,
                            0.0742470920085907
                        ]
                    ],
                    [
                        [
                            -0.01579742133617401,
                            -0.0064505040645599365,
                            -0.06265177577733994,
                            0.02323317527770996,
                            0.07460935413837433,
                            0.015763625502586365,
                            0.027985550463199615,
                            -0.055234700441360474,
                            -0.007638789713382721,
                            -0.04959399625658989,
                            -0.02131243795156479,
                            -0.061037056148052216
                        ]
                    ],
                    [
                        [
                            0.011649586260318756,
                            -0.01472262293100357,
                            0.08035804331302643,
                            -0.07103493809700012,
                            0.04943673312664032,
                            0.04809051752090454,
                            0.01745174080133438,
                            -0.06469070911407471,
                            -0.0022501200437545776,
                            0.003232017159461975,
                            0.031979046761989594,
                            0.059366464614868164
                        ]
                    ],
                    [
                        [
                            -0.05434797704219818,
                            0.05369722843170166,
                            -0.013048797845840454,
                            -0.04125445708632469,
                            -0.007017515599727631,
                            0.04874235391616821,
                            -0.02577020600438118,
                            0.020839087665081024,
                            0.034445516765117645,
                            -0.01644115149974823,
                            0.04899212718009949,
                            -0.03733633831143379
                        ]
                    ],
                    [
                        [
                            0.06295132637023926,
                            0.04530544579029083,
                            -0.004971116781234741,
                            -0.055573225021362305,
                            -0.011522673070430756,
                            -0.015486761927604675,
                            -0.040640074759721756,
                            0.061462342739105225,
                            0.057835742831230164,
                            0.025979265570640564,
                            0.07180164754390717,
                            -0.012801364064216614
                        ]
                    ],
                    [
                        [
                            0.020603910088539124,
                            -0.028769534081220627,
                            0.04785515367984772,
                            0.07991315424442291,
                            0.056610435247421265,
                            0.02849092334508896,
                            -0.0036910995841026306,
                            0.06198921799659729,
                            0.07553218305110931,
                            0.0010520890355110168,
                            0.04088854789733887,
                            -0.024450130760669708
                        ]
                    ]
                ],
                [
                    0.0,
                    0.0,
                    0.0,
                    0.0,
                    0.0,
                    0.0,
                    0.0,
                    0.0,
                    0.0,
                    0.0,
                    0.0,
                    0.0
                ]
            ]
        },
        {
            "type": "prelu",
            "activation": "",
            "shape": [
                null,
                64,
                12
            ],
            "weights": [
                [
                    [
                        -0.11255395412445068,
                        0.0858224630355835,
                        -0.49300092458724976,
                        -0.6137726306915283,
                        -0.5807551145553589,
                        -0.29108232259750366,
                        0.015395760536193848,
                        -0.46994465589523315,
                        -0.16845571994781494,
                        -0.027014613151550293,
                        0.14999055862426758,
                        -0.47176167368888855
                    ]
                ]
            ]
        },
        {
            "type": "batchnorm",
            "activation": "",
            "shape": [
                null,
                64,
                12
            ],
            "epsilon": 0.01,
            "weights": [
                [
                    -0.345730185508728,
                    -0.49099135398864746,
                    0.1792527437210083,
                    0.30290889739990234,
                    0.38876473903656006,
                    -0.06978583335876465,
                    0.3805190324783325,
                    -0.05372023582458496,
                    -0.09681951999664307,
                    0.22035181522369385,
                    -0.07833492755889893,
                    -0.42358148097991943
                ],
                [
                    -0.01265511941164732,
                    -0.048869144171476364,
                    -0.04124625027179718,
                    -0.03093641996383667,
                    -0.022127611562609673,
                    0.10542567074298859,
                    -0.06030147150158882,
                    -0.01965620182454586,
                    -0.06472659856081009,
                    0.04334781691431999,
                    0.03746212273836136,
                    0.061005599796772
                ],
                [
                    -0.04144977033138275,
                    0.04710401967167854,
                    -0.02970581315457821,
                    -0.03418540954589844,
                    -0.038733482360839844,
                    -0.03502847999334335,
                    -0.07247599214315414,
                    -0.015538780950009823,
                    0.001571851666085422,
                    0.024921635165810585,
                    0.10533032566308975,
                    0.04473046585917473
                ],
                [
                    1.0,
                    1.0,
                    1.0,
                    1.0,
                    1.0,
                    1.0,
                    1.0,
                    1.0,
                    1.0,
                    1.0,
                    1.0,
                    1.0
                ]
            ]
        },
        {
            "type": "conv1d",
            "activation": "",
            "shape": [
                null,
                32,
                8
            ],
            "kernel_size": [
                33
            ],
            "dilation": [
                1
            ],
            "weights": [
                [
                    [
                        [
                            -0.036895282566547394,
                            -0.0844532921910286,
                            0.009111613035202026,
                            -0.08084455877542496,
                            -0.0071445852518081665,
                            -0.03789782151579857,
                            0.04625608026981354,
                            -0.013726845383644104
                        ],
                        [
                            -0.042894069105386734,
                            -0.020037926733493805,
                            0.045439332723617554,
                            -0.030276179313659668,
                            -0.08001407980918884,
                            0.009877875447273254,
                            -0.08092405647039413,
                            0.02864965796470642
                        ],
                        [
                            0.06951743364334106,
                            -0.02374318242073059,
                            0.08316370844841003,
                            0.0025858208537101746,
                            -0.07853931933641434,
                            0.02974596619606018,
                            0.003900885581970215,
                            0.0906268060207367
                        ],
                        [
                            0.08327734470367432,
                            0.016494251787662506,
                            -0.0331960953772068,
                            -0.061522044241428375,
                            0.07493102550506592,
                            -0.07411147654056549,
                            -0.00815967470407486,
                            -0.0293285995721817
                        ],
                        [
                            -0.012790977954864502,
                            0.06369347870349884,
                            0.06206899881362915,
                            -0.03607221320271492,
                            0.03190310299396515,
                            0.011396259069442749,
                            -0.07136311382055283,
                            -0.015793733298778534
                        ],
                        [
                            -0.09112397581338882,
                            -0.01930021494626999,
                            -0.028051935136318207,
                            0.07804830372333527,
                            -0.009961187839508057,
                            0.05208423733711243,
                            -0.09175368398427963,
                            0.007308050990104675
                        ],
                        [
                            0.009446986019611359,
                            -0.05430201068520546,
                            0.04416947066783905,
                            0.03166554868221283,
                            0.05902296304702759,
                            0.017261676490306854,
                            -0.007848240435123444,
                            0.09102174639701843
                        ],
                        [
                            -0.05017097666859627,
                            0.07668009400367737,
                            0.06403146684169769,
                            0.06276190280914307,
                            -0.07775894552469254,
                            -0.008645646274089813,
                            0.016849152743816376,
                            0.05481185019016266
                        ],
                        [
                            0.05536144971847534,
                            0.02664409577846527,
                            -0.08422356098890305,
                            0.040513038635253906,
                            0.0006631910800933838,
                            -0.011259406805038452,
                            0.030200958251953125,
                            -0.04627947881817818
                        ],
                        [
                            -0.09252017736434937,
                            0.03265725076198578,
                            -0.08932967483997345,
                            0.015946224331855774,
                            0.08626812696456909,
                            0.06179341673851013,
                            -0.0575740747153759,
                            -0.08469873666763306
                        ],
                        [
                            -0.043987855315208435,
                            0.00851421058177948,
                            -0.06236652657389641,
                            0.007752902805805206,
                            -0.03389768302440643,
                            -0.00536857545375824,
                            -0.06299793720245361,
                            -0.0842551589012146
                        ],
                        [
                            -0.030758917331695557,
                            0.0770454853773117,
                            -0.08752890676259995,
                            0.0703904926776886,
                            -0.04858742281794548,
                            -0.081782266497612,
                            0.07600894570350647,
                            -0.04773564264178276
                        ]
                    ],
                    [
                        [
                            -0.07342138886451721,
                            -0.03799743577837944,
                            -0.09079663455486298,
                            0.004969514906406403,
                            0.04469555616378784,
                            0.04995538294315338,
                            -0.061113543808460236,
                            0.060657650232315063
                        ],
                        [
                            -0.03823200985789299,
                            -0.004728958010673523,
                            -0.045574821531772614,
                            -0.07386557757854462,
                            0.09349702298641205,
                            0.020830467343330383,
                            0.02988147735595703,
                            -0.0602693110704422
                        ],
                        [
                            -0.06412409991025925,
                            0.023796647787094116,
                            -0.020339518785476685,
                            -0.07204107940196991,
                            -0.044574327766895294,
                            0.06575821340084076,
                            -0.06760525703430176,
                            -0.06502807140350342
                        ],
                        [
                            0.05587299168109894,
                            0.05302982032299042,
                            0.013352558016777039,
                            0.08387203514575958,
                            0.06932920217514038,
                            0.06260953843593597,
                            -0.025169357657432556,
                            0.029171928763389587
                        ],
                        [
                            -0.03376929089426994,
                            0.022997424006462097,
                            0.006847858428955078,
                            -0.08858802914619446,
                            -0.02886645495891571,
                            -0.06466126441955566,
                            -0.019014127552509308,
                            -0.005586445331573486
                        ],
                        [
                            -0.07596993446350098,
                            -0.0003297552466392517,
                            -0.09086275845766068,
                            0.06325232982635498,
                            0.047263771295547485,
                            -0.08445383608341217,
                            0.09244544804096222,
                            0.048203423619270325
                        ],
                        [
                            -0.02009885013103485,
                            0.030245527625083923,
                            0.048170700669288635,
                            0.017545759677886963,
                            -0.0728926807641983,
                            0.031807124614715576,
                            -0.06290152668952942,
                            0.0043911561369895935
                        ],
                        [
                            0.034758150577545166,
                            0.08316361904144287,
                            0.05695156753063202,
                            -0.012269817292690277,
                            -0.01656506210565567,
                            0.02182600647211075,
                            -0.018753618001937866,
                            0.02299197018146515
                        ],
                        [
                            0.08350947499275208,
                            0.052914127707481384,
                            0.048188403248786926,
                            -0.05123798921704292,
                            -0.03718498349189758,
                            0.08490514755249023,
                            0.06506510078907013,
                            0.026727840304374695
                        ],
                        [
                            -0.03216850757598877,
                            0.000225752592086792,
                            0.013934619724750519,
                            0.0758713036775589,
                            -0.031649574637413025,
                            -0.05367514118552208,
                            -0.08479046076536179,
                            -0.08650313317775726
                        ],
                        [
                            -0.003031305968761444,
                            -0.028171159327030182,
                            -0.04122774302959442,
                            -0.029793724417686462,
                            -0.011507056653499603,
                            0.06749759614467621,
                            0.089728444814682,
                            -0.06480388343334198
                        ],
                        [
                            -0.07824677973985672,
                            -0.015612713992595673,
                            -0.04295174032449722,
                            -0.08316541463136673,
                            0.01348462700843811,
                            0.02909734845161438,
                            -0.07234939932823181,
                            -0.09232140332460403
                        ]
                    ],
                    [
                        [
                            0.018698081374168396,
                            0.07143151760101318,
                            -0.00587298721075058,
                            0.08360099792480469,
                            -0.011312693357467651,
                            -0.026750117540359497,
                            0.03409990668296814,
                            0.0733795166015625
                        ],
                        [
                            0.0014913305640220642,
                            -0.05530580133199692,
                            0.06339353322982788,
                            0.060483261942863464,
                            0.08724763989448547,
                            0.02303488552570343,
                            0.07996045053005219,
                            -0.057561710476875305
                        ],
                        [
                            -0.01679450273513794,
                            0.08095556497573853,
                            0.08171786367893219,
                            0.02510622888803482,
                            -0.06572841107845306,
                            0.03830227255821228,
                            -0.039575353264808655,
                            0.007348380982875824
                        ],
                        [
                            0.04053056240081787,
                            -0.009814634919166565,
                            0.05733431875705719,
                            0.06593330204486847,
                            -0.04363234341144562,
                            -0.015002146363258362,
                            -0.0046827420592308044,
                            -0.027991600334644318
                        ],
                        [
                            0.0507940948009491,
                            -0.03963625431060791,
                            0.02218671888113022,
                            -0.05539647862315178,
                            0.024406716227531433,
                            0.02304740995168686,
                            -0.06603784114122391,
                            0.0738019347190857
                        ],
                        [
                            0.03758108615875244,
                            -0.002147071063518524,
                            0.08871817588806152,
                            -0.04214467480778694,
                            0.032347291707992554,
                            -0.0013009458780288696,
                            0.08459047973155975,
                            0.014879077672958374
                        ],
                        [
                            0.06187175214290619,
                            -0.057695284485816956,
                            -0.08742240816354752,
                            -0.025270976126194,
                            -0.06855644285678864,
                            0.010992757976055145,
                            -0.06874833256006241,
                            0.06718581914901733
                        ],
                        [
                            0.06462764739990234,
                            -0.09482891857624054,
                            -0.025911889970302582,
                            0.02012050896883011,
                            -0.03603995591402054,
                            -0.08414431661367416,
                            -0.08340485394001007,
                            0.03604641556739807
                        ],
                        [
                            -0.06292897462844849,
                            0.02141759544610977,
                            -0.047662533819675446,
                            -0.015946879982948303,
                            -0.06819384545087814,
                            -0.05036136135458946,
                            -0.0797291100025177,
                            -0.00041979551315307617
                        ],
                        [
                            0.04034528136253357,
                            0.06934241950511932,
                            0.01971394568681717,
                            -0.09449168294668198,
                            -0.08409550786018372,
                            -0.06750255078077316,
                            0.07424084842205048,
                            -0.09315743297338486
                        ],
                        [
                            0.02151475101709366,
                            0.0417400598526001,
                            0.06940965354442596,
                            -0.05254250392317772,
                            -0.07786224037408829,
                            -0.08062580972909927,
                            0.06067672371864319,
                            -0.02192266285419464
                        ],
                        [
                            -0.02900034934282303,
                            -0.05193616449832916,
                            0.02934148907661438,
                            -0.08467202633619308,
                            0.04556623101234436,
                            -0.02330426126718521,
                            -0.07035072892904282,
                            -0.04838026314973831
                        ]
                    ],
                    [
                        [
                            0.08160452544689178,
                            0.04923601448535919,
                            -0.016007691621780396,
                            0.04923981428146362,
                            0.09448777139186859,
                            0.009301841259002686,
                            0.029618576169013977,
                            0.05931398272514343
                        ],
                        [
                            0.012231715023517609,
                            0.01863504946231842,
                            -0.07453838735818863,
                            -0.001672506332397461,
                            -0.08347707986831665,
                            0.051276177167892456,
                            -0.032735154032707214,
                            0.07578641176223755
                        ],
                        [
                            -0.045939039438962936,
                            -0.004472360014915466,
                            -0.005950801074504852,
                            0.044523537158966064,
                            -0.0014654844999313354,
                            -0.058239202946424484,
                            0.018151119351387024,
                            -0.04231112077832222
                        ],
                        [
                            0.0382760614156723,
                            -0.08563514798879623,
                            0.006482526659965515,
                            0.04201260209083557,
                            -0.019915126264095306,
                            -0.0789056047797203,
                            -0.07260366529226303,
                            0.08752253651618958
                        ],
                        [
                            0.07350827753543854,
                            -0.021025098860263824,
                            0.04641476273536682,
                            -0.08974260091781616,
                            -0.07634130865335464,
                            0.0006013810634613037,
                            0.06931373476982117,
                            0.028054773807525635
                        ],
                        [
                            -0.07674576342105865,
                            -0.01228506863117218,
                            0.04125763475894928,
                            0.02979545295238495,
                            -0.0546402670443058,
                            -0.01624467223882675,
                            -0.0428023636341095,
                            -0.053052209317684174
                        ],
                        [
                            0.04845644533634186,
                            -0.07257376611232758,
                            0.05214248597621918,
                            0.09234531223773956,
                            0.057860299944877625,
                            -0.02241925150156021,
                            0.07688663899898529,
                            0.09278418123722076
                        ],
                        [
                            -0.03623681887984276,
                            -0.08538809418678284,
                            -0.0311923548579216,
                            0.08722622692584991,
                            0.04756924510002136,
                            0.027462735772132874,
                            0.06503559648990631,
                            -0.0868149995803833
                        ],
                        [
                            -0.09409143030643463,
                            0.011438354849815369,
                            0.03308025002479553,
                            -0.041601598262786865,
                            0.05270342528820038,
                            0.07230712473392487,
                            0.032345086336135864,
                            -0.051506660878658295
                        ],
                        [
                            0.07365730404853821,
                            0.02486579120159149,
                            0.07146291434764862,
                            0.055937349796295166,
                            0.0807543396949768,
                            0.05118595063686371,
                            -0.027556955814361572,
                            0.04069627821445465
                        ],
                        [
                            -0.07348203659057617,
                            -0.02876392751932144,
                            0.08326718211174011,
                            -0.04922569915652275,
                            0.0276634618639946,
                            -0.06025419384241104,
                            0.062058866024017334,
                            0.0547703355550766
                        ],
                        [
                            0.08757443726062775,
                            -0.050692297518253326,
                            -0.05020923539996147,
                            -0.021628275513648987,
                            -0.019960202276706696,
                            0.07798126339912415,
                            0.076658695936203,
                            0.06265099346637726
                        ]
                    ],
                    [
                        [
                            0.03882116079330444,
                            0.016218625009059906,
                            -0.014440774917602539,
                            -0.08874485641717911,
                            -0.003222852945327759,
                            0.06007219851016998,
                            0.015929192304611206,
                            -0.01714828610420227
                        ],
                        [
                            0.04835726320743561,
                            -0.06244358792901039,
                            0.06571045517921448,
                            -0.09332466870546341,
                            -0.024844057857990265,
                            0.06544670462608337,
                            0.08310505747795105,
                            0.09044855833053589
                        ],
                        [
                            0.059719666838645935,
                            0.011549703776836395,
                            0.08404091000556946,
                            0.037436872720718384,
                            -0.08356612175703049,
                            0.061148956418037415,
                            -0.03642658516764641,
                            0.01389797031879425
                        ],
                        [
                            0.03605641424655914,
                            -0.019512899219989777,
                            0.046607762575149536,
                            0.04658462107181549,
                            0.0032941848039627075,
                            0.011648975312709808,
                            -0.09295877069234848,
                            -0.07770297676324844
                        ],
                        [
                            0.05554512143135071,
                            0.0872456431388855,
                            -0.07906871289014816,
                            0.06641754508018494,
                            -0.019475482404232025,
                            0.02189042419195175,
                            0.04192134737968445,
                            0.00466407835483551
                        ],
                        [
                            -0.08739578723907471,
                            0.018993079662322998,
                            0.05311766266822815,
                            0.034034013748168945,
                            -0.023288577795028687,
                            -0.00438285619020462,
                            -0.04695897176861763,
                            -0.09368013590574265
                        ],
                        [
                            0.03998073935508728,
                            0.06583766639232635,
                            0.04401978850364685,
                            -0.004103384912014008,
                            0.029607050120830536,
                            0.07596750557422638,
                            0.056240618228912354,
                            0.05591745674610138
                        ],
                        [
                            0.027127593755722046,
                            0.07986995577812195,
                            -0.00531681627035141,
                            0.005545072257518768,
                            -0.04959084838628769,
                            -0.03364008292555809,
                            0.0886608362197876,
                            -0.03373628482222557
                        ],
                        [
                            0.019750267267227173,
                            0.04387085139751434,
                            -0.01866864413022995,
                            0.004217185080051422,
                            0.024151407182216644,
                            0.015962906181812286,
                            -0.0733260065317154,
                            -0.0004485324025154114
                        ],
                        [
                            0.053067490458488464,
                            -0.04430362954735756,
                            0.010767936706542969,
                            0.03757423162460327,
                            0.05958138406276703,
                            -0.06856577098369598,
                            0.02884424477815628,
                            0.07167109847068787
                        ],
                        [
                            -0.02120659500360489,
                            0.024778656661510468,
                            0.0885990709066391,
                            0.07340629398822784,
                            -0.04696442559361458,
                            -0.017596885561943054,
                            0.04229137301445007,
                            -0.08990832418203354
                        ],
                        [
                            0.08201372623443604,
                            -0.06830304861068726,
                            -0.04321884363889694,
                            0.016286976635456085,
                            0.035716474056243896,
                            -0.022790715098381042,
                            0.07459166646003723,
                            -0.03576618805527687
                        ]
                    ],
                    [
                        [
                            0.0020695924758911133,
                            -0.0001765415072441101,
                            0.014725722372531891,
                            0.05573630332946777,
                            0.08185917139053345,
                            0.05477933585643768,
                            -0.05143287405371666,
                            0.01494625210762024
                        ],
                        [
                            -0.00034909695386886597,
                            -0.06886497139930725,
                            0.01915959268808365,
                            0.03990831971168518,
                            -0.054441265761852264,
                            -0.011335380375385284,
                            0.0444510281085968,
                            -0.007099531590938568
                        ],
                        [
                            -0.005583241581916809,
                            -0.07641202956438065,
                            -0.06305485963821411,
                            -0.04387558251619339,
                            -0.09022253006696701,
                            0.01053667813539505,
                            0.023267485201358795,
                            -0.04580850899219513
                        ],
                        [
                            0.060148850083351135,
                            -0.08626557886600494,
                            -0.07352548092603683,
                            0.018659822642803192,
                            0.08069613575935364,
                            0.037592530250549316,
                            0.09331643581390381,
                            0.08651614189147949
                        ],
                        [
                            0.03429412841796875,
                            -0.05720438063144684,
                            0.041604891419410706,
                            0.07237231731414795,
                            -0.061705995351076126,
                            0.07667937874794006,
                            -0.061599720269441605,
                            -0.06879334151744843
                        ],
                        [
                            -0.07176345586776733,
                            -0.0033933669328689575,
                            -0.09047003835439682,
                            0.03354831039905548,
                            -0.06876972317695618,
                            -0.036471664905548096,
                            -0.09345301985740662,
                            -0.08877698332071304
                        ],
                        [
                            -0.03596439212560654,
                            0.02408614009618759,
                            -0.06266249716281891,
                            0.01699497550725937,
                            -0.010409854352474213,
                            -0.0728219598531723,
                            0.07801716029644012,
                            0.08085890114307404
                        ],
                        [
                            0.0014664381742477417,
                            0.07205720245838165,
                            -0.046823032200336456,
                            -0.0677783191204071,
                            -0.06496492028236389,
                            -0.04633928835391998,
                            -0.027180805802345276,
                            0.0820474624633789
                        ],
                        [
                            -0.012232713401317596,
                            -0.02970195561647415,
                            -0.04966679960489273,
                            -0.00722871720790863,
                            -0.006265394389629364,
                            -0.07344305515289307,
                            -0.07742992043495178,
                            0.0025810524821281433
                        ],
                        [
                            -0.0507982075214386,
                            0.07884706556797028,
                            -0.014391697943210602,
                            0.0685042291879654,
                            0.04590025544166565,
                            -0.08213064074516296,
                            -0.08150004595518112,
                            -0.015582911670207977
                        ],
                        [
                            -0.09128617495298386,
                            0.05575023591518402,
                            -0.01717740297317505,
                            0.038731396198272705,
                            0.05593167245388031,
                            -0.03514118865132332,
                            -0.03516846522688866,
                            0.04023061692714691
                        ],
                        [
                            -0.049886710941791534,
                            0.01596301794052124,
                            -0.06920427083969116,
                            0.08046293258666992,
                            0.05420432984828949,
                            -0.08421698957681656,
                            -0.09275836497545242,
                            -0.06371612101793289
                        ]
                    ],
                    [
                        [
                            -0.0705510675907135,
                            -0.02106417715549469,
                            0.047357991337776184,
                            -0.051357582211494446,
                            -0.059069886803627014,
                            -0.06392380595207214,
                            -0.09382294118404388,
                            0.09204111993312836
                        ],
                        [
                            -0.05891287326812744,
                            0.0922013521194458,
                            -0.043613068759441376,
                            0.09460996091365814,
                            0.03665311634540558,
                            0.0029249638319015503,
                            0.08153441548347473,
                            0.01867416501045227
                        ],
                        [
                            -0.06410343945026398,
                            0.003819890320301056,
                            0.015393055975437164,
                            0.010735131800174713,
                            0.01799888163805008,
                            -0.01622873544692993,
                            -0.08344254642724991,
                            0.06823362410068512
                        ],
                        [
                            -0.044260505586862564,
                            -0.030205249786376953,
                            0.060068875551223755,
                            0.06493371725082397,
                            -0.09026892483234406,
                            0.07256704568862915,
                            -0.02543521672487259,
                            -0.04791197553277016
                        ],
                        [
                            0.023856453597545624,
                            0.006846427917480469,
                            0.055231958627700806,
                            -0.012608706951141357,
                            0.00790366530418396,
                            -0.07156965881586075,
                            -0.04231753200292587,
                            -0.000700041651725769
                        ],
                        [
                            0.07936111092567444,
                            -0.06718534231185913,
                            -0.057621199637651443,
                            0.053813472390174866,
                            -0.04812109097838402,
                            0.026481129229068756,
                            0.039065808057785034,
                            0.06120830774307251
                        ],
                        [
                            0.08089181780815125,
                            0.03162606060504913,
                            -0.04384757578372955,
                            -0.07009930908679962,
                            0.05002047121524811,
                            -0.04728192836046219,
                            0.023496150970458984,
                            -0.08177529275417328
                        ],
                        [
                            0.03821501135826111,
                            0.0316116064786911,
                            0.0033585205674171448,
                            0.00846128910779953,
                            0.02262011170387268,
                            -0.07281529903411865,
                            -0.08669474720954895,
                            -0.045187439769506454
                        ],
                        [
                            -0.03306681662797928,
                            -0.04875748232007027,
                            0.08265675604343414,
                            0.02993205189704895,
                            -0.043774306774139404,
                            -0.0876862183213234,
                            0.05548420548439026,
                            -0.09523741155862808
                        ],
                        [
                            0.047566384077072144,
                            0.06564094126224518,
                            -0.009961619973182678,
                            -0.04693519324064255,
                            0.05281592905521393,
                            0.046560853719711304,
                            0.05404575169086456,
                            -0.07186174392700195
                        ],
                        [
                            -0.06853166967630386,
                            0.05702643096446991,
                            0.03498391807079315,
                            0.06008526682853699,
                            -0.08353595435619354,
                            0.0839100331068039,
                            -0.05656846612691879,
                            0.0703904926776886
                        ],
                        [
                            0.024097077548503876,
                            -0.0809982568025589,
                            -0.054425083100795746,
                            -0.05041744187474251,
                            0.026850640773773193,
                            -0.08695793896913528,
                            0.061772510409355164,
                            0.080653116106987
                        ]
                    ],
                    [
                        [
                            -0.02918427437543869,
                            0.07940785586833954,
                            0.09121006727218628,
                            -0.04149439185857773,
                            0.02918568253517151,
                            0.03295060992240906,
                            0.017078474164009094,
                            -0.07414250075817108
                        ],
                        [
                            0.07095605134963989,
                            0.06333167850971222,
                            0.08752140402793884,
                            -0.018414653837680817,
                            0.05333222448825836,
                            -0.08703161776065826,
                            0.06368906795978546,
                            0.019565410912036896
                        ],
                        [
                            -0.02915172278881073,
                            -0.07890179008245468,
                            0.023860566318035126,
                            -0.04030856117606163,
                            -0.08129864186048508,
                            0.03203527629375458,
                            -0.0010498017072677612,
                            0.07040958106517792
                        ],
                        [
                            -0.030297450721263885,
                            -0.02028816193342209,
                            -0.00936705619096756,
                            -0.043657463043928146,
                            0.03880695998668671,
                            -0.012920506298542023,
                            0.039090365171432495,
                            0.030181989073753357
                        ],
                        [
                            0.018030911684036255,
                            -0.00727573037147522,
                            0.09062634408473969,
                            -0.0682915449142456,
                            -0.013494014739990234,
                            0.04774969816207886,
                            -0.07139048725366592,
                            -0.06971792876720428
                        ],
                        [
                            0.07625658810138702,
                            -0.03135373443365097,
                            0.081544890999794,
                            -0.0297681987285614,
                            0.006270758807659149,
                            0.04859365522861481,
                            -0.0010774210095405579,
                            -0.012447766959667206
                        ],
                        [
                            -0.06000775471329689,
                            0.01322309672832489,
                            -0.05455651879310608,
                            0.09357179701328278,
                            0.010250456631183624,
                            -0.03939485922455788,
                            -0.018654845654964447,
                            0.04138186573982239
                        ],
                        [
                            0.05477204918861389,
                            -0.02517888695001602,
                            -0.01459551602602005,
                            -0.000595681369304657,
                            -0.08340346813201904,
                            -0.011997073888778687,
                            0.07411834597587585,
                            0.05220408737659454
                        ],
                        [
                            0.07799887657165527,
                            0.02898222953081131,
                            -0.028965570032596588,
                            0.04587720334529877,
                            -0.08867233991622925,
                            -0.07950428128242493,
                            -0.03989160433411598,
                            -0.09343989938497543
                        ],
                        [
                            0.029016487300395966,
                            -0.009440690279006958,
                            0.004288613796234131,
                            0.0025072619318962097,
                            0.0893172174692154,
                            -0.01814056932926178,
                            -0.08437523245811462,
                            0.01910528540611267
                        ],
                        [
                            0.010615356266498566,
                            -0.026448942720890045,
                            0.07457436621189117,
                            0.07094217836856842,
                            0.08744391798973083,
                            -0.02524656057357788,
                            -0.04274969547986984,
                            -0.08738435059785843
                        ],
                        [
                            0.05474202334880829,
                            0.014662347733974457,
                            -0.06952984631061554,
                            -0.03397499769926071,
                            -0.02321106195449829,
                            0.06198684871196747,
                            0.019613102078437805,
                            0.02896997332572937
                        ]
                    ],
                    [
                        [
                            0.019384004175662994,
                            -0.036502331495285034,
                            0.0801306962966919,
                            0.0422900915145874,
                            0.0736704021692276,
                            0.09344087541103363,
                            0.09255488216876984,
                            0.04173702001571655
                        ],
                        [
                            0.06553199887275696,
                            0.09253306686878204,
                            -0.07206004112958908,
                            -0.039114706218242645,
                            0.03292699158191681,
                            0.019450999796390533,
                            -0.04873322695493698,
                            0.0375029593706131
                        ],
                        [
                            -0.02327393740415573,
                            -0.029197365045547485,
                            -0.0022036507725715637,
                            0.04715222120285034,
                            0.0035150498151779175,
                            0.056193411350250244,
                            -0.01792602241039276,
                            0.07634308934211731
                        ],
                        [
                            0.09140349924564362,
                            0.03378218412399292,
                            -0.03770909830927849,
                            -0.0674063041806221,
                            -0.0409737303853035,
                            -0.030973993241786957,
                            -0.053722381591796875,
                            0.0678025335073471
                        ],
                        [
                            -0.0848347619175911,
                            0.009510338306427002,
                            -0.06300424039363861,
                            0.06444060802459717,
                            0.047944262623786926,
                            0.032926857471466064,
                            -0.02076192945241928,
                            0.0041045695543289185
                        ],
                        [
                            0.04957035183906555,
                            -0.05258724093437195,
                            0.02850160002708435,
                            0.02702631801366806,
                            -0.018653735518455505,
                            -0.06974450498819351,
                            -0.06907983124256134,
                            -0.07283210009336472
                        ],
                        [
                            0.0391564816236496,
                            0.02542373538017273,
                            -0.06661346554756165,
                            -0.014875143766403198,
                            0.0541035532951355,
                            -0.0641152560710907,
                            -0.0024159252643585205,
                            0.002557314932346344
                        ],
                        [
                            0.09252527356147766,
                            -0.0026705488562583923,
                            0.021389268338680267,
                            -0.022810041904449463,
                            0.06792357563972473,
                            0.010980509221553802,
                            0.038988903164863586,
                            -0.01293112337589264
                        ],
                        [
                            -0.055294159799814224,
                            0.0034610629081726074,
                            -0.06372580677270889,
                            0.04931144416332245,
                            0.016945146024227142,
                            0.017975009977817535,
                            -0.0498754121363163,
                            -0.08660240471363068
                        ],
                        [
                            0.06855548918247223,
                            -0.024405233561992645,
                            0.08393412828445435,
                            -0.04729463532567024,
                            0.027734659612178802,
                            0.08865934610366821,
                            -0.052285969257354736,
                            0.09413346648216248
                        ],
                        [
                            -0.018624044954776764,
                            0.04465700685977936,
                            0.03922291100025177,
                            -0.022064991295337677,
                            0.064231276512146,
                            -0.05108886584639549,
                            -0.07271673530340195,
                            0.04922133684158325
                        ],
                        [
                            0.045768484473228455,
                            -0.012309551239013672,
                            0.08594274520874023,
                            0.07787345349788666,
                            -0.0276479572057724,
                            0.01215410977602005,
                            0.06643101572990417,
                            -0.061960551887750626
                        ]
                    ],
                    [
                        [
                            0.06964132189750671,
                            0.043644070625305176,
                            -0.007687047123908997,
                            -0.005973212420940399,
                            -0.017692089080810547,
                            0.04876498878002167,
                            -0.09483764320611954,
                            -0.06928417831659317
                        ],
                        [
                            0.08607149124145508,
                            0.021284066140651703,
                            0.0602293461561203,
                            0.04139526188373566,
                            -0.06728070974349976,
                            -0.08691136538982391,
                            -0.07905156910419464,
                            0.003926783800125122
                        ],
                        [
                            -0.009339004755020142,
                            -0.08123230934143066,
                            0.004255242645740509,
                            -0.013408683240413666,
                            -0.08870425820350647,
                            -0.000982128083705902,
                            0.04390868544578552,
                            0.06362764537334442
                        ],
                        [
                            -0.05365143343806267,
                            -0.05875222384929657,
                            -0.05664284527301788,
                            -0.02089773118495941,
                            -0.03810182213783264,
