{
    "in_shape": [
        null,
        100,
        50,
        1
    ],
    "layers": [
        {
            "type": "conv2d",
            "activation": "",
            "shape": [
                null,
                96,
                16,
                8
            ],
            "kernel_size_time": 5,
            "kernel_size_feature": 3,
            "dilation": 1,
            "strides": 3,
            "num_filters_in": 1,
            "num_features_in": 50,
            "num_filters_out": 8,
            "weights": [
                [
                    [
                        [
                            [
                                0.03957870602607727,
                                -0.02794637158513069,
                                0.012196831405162811,
                                0.04476200044155121,
                                0.07490762323141098,
                                0.0528048537671566,
                                -0.02221464179456234,
                                0.020000260323286057
                            ]
                        ],
                        [
                            [
                                -0.0010971261654049158,
                                0.08183582872152328,
                                0.05541904643177986,
                                -0.009661232121288776,
                                -0.010783540084958076,
                                -0.04185662046074867,
                                0.023023128509521484,
                                0.00862276554107666
                            ]
                        ],
                        [
                            [
                                0.025749852880835533,
                                0.02178800292313099,
                                0.06287889182567596,
                                -0.007881056517362595,
                                -0.046108826994895935,
                                -0.014581829309463501,
                                0.09638059884309769,
                                0.052238911390304565
                            ]
                        ]
                    ],
                    [
                        [
                            [
                                0.0439511314034462,
                                -0.00630725035443902,
                                0.04252235218882561,
                                0.03320419415831566,
                                0.08138228952884674,
                                -0.025684300810098648,
                                -0.034885648638010025,
                                -0.0015803183196112514
                            ]
                        ],
                        [
                            [
                                -0.012227236293256283,
                                0.041933462023735046,
                                0.025385042652487755,
                                -0.032096486538648605,
                                0.05938666686415672,
                                -0.006826099939644337,
                                -0.04659654572606087,
                                -0.07238823175430298
                            ]
                        ],
                        [
                            [
                                0.044495295733213425,
                                0.034785643219947815,
                                -0.009563724510371685,
                                -0.035523269325494766,
                                0.012837511487305164,
                                -0.08604609966278076,
                                -0.06390643864870071,
                                -0.03444669768214226
                            ]
                        ]
                    ],
                    [
                        [
                            [
                                -0.03600979223847389,
                                -0.05498981475830078,
                                0.03182077035307884,
                                0.029492167755961418,
                                0.03985023498535156,
                                0.004625254776328802,
                                0.026628170162439346,
                                0.01645025983452797
                            ]
                        ],
                        [
                            [
                                -0.053520720452070236,
                                -0.03882352635264397,
                                0.002895602723583579,
                                0.05784158036112785,
                                0.04035165533423424,
                                0.018621396273374557,
                                -0.014561660587787628,
                                0.007905223406851292
                            ]
                        ],
                        [
                            [
                                0.08561250567436218,
                                0.02248532883822918,
                                -0.02345418557524681,
                                -0.0012880027061328292,
                                0.005768094211816788,
                                -0.06890031695365906,
                                -0.008648444898426533,
                                0.04606781527400017
                            ]
                        ]
                    ],
                    [
                        [
                            [
                                0.040258895605802536,
                                -0.02018573321402073,
                                -0.017335375770926476,
                                -0.0727551206946373,
                                -0.00013831685646437109,
                                -0.08063841611146927,
                                0.009521971456706524,
                                -0.006388295441865921
                            ]
                        ],
                        [
                            [
                                0.08108028024435043,
                                0.042447563260793686,
                                0.07463090866804123,
                                0.025920970365405083,
                                0.08641568571329117,
                                0.06858102977275848,
                                -0.0009152560378424823,
                                -0.017915209755301476
                            ]
                        ],
                        [
                            [
                                8.354559395229444e-05,
                                0.009424405172467232,
                                0.03107285313308239,
                                -0.004580087494105101,
                                0.004688964691013098,
                                -0.009984908625483513,
                                -0.11579965800046921,
                                -0.04612258821725845
                            ]
                        ]
                    ],
                    [
                        [
                            [
                                -0.0707995668053627,
                                -0.023839838802814484,
                                0.0075013586319983006,
                                0.0279268566519022,
                                -0.015127154067158699,
                                -0.01156749576330185,
                                0.051614534109830856,
                                0.0028262007981538773
                            ]
                        ],
                        [
                            [
                                -0.0020401019137352705,
                                -0.06472567468881607,
                                0.009235269390046597,
                                -0.03284008800983429,
                                -0.019609179347753525,
                                0.05793078616261482,
                                0.02845804952085018,
                                0.017583897337317467
                            ]
                        ],
                        [
                            [
                                0.04358220100402832,
                                0.049169667065143585,
                                -0.012434418313205242,
                                -0.04287604242563248,
                                0.007471361663192511,
                                0.00043387507321313024,
                                0.02271336317062378,
                                0.061385851353406906
                            ]
                        ]
                    ]
                ],
                [
                    0.034473929554224014,
                    -0.020244404673576355,
                    0.03942198306322098,
                    0.05088614299893379,
                    0.04061487317085266,
                    -0.07083233445882797,
                    -0.07241026312112808,
                    -0.04704999551177025
                ]
            ]
        },
        {
            "type": "conv2d",
            "activation": "",
            "shape": [
                null,
                76,
                10,
                1
            ],
            "kernel_size_time": 5,
            "kernel_size_feature": 7,
            "dilation": 5,
            "strides": 1,
            "num_filters_in": 8,
            "num_features_in": 16,
            "num_filters_out": 1,
            "weights": [
                [
                    [
                        [
                            [
                                -0.04150545224547386
                            ],
                            [
                                0.015244285576045513
                            ],
                            [
                                -0.08196520060300827
                            ],
                            [
                                -0.03690342605113983
                            ],
                            [
                                -0.016756122931838036
                            ],
                            [
                                -0.10351802408695221
                            ],
                            [
                                0.054386742413043976
                            ],
                            [
                                0.05300537869334221
                            ]
                        ],
                        [
                            [
                                -0.05492231994867325
                            ],
                            [
                                0.007283912040293217
                            ],
                            [
                                0.0916207805275917
                            ],
                            [
                                -0.051583386957645416
                            ],
                            [
                                0.023022731766104698
                            ],
                            [
                                -0.00919621903449297
                            ],
                            [
                                -0.040731724351644516
                            ],
                            [
                                0.1706525683403015
                            ]
                        ],
                        [
                            [
                                -0.04515766724944115
                            ],
                            [
                                -0.04499715194106102
                            ],
                            [
                                -0.0601380281150341
                            ],
                            [
                                0.05643056705594063
                            ],
                            [
                                -0.023958083242177963
                            ],
                            [
                                -0.07337179034948349
                            ],
                            [
                                -0.04246627166867256
                            ],
                            [
                                0.01620974764227867
                            ]
                        ],
                        [
                            [
                                -0.05505799874663353
                            ],
                            [
                                0.0702558383345604
                            ],
                            [
                                -0.07377494871616364
                            ],
                            [
                                0.03213169798254967
                            ],
                            [
                                0.02236308716237545
                            ],
                            [
                                0.03196658939123154
                            ],
                            [
                                -0.02415882982313633
                            ],
                            [
                                0.00947866402566433
                            ]
                        ],
                        [
                            [
                                -0.042837586253881454
                            ],
                            [
                                -0.0013617652002722025
                            ],
                            [
                                0.11834559589624405
                            ],
                            [
                                0.02693764865398407
                            ],
                            [
                                -0.027238896116614342
                            ],
                            [
                                0.04507771134376526
                            ],
                            [
                                0.06526775658130646
                            ],
                            [
                                0.030277330428361893
                            ]
                        ],
                        [
                            [
                                0.02432388626039028
                            ],
                            [
                                -0.08652617037296295
                            ],
                            [
                                0.01592501625418663
                            ],
                            [
                                -0.0011137210531160235
                            ],
                            [
                                -0.06247491389513016
                            ],
                            [
                                0.09104002267122269
                            ],
                            [
                                0.06426563858985901
                            ],
                            [
                                0.039135873317718506
                            ]
                        ],
                        [
                            [
                                0.05336452275514603
                            ],
                            [
                                -0.013325492851436138
                            ],
                            [
                                -0.026142451912164688
                            ],
                            [
                                0.023942606523633003
                            ],
                            [
                                -0.05165902525186539
                            ],
                            [
                                0.050747692584991455
                            ],
                            [
                                -0.008415683172643185
                            ],
                            [
                                0.018281733617186546
                            ]
                        ]
                    ],
                    [
                        [
                            [
                                -0.03183675929903984
                            ],
                            [
                                0.0012199004413560033
                            ],
                            [
                                -0.06208721920847893
                            ],
                            [
                                0.0724981352686882
                            ],
                            [
                                0.017982279881834984
                            ],
                            [
                                0.035736117511987686
                            ],
                            [
                                0.07632104307413101
                            ],
                            [
                                0.022661564871668816
                            ]
                        ],
                        [
                            [
                                0.05418744683265686
                            ],
                            [
                                0.05150105431675911
                            ],
                            [
                                -0.02466880902647972
                            ],
                            [
                                0.021709179505705833
                            ],
                            [
                                -0.025577431544661522
                            ],
                            [
                                -0.09171481430530548
                            ],
                            [
                                -0.10370927304029465
                            ],
                            [
                                0.05866752192378044
                            ]
                        ],
                        [
                            [
                                0.003734118537977338
                            ],
                            [
                                0.06381776928901672
                            ],
                            [
                                0.11639805883169174
                            ],
                            [
                                0.0030040633864700794
                            ],
                            [
                                -0.037478189915418625
                            ],
                            [
                                -0.04291139170527458
                            ],
                            [
                                0.05221448466181755
                            ],
                            [
                                -0.05413668975234032
                            ]
                        ],
                        [
                            [
                                0.026646409183740616
                            ],
                            [
                                0.0693708285689354
                            ],
                            [
                                0.007731988560408354
                            ],
                            [
                                -0.007845847867429256
                            ],
                            [
                                0.009766343049705029
                            ],
                            [
                                0.07467526197433472
                            ],
                            [
                                0.007400014437735081
                            ],
                            [
                                -0.019407952204346657
                            ]
                        ],
                        [
                            [
                                -0.08012782782316208
                            ],
                            [
                                -0.04776530712842941
                            ],
                            [
                                -0.02707182802259922
                            ],
                            [
                                -0.025824785232543945
                            ],
                            [
                                -0.019261779263615608
                            ],
                            [
                                -0.037115514278411865
                            ],
                            [
                                -0.030814170837402344
                            ],
                            [
                                0.15855328738689423
                            ]
                        ],
                        [
                            [
                                -0.01326835434883833
                            ],
                            [
                                -0.016327010467648506
                            ],
                            [
                                0.06828988343477249
                            ],
                            [
                                0.020486485213041306
                            ],
                            [
                                0.010450202971696854
                            ],
                            [
                                -0.06229487061500549
                            ],
                            [
                                0.006540761329233646
                            ],
                            [
                                -0.09826937317848206
                            ]
                        ],
                        [
                            [
                                -0.044886212795972824
                            ],
                            [
                                0.005981066729873419
                            ],
                            [
                                0.024644125252962112
                            ],
                            [
                                0.01255763042718172
                            ],
                            [
                                0.04160667583346367
                            ],
                            [
                                0.02466042898595333
                            ],
                            [
                                -0.013326811604201794
                            ],
                            [
                                -0.010795710608363152
                            ]
                        ]
                    ],
                    [
                        [
                            [
                                0.10578208416700363
                            ],
                            [
                                -0.048128046095371246
                            ],
                            [
                                -0.0029790406115353107
                            ],
                            [
                                -0.030060401186347008
                            ],
                            [
                                -0.00098501518368721
                            ],
                            [
                                0.09794192016124725
                            ],
                            [
                                -0.0420471727848053
                            ],
                            [
                                0.029811715707182884
                            ]
                        ],
                        [
                            [
                                0.027604511007666588
                            ],
                            [
                                -0.0038474646862596273
                            ],
                            [
                                0.04394792392849922
                            ],
                            [
                                -0.0018477638950571418
                            ],
                            [
                                -0.01808178797364235
                            ],
                            [
                                -0.04223454371094704
                            ],
                            [
                                -0.13111594319343567
                            ],
                            [
                                -0.03013482689857483
                            ]
                        ],
                        [
                            [
                                0.0828513354063034
                            ],
                            [
                                0.009614766575396061
                            ],
                            [
                                0.06999123841524124
                            ],
                            [
                                -0.015623469837009907
                            ],
                            [
                                -0.039104219526052475
                            ],
                            [
                                0.035964298993349075
                            ],
                            [
                                -0.06383264064788818
                            ],
                            [
                                -0.01625554822385311
                            ]
                        ],
                        [
                            [
                                0.017726009711623192
                            ],
                            [
                                -0.053217530250549316
                            ],
                            [
                                -0.020457880571484566
                            ],
                            [
                                -0.0022582951933145523
                            ],
                            [
                                -0.02027740143239498
                            ],
                            [
                                -0.057754140347242355
                            ],
                            [
                                0.08826211839914322
                            ],
                            [
                                0.05249057337641716
                            ]
                        ],
                        [
                            [
                                0.029846740886569023
                            ],
                            [
                                -0.0019041454652324319
                            ],
                            [
                                -0.009244834072887897
                            ],
                            [
                                0.027206942439079285
                            ],
                            [
                                -0.032538432627916336
                            ],
                            [
                                0.008723451755940914
                            ],
                            [
                                0.04692363366484642
                            ],
                            [
                                0.02837030030786991
                            ]
                        ],
                        [
                            [
                                -0.02321138046681881
                            ],
                            [
                                0.014374415390193462
                            ],
                            [
                                0.0033662186469882727
                            ],
                            [
                                0.0171307772397995
                            ],
                            [
                                -0.01745588704943657
                            ],
                            [
                                0.02825876511633396
                            ],
                            [
                                0.004866813309490681
                            ],
                            [
                                -0.0047377534210681915
                            ]
                        ],
                        [
                            [
                                -0.019011488184332848
                            ],
                            [
                                -0.07005929946899414
                            ],
                            [
                                -0.037768613547086716
                            ],
                            [
                                0.08080791682004929
                            ],
                            [
                                0.012436922639608383
                            ],
                            [
                                0.048555657267570496
                            ],
                            [
                                -0.06154153496026993
                            ],
                            [
                                0.0721738338470459
                            ]
                        ]
                    ],
                    [
                        [
                            [
                                0.0846046656370163
                            ],
                            [
                                -0.017978159710764885
                            ],
                            [
                                -0.08734174072742462
                            ],
                            [
                                -0.015561572276055813
                            ],
                            [
                                0.00515787024050951
                            ],
                            [
                                0.025069082155823708
                            ],
                            [
                                -0.08313380926847458
                            ],
                            [
                                -0.026254460215568542
                            ]
                        ],
                        [
                            [
                                0.0016803480684757233
                            ],
                            [
                                -0.0704348087310791
                            ],
                            [
                                0.01989050768315792
                            ],
                            [
                                -0.047638699412345886
                            ],
                            [
                                -0.024383900687098503
                            ],
                            [
                                -0.004060698207467794
                            ],
                            [
                                -0.06297203153371811
                            ],
                            [
                                0.02627786062657833
                            ]
                        ],
                        [
                            [
                                -0.09951966255903244
                            ],
                            [
                                0.03161834925413132
                            ],
                            [
                                0.011412418447434902
                            ],
                            [
                                0.02749921940267086
                            ],
                            [
                                -0.032516010105609894
                            ],
                            [
                                0.04234065115451813
                            ],
                            [
                                -0.025288427248597145
                            ],
                            [
                                -0.016504604369401932
                            ]
                        ],
                        [
                            [
                                -0.008687591180205345
                            ],
                            [
                                -0.051693785935640335
                            ],
                            [
                                -0.0071768732741475105
                            ],
                            [
                                0.04802144691348076
                            ],
                            [
                                -0.06521261483430862
                            ],
                            [
                                -0.06897471100091934
                            ],
                            [
                                -0.10436912626028061
                            ],
                            [
                                0.06607654690742493
                            ]
                        ],
                        [
                            [
                                0.04210467264056206
                            ],
                            [
                                0.10852070152759552
                            ],
                            [
                                -0.006977983750402927
                            ],
                            [
                                0.07513236999511719
                            ],
                            [
                                0.032881055027246475
                            ],
                            [
                                0.09171637147665024
                            ],
                            [
                                0.00020982914429623634
                            ],
                            [
                                -0.0300575103610754
                            ]
                        ],
                        [
                            [
                                -0.0677812248468399
                            ],
                            [
                                0.028019359335303307
                            ],
                            [
                                -0.006533390376716852
                            ],
                            [
                                0.007271726615726948
                            ],
                            [
                                -0.01997563987970352
                            ],
                            [
                                -0.020335223525762558
                            ],
                            [
                                0.015266952104866505
                            ],
                            [
                                0.1703546792268753
                            ]
                        ],
                        [
                            [
                                -0.04444308206439018
                            ],
                            [
                                0.0885482132434845
                            ],
                            [
                                -0.005213897209614515
                            ],
                            [
                                -0.035463567823171616
                            ],
                            [
                                -0.09341556578874588
                            ],
                            [
                                0.0221908800303936
                            ],
                            [
                                0.031648188829422
                            ],
                            [
                                0.017820045351982117
                            ]
                        ]
                    ],
                    [
                        [
                            [
                                0.07989957183599472
                            ],
                            [
                                0.06331662833690643
                            ],
                            [
                                0.119049571454525
                            ],
                            [
                                0.042004089802503586
                            ],
                            [
                                0.003934967331588268
                            ],
                            [
                                -0.006737193558365107
                            ],
                            [
                                0.057235170155763626
                            ],
                            [
                                -0.03391926735639572
                            ]
                        ],
                        [
                            [
                                -0.030829865485429764
                            ],
                            [
                                0.021331464871764183
                            ],
                            [
                                -0.029055137187242508
                            ],
                            [
                                -0.0621333085000515
                            ],
                            [
                                0.02647021971642971
                            ],
                            [
                                -0.001724071684293449
                            ],
                            [
                                0.04718397557735443
                            ],
                            [
                                0.020990021526813507
                            ]
                        ],
                        [
                            [
                                0.007014249451458454
                            ],
                            [
                                0.02582618035376072
                            ],
                            [
                                -0.04869448393583298
                            ],
                            [
                                -0.056426502764225006
                            ],
                            [
                                0.019115852192044258
                            ],
                            [
                                -0.014732792042195797
                            ],
                            [
                                -0.030113166198134422
                            ],
                            [
                                0.06553762406110764
                            ]
                        ],
                        [
                            [
                                -0.023178812116384506
                            ],
                            [
                                0.10311850160360336
                            ],
                            [
                                -0.004467086400836706
                            ],
                            [
                                0.00017978572577703744
                            ],
                            [
                                0.037588682025671005
                            ],
                            [
                                0.05216018110513687
                            ],
                            [
                                -0.027303675189614296
                            ],
                            [
                                0.05130311846733093
                            ]
                        ],
                        [
                            [
                                -0.004994349554181099
                            ],
                            [
                                0.045361850410699844
                            ],
                            [
                                0.06932231038808823
                            ],
                            [
                                -0.002082701539620757
                            ],
                            [
                                0.03327598795294762
                            ],
                            [
                                -0.048485320061445236
                            ],
                            [
                                -0.10417721420526505
                            ],
                            [
                                0.0519431047141552
                            ]
                        ],
                        [
                            [
                                0.06176355108618736
                            ],
                            [
                                0.031158247962594032
                            ],
                            [
                                0.04197331517934799
                            ],
                            [
                                0.005955637898296118
                            ],
                            [
                                0.05985405668616295
                            ],
                            [
                                0.018091142177581787
                            ],
                            [
                                -0.010878085158765316
                            ],
                            [
                                0.009048623032867908
                            ]
                        ],
                        [
                            [
                                -3.4962486097356305e-05
                            ],
                            [
                                0.0068764458410441875
                            ],
                            [
                                -0.07500137388706207
                            ],
                            [
                                0.0664951428771019
                            ],
                            [
                                0.034376706928014755
                            ],
                            [
                                -0.011918817646801472
                            ],
                            [
                                -0.000654264003969729
                            ],
                            [
                                -0.03528302162885666
                            ]
                        ]
                    ]
                ],
                [
                    0.11001559346914291
                ]
            ]
        }
    ]
}