{
    "in_shape": [
        null,
        100,
        1
    ],
    "layers": [
        {
            "type": "dense",
            "activation": "tanh",
            "shape": [
                null,
                100,
                8
            ],
            "weights": [
                [
                    [
                        0.03525925427675247,
                        -0.036680303514003754,
                        0.04543433338403702,
                        -0.040200769901275635,
                        0.002409685170277953,
                        -0.0956454798579216,
                        0.11741342395544052,
                        0.057084452360868454
                    ]
                ],
                [
                    0.023281646892428398,
                    -0.03417462855577469,
                    0.06177374720573425,
                    0.08001672476530075,
                    -0.04187071695923805,
                    0.043204739689826965,
                    -0.007321509066969156,
                    -0.02840331569314003
                ]
            ]
        },
        {
            "type": "conv1d",
            "activation": "tanh",
            "shape": [
                null,
                100,
                4
            ],
            "kernel_size": [
                3
            ],
            "dilation": [
                1
            ],
            "groups": 1,
            "weights": [
                [
                    [
                        [
                            0.37242668867111206,
                            -0.32644981145858765,
                            0.3768661618232727,
                            -0.14664241671562195
                        ],
                        [
                            -0.3083561062812805,
                            -0.056715041399002075,
                            0.2584449052810669,
                            -0.2598416209220886
                        ],
                        [
                            -0.15543848276138306,
                            -0.23909468948841095,
                            0.011815190315246582,
                            -0.3225614130496979
                        ],
                        [
                            0.2156362533569336,
                            -0.30534711480140686,
                            0.2557758092880249,
                            -0.4069078266620636
                        ],
                        [
                            -0.3743285834789276,
                            0.16567355394363403,
                            0.20380234718322754,
                            0.25331413745880127
                        ],
                        [
                            -0.28406375646591187,
                            0.1681308150291443,
                            0.18412542343139648,
                            0.3076359033584595
                        ],
                        [
                            0.09346872568130493,
                            0.07517355680465698,
                            0.07784527540206909,
                            0.31960612535476685
                        ],
                        [
                            -0.3283836245536804,
                            0.21828943490982056,
                            0.14864426851272583,
                            0.04699927568435669
                        ]
                    ],
                    [
                        [
                            -0.28956371545791626,
                            -0.048767149448394775,
                            0.06767553091049194,
                            0.3020622730255127
                        ],
                        [
                            -0.3651118278503418,
                            0.0027322769165039062,
                            -0.12011110782623291,
                            -0.19370123744010925
                        ],
                        [
                            0.29010528326034546,
                            -0.17568296194076538,
                            0.03910869359970093,
                            -0.10241588950157166
                        ],
                        [
                            -0.158256396651268,
                            0.15588968992233276,
                            0.1831519603729248,
                            -0.04581111669540405
                        ],
                        [
                            0.16052991151809692,
                            -0.29221558570861816,
                            -0.19065313041210175,
                            -0.04646041989326477
                        ],
                        [
                            -0.40429195761680603,
                            0.32412391901016235,
                            -0.19836927950382233,
                            -0.06368330121040344
                        ],
                        [
                            0.04623714089393616,
                            0.36746495962142944,
                            -0.2716786861419678,
                            0.004867762327194214
                        ],
                        [
                            0.35893774032592773,
                            0.1958886981010437,
                            0.02435404062271118,
                            0.18939614295959473
                        ]
                    ],
                    [
                        [
                            0.20417273044586182,
                            0.13598579168319702,
                            0.1927202343940735,
                            0.2726175785064697
                        ],
                        [
                            0.29181885719299316,
                            -0.28596413135528564,
                            0.03094521164894104,
                            0.010051101446151733
                        ],
                        [
                            0.014120340347290039,
                            -0.3448740541934967,
                            -0.27742356061935425,
                            -0.0025157928466796875
                        ],
                        [
                            0.08406016230583191,
                            -0.32715487480163574,
                            -0.3666709363460541,
                            -0.132409930229187
                        ],
                        [
                            -0.40354815125465393,
                            0.24778509140014648,
                            -0.14234784245491028,
                            0.19396209716796875
                        ],
                        [
                            -0.4073569178581238,
                            0.041188716888427734,
                            -0.17278864979743958,
                            0.03446879982948303
                        ],
                        [
                            -0.053059279918670654,
                            -0.3376476764678955,
                            0.3719196915626526,
                            0.2155677080154419
                        ],
                        [
                            0.0578446090221405,
                            -0.2914937734603882,
                            0.32355809211730957,
                            -0.0755774974822998
                        ]
                    ]
                ],
                [
                    -0.000987648032605648,
                    0.028350282460451126,
                    -0.014775258488953114,
                    -0.029883993789553642
                ]
            ]
        },
        {
            "type": "batchnorm",
            "activation": "",
            "shape": [
                null,
                100,
                4
            ],
            "epsilon": 0.01,
            "weights": [
                [
                    -0.3349687457084656,
                    -0.28275907039642334,
                    0.8037343621253967,
                    0.673470675945282
                ],
                [
                    0.031221790239214897,
                    0.048572760075330734,
                    0.023911530151963234,
                    -0.06837935000658035
                ],
                [
                    -0.004602754022926092,
                    0.07024582475423813,
                    -0.00018091456149704754,
                    -0.01834085024893284
                ],
                [
                    1.0,
                    1.0,
                    1.0,
                    1.0
                ]
            ]
        },
        {
            "type": "prelu",
            "activation": "",
            "shape": [
                null,
                100,
                4
            ],
            "weights": [
                [
                    [
                        0.4480644464492798,
                        0.33003151416778564,
                        -0.5105138421058655,
                        -0.9688434600830078
                    ]
                ]
            ]
        },
        {
            "type": "conv1d",
            "activation": "tanh",
            "shape": [
                null,
                100,
                4
            ],
            "kernel_size": [
                1
            ],
            "dilation": [
                1
            ],
            "groups": 1,
            "weights": [
                [
                    [
                        [
                            0.5128573775291443,
                            0.6454647183418274,
                            -0.7640472650527954,
                            0.4896870255470276
                        ],
                        [
                            0.5403121113777161,
                            0.48115891218185425,
                            0.18798202276229858,
                            -0.4083484411239624
                        ],
                        [
                            -0.457703560590744,
                            0.016328811645507812,
                            -0.25445860624313354,
                            -0.6482372283935547
                        ],
                        [
                            0.368568480014801,
                            0.23706084489822388,
                            -0.09593582153320312,
                            -0.10631334781646729
                        ]
                    ]
                ],
                [
                    -0.00683240732178092,
                    -0.03507401421666145,
                    0.0328640416264534,
                    -0.05838669463992119
                ]
            ]
        },
        {
            "type": "conv1d",
            "activation": "tanh",
            "shape": [
                null,
                100,
                6
            ],
            "kernel_size": [
                3
            ],
            "dilation": [
                2
            ],
            "groups": 2,
            "weights": [
                [
                    [
                        [
                            0.14748096466064453,
                            0.09324848651885986,
                            -0.29302477836608887,
                            -0.2767244577407837,
                            0.16405677795410156,
                            -0.3371936082839966
                        ],
                        [
                            -0.10856139659881592,
                            -0.12500858306884766,
                            -0.24454903602600098,
                            0.22705507278442383,
                            0.24873852729797363,
                            -0.17119288444519043
                        ]
                    ],
                    [
                        [
                            -0.18716073036193848,
                            -0.09167909622192383,
                            -0.465320348739624,
                            0.4348030090332031,
                            0.2859797477722168,
                            -0.41033732891082764
                        ],
                        [
                            -0.3707231283187866,
                            0.4499746561050415,
                            -0.259981632232666,
                            -0.21434354782104492,
                            0.4978666305541992,
                            -0.2726612091064453
                        ]
                    ],
                    [
                        [
                            0.29099929332733154,
                            0.17125952243804932,
                            0.1200340986251831,
                            0.03820300102233887,
                            -0.44188058376312256,
                            0.11978042125701904
                        ],
                        [
                            -0.3835493326187134,
                            -0.45387983322143555,
                            0.4572385549545288,
                            -0.2273622751235962,
                            0.3832225799560547,
                            0.07302820682525635
                        ]
                    ]
                ],
                [
                    0.03544606640934944,
                    -0.06236513331532478,
                    0.06146169453859329,
                    -0.01604744791984558,
                    -0.024920042604207993,
                    0.04323071241378784
                ]
            ]
        },
        {
            "type": "batchnorm",
            "activation": "",
            "shape": [
                null,
                100,
                6
            ],
            "epsilon": 5.0,
            "weights": [
                [
                    0.12027932703495026,
                    0.055773116648197174,
                    -0.008181807585060596,
                    0.050186704844236374,
                    0.05336116626858711,
                    0.06860266625881195
                ],
                [
                    -0.0009459368884563446,
                    0.01884004846215248,
                    0.04679680988192558,
                    -0.02613072469830513,
                    0.039123546332120895,
                    0.003690708428621292
                ]
            ]
        },
        {
            "type": "prelu",
            "activation": "",
            "shape": [
                null,
                100,
                6
            ],
            "weights": [
                [
                    [
                        1.1657103300094604
                    ]
                ]
            ]
        },
        {
            "type": "dense",
            "activation": "sigmoid",
            "shape": [
                null,
                100,
                1
            ],
            "weights": [
                [
                    [
                        0.4838796854019165
                    ],
                    [
                        -0.04261795058846474
                    ],
                    [
                        0.103337861597538
                    ],
                    [
                        0.7763389945030212
                    ],
                    [
                        -0.3807969093322754
                    ],
                    [
                        -0.07521344721317291
                    ]
                ],
                [
                    -0.11413288116455078
                ]
            ]
        }
    ]
}