{
    "in_shape": [
        null,
        50,
        23,
        1
    ],
    "layers": [
        {
            "type": "conv2d",
            "activation": "relu",
            "shape": [
                null,
                42,
                19,
                2
            ],
            "kernel_size_time": 5,
            "kernel_size_feature": 5,
            "dilation": 2,
            "strides": 1,
            "num_filters_in": 1,
            "num_features_in": 23,
            "num_filters_out": 2,
            "padding": "valid",
            "weights": [
                [
                    [
                        [
                            [
                                0.055123329162597656,
                                0.05058702453970909
                            ]
                        ],
                        [
                            [
                                0.03804364055395126,
                                -0.03542081639170647
                            ]
                        ],
                        [
                            [
                                0.061238646507263184,
                                -0.021538326516747475
                            ]
                        ],
                        [
                            [
                                0.11615917831659317,
                                -0.07411647588014603
                            ]
                        ],
                        [
                            [
                                -0.03323594108223915,
                                0.041604336351156235
                            ]
                        ]
                    ],
                    [
                        [
                            [
                                0.01451004296541214,
                                -0.0594639852643013
                            ]
                        ],
                        [
                            [
                                0.0576334111392498,
                                -0.055896855890750885
                            ]
                        ],
                        [
                            [
                                0.01923629455268383,
                                -0.03232867270708084
                            ]
                        ],
                        [
                            [
                                -0.029043901711702347,
                                -0.04214531555771828
                            ]
                        ],
                        [
                            [
                                0.0097122797742486,
                                -0.13164456188678741
                            ]
                        ]
                    ],
                    [
                        [
                            [
                                -0.05731013044714928,
                                -0.021264372393488884
                            ]
                        ],
                        [
                            [
                                0.05427641421556473,
                                0.05839823558926582
                            ]
                        ],
                        [
                            [
                                -0.008469333872199059,
                                0.060051340609788895
                            ]
                        ],
                        [
                            [
                                -0.05917667970061302,
                                -0.03475167602300644
                            ]
                        ],
                        [
                            [
                                0.01080299448221922,
                                -0.023001722991466522
                            ]
                        ]
                    ],
                    [
                        [
                            [
                                0.02667798101902008,
                                -0.04846003279089928
                            ]
                        ],
                        [
                            [
                                0.06198989227414131,
                                -0.05489237979054451
                            ]
                        ],
                        [
                            [
                                0.037256430834531784,
                                0.05305878445506096
                            ]
                        ],
                        [
                            [
                                -0.047663670033216476,
                                -0.031519077718257904
                            ]
                        ],
                        [
                            [
                                0.005190368741750717,
                                -0.0146112609654665
                            ]
                        ]
                    ],
                    [
                        [
                            [
                                0.00417166855186224,
                                -0.0331939272582531
                            ]
                        ],
                        [
                            [
                                0.01724773831665516,
                                -0.09503500908613205
                            ]
                        ],
                        [
                            [
                                0.016260849311947823,
                                -0.07719563692808151
                            ]
                        ],
                        [
                            [
                                -0.01935846544802189,
                                -0.07119803875684738
                            ]
                        ],
                        [
                            [
                                -0.0320395827293396,
                                0.01183147169649601
                            ]
                        ]
                    ]
                ],
                [
                    0.06036460027098656,
                    0.021162856370210648
                ]
            ]
        },
        {
            "type": "conv2d",
            "activation": "",
            "shape": [
                null,
                42,
                10,
                3
            ],
            "kernel_size_time": 4,
            "kernel_size_feature": 3,
            "dilation": 1,
            "strides": 2,
            "num_filters_in": 2,
            "num_features_in": 19,
            "num_filters_out": 3,
            "padding": "same",
            "weights": [
                [
                    [
                        [
                            [
                                0.014980467036366463,
                                0.02449769340455532,
                                0.07731418311595917
                            ],
                            [
                                0.007906959392130375,
                                -0.043572042137384415,
                                0.018230583518743515
                            ]
                        ],
                        [
                            [
                                0.0414859838783741,
                                0.03991704061627388,
                                -0.09869783371686935
                            ],
                            [
                                0.042390596121549606,
                                -0.031035510823130608,
                                0.002687401371076703
                            ]
                        ],
                        [
                            [
                                -0.09237419068813324,
                                -0.02727762795984745,
                                0.048016201704740524
                            ],
                            [
                                0.08183718472719193,
                                -0.04488984867930412,
                                0.016941970214247704
                            ]
                        ]
                    ],
                    [
                        [
                            [
                                0.03417195379734039,
                                0.060645200312137604,
                                -0.006227274890989065
                            ],
                            [
                                -0.02669735625386238,
                                0.0240092184394598,
                                -0.005224162247031927
                            ]
                        ],
                        [
                            [
                                -0.041362375020980835,
                                -0.00016776527627371252,
                                -0.07348604500293732
                            ],
                            [
                                0.025248730555176735,
                                -0.012419303879141808,
                                -0.03845073655247688
                            ]
                        ],
                        [
                            [
                                0.03661787509918213,
                                -0.02422049641609192,
                                0.04205704480409622
                            ],
                            [
                                -0.005780864041298628,
                                -0.0321245901286602,
                                -0.0393492728471756
                            ]
                        ]
                    ],
                    [
                        [
                            [
                                0.0037781731225550175,
                                -0.05737588554620743,
                                -0.028381476178765297
                            ],
                            [
                                -0.04282747954130173,
                                -0.021190587431192398,
                                0.0870298221707344
                            ]
                        ],
                        [
                            [
                                -0.005610484164208174,
                                -0.09766580909490585,
                                0.10592897236347198
                            ],
                            [
                                0.0020707754883915186,
                                -0.08096224814653397,
                                0.024295568466186523
                            ]
                        ],
                        [
                            [
                                0.0007084874669089913,
                                -0.030473632737994194,
                                0.05165106803178787
                            ],
                            [
                                -0.029836053028702736,
                                -0.04378480464220047,
                                -0.005003191530704498
                            ]
                        ]
                    ],
                    [
                        [
                            [
                                0.014468641951680183,
                                -0.027179205790162086,
                                -0.024803129956126213
                            ],
                            [
                                -0.03588768094778061,
                                -0.0034785964526236057,
                                -0.03381897136569023
                            ]
                        ],
                        [
                            [
                                -0.03098670020699501,
                                -0.03041060082614422,
                                -0.1085071936249733
                            ],
                            [
                                0.11246401071548462,
                                0.07494686543941498,
                                0.03543411195278168
                            ]
                        ],
                        [
                            [
                                0.02542259357869625,
                                0.038062479346990585,
                                -0.05743236467242241
                            ],
                            [
                                0.006338267121464014,
                                0.002447813516482711,
                                0.0028899414464831352
                            ]
                        ]
                    ]
                ],
                [
                    -0.10643128305673599,
                    0.01594664342701435,
                    -0.04602741450071335
                ]
            ]
        },
        {
            "type": "conv2d",
            "activation": "",
            "shape": [
                null,
                39,
                8,
                1
            ],
            "kernel_size_time": 2,
            "kernel_size_feature": 3,
            "dilation": 3,
            "strides": 1,
            "num_filters_in": 3,
            "num_features_in": 10,
            "num_filters_out": 1,
            "padding": "valid",
            "weights": [
                [
                    [
                        [
                            [
                                -0.08804226666688919
                            ],
                            [
                                0.046866778284311295
                            ],
                            [
                                -0.07535549253225327
                            ]
                        ],
                        [
                            [
                                -0.05726540833711624
                            ],
                            [
                                0.025505801662802696
                            ],
                            [
                                -0.04356693476438522
                            ]
                        ],
                        [
                            [
                                -0.016936032101511955
                            ],
                            [
                                0.040902815759181976
                            ],
                            [
                                0.030524397268891335
                            ]
                        ]
                    ],
                    [
                        [
                            [
                                0.13288165628910065
                            ],
                            [
                                0.01807108148932457
                            ],
                            [
                                -0.06518404930830002
                            ]
                        ],
                        [
                            [
                                0.01646960712969303
                            ],
                            [
                                -0.07094632089138031
                            ],
                            [
                                -0.04351119324564934
                            ]
                        ],
                        [
                            [
                                8.326135139213875e-05
                            ],
                            [
                                0.021812623366713524
                            ],
                            [
                                0.01538854744285345
                            ]
                        ]
                    ]
                ],
                [
                    -0.012036077678203583
                ]
            ]
        }
    ]
}