{
    "in_shape": [
        null,
        100,
        1
    ],
    "layers": [
        {
            "type": "dense",
            "activation": "tanh",
            "shape": [
                null,
                100,
                8
            ],
            "weights": [
                [
                    [
                        0.0009471314842812717,
                        -0.004702396225184202,
                        0.015759848058223724,
                        0.082425557076931,
                        0.00924795214086771,
                        0.10517507791519165,
                        0.07247377932071686,
                        0.02767290733754635
                    ]
                ],
                [
                    0.07219160348176956,
                    0.044589389115571976,
                    -0.023280534893274307,
                    0.06235567480325699,
                    0.0725635513663292,
                    0.04544459655880928,
                    0.00325751188211143,
                    -0.031818997114896774
                ]
            ]
        },
        {
            "type": "conv1d",
            "activation": "tanh",
            "shape": [
                null,
                100,
                4
            ],
            "weights": [
                [
                    [
                        [
                            -0.3271105885505676,
                            0.15990298986434937,
                            0.19085276126861572,
                            0.34513550996780396
                        ],
                        [
                            0.2913203835487366,
                            -0.39288872480392456,
                            -0.26538312435150146,
                            0.15503668785095215
                        ],
                        [
                            0.23682916164398193,
                            0.29775309562683105,
                            -0.012772738933563232,
                            -0.312956303358078
                        ],
                        [
                            -0.021058976650238037,
                            0.40768367052078247,
                            -0.021054208278656006,
                            0.2340429425239563
                        ],
                        [
                            0.07443714141845703,
                            -0.24485063552856445,
                            -0.016117721796035767,
                            -0.19773095846176147
                        ],
                        [
                            -0.12221050262451172,
                            0.07012981176376343,
                            -0.2716817259788513,
                            -0.1234540343284607
                        ],
                        [
                            -0.3598240613937378,
                            0.19421333074569702,
                            -0.21669648587703705,
                            -0.09781578183174133
                        ],
                        [
                            0.11121821403503418,
                            -0.01583915948867798,
                            -0.38514813780784607,
                            0.18326246738433838
                        ]
                    ],
                    [
                        [
                            -0.25579866766929626,
                            0.07201176881790161,
                            -0.1913914978504181,
                            0.1999680995941162
                        ],
                        [
                            0.13473397493362427,
                            0.14873343706130981,
                            -0.09277990460395813,
                            0.14148485660552979
                        ],
                        [
                            0.12954741716384888,
                            -0.35209545493125916,
                            -0.17637112736701965,
                            0.320098340511322
                        ],
                        [
                            0.10046142339706421,
                            -0.20462483167648315,
                            -0.1936069279909134,
                            0.34202128648757935
                        ],
                        [
                            -0.30667921900749207,
                            0.39902162551879883,
                            -0.21599909663200378,
                            0.26426392793655396
                        ],
                        [
                            -0.35907137393951416,
                            -0.24831251800060272,
                            0.1706293821334839,
                            0.17163622379302979
                        ],
                        [
                            0.08039221167564392,
                            0.251034677028656,
                            0.008227646350860596,
                            -0.40610063076019287
                        ],
                        [
                            -0.02365410327911377,
                            -0.1142861545085907,
                            -0.05035543441772461,
                            -0.1101912260055542
                        ]
                    ],
                    [
                        [
                            0.19053280353546143,
                            -0.10139533877372742,
                            0.3987331986427307,
                            0.05365157127380371
                        ],
                        [
                            -0.25499528646469116,
                            -0.06781062483787537,
                            -0.3605054020881653,
                            0.3858879804611206
                        ],
                        [
                            -0.37350815534591675,
                            0.14806658029556274,
                            -0.30731022357940674,
                            -0.25133016705513
                        ],
                        [
                            0.08865267038345337,
                            0.003698110580444336,
                            -0.2825052738189697,
                            0.27854716777801514
                        ],
                        [
                            0.18973684310913086,
                            -0.26473188400268555,
                            -0.31669604778289795,
                            0.3471371531486511
                        ],
                        [
                            0.05859416723251343,
                            -0.2277127504348755,
                            -0.17183730006217957,
                            -0.011255502700805664
                        ],
                        [
                            0.016871780157089233,
                            -0.10684946179389954,
                            0.33675700426101685,
                            0.3616732358932495
                        ],
                        [
                            0.03965523838996887,
                            -0.17641550302505493,
                            0.3154337406158447,
                            -0.3179692029953003
                        ]
                    ]
                ],
                [
                    0.0015994779532775283,
                    -0.010414434596896172,
                    -0.034206192940473557,
                    -0.11077282577753067
                ]
            ],
            "kernel_size": [
                3
            ],
            "dilation": [
                1
            ]
        },
        {
            "type": "batchnorm",
            "activation": "",
            "shape": [
                null,
                100,
                4
            ],
            "weights": [
                [
                    -0.6471941471099854,
                    0.06081831455230713,
                    0.14124852418899536,
                    -0.8276715278625488
                ],
                [
                    0.04705193266272545,
                    0.09012443572282791,
                    -0.04930708557367325,
                    0.04985980689525604
                ],
                [
                    0.05077620968222618,
                    0.002064606873318553,
                    -0.030903218314051628,
                    -0.029652629047632217
                ],
                [
                    1.0,
                    1.0,
                    1.0,
                    1.0
                ]
            ],
            "epsilon": 0.01
        },
        {
            "type": "prelu",
            "activation": "",
            "shape": [
                null,
                100,
                4
            ],
            "weights": [
                [
                    [
                        -0.6547965407371521,
                        -0.8872486352920532,
                        1.0067453384399414,
                        -0.880832314491272
                    ]
                ]
            ]
        },
        {
            "type": "conv1d",
            "activation": "tanh",
            "shape": [
                null,
                100,
                4
            ],
            "weights": [
                [
                    [
                        [
                            0.22583508491516113,
                            0.17831742763519287,
                            -0.17137181758880615,
                            0.2089747190475464
                        ],
                        [
                            -0.4487520456314087,
                            0.03246116638183594,
                            -0.15141892433166504,
                            0.4792361259460449
                        ],
                        [
                            -0.41741418838500977,
                            0.19868814945220947,
                            0.06690800189971924,
                            0.37810349464416504
                        ],
                        [
                            0.42462432384490967,
                            0.15619492530822754,
                            -0.13409686088562012,
                            0.345906138420105
                        ]
                    ],
                    [
                        [
                            0.11925184726715088,
                            -0.24297547340393066,
                            0.4654426574707031,
                            -0.09578287601470947
                        ],
                        [
                            -0.3043292760848999,
                            0.15977489948272705,
                            -0.33619558811187744,
                            0.2940633296966553
                        ],
                        [
                            0.016393423080444336,
                            -0.004188179969787598,
                            0.21875059604644775,
                            0.41882646083831787
                        ],
                        [
                            -0.3939718008041382,
                            -0.49368512630462646,
                            0.4765690565109253,
                            -0.35796356201171875
                        ]
                    ],
                    [
                        [
                            0.16046321392059326,
                            -0.21007418632507324,
                            -0.3117934465408325,
                            -0.009584665298461914
                        ],
                        [
                            0.3821225166320801,
                            0.23587584495544434,
                            0.058402061462402344,
                            -0.24053871631622314
                        ],
                        [
                            -0.15454864501953125,
                            0.135309100151062,
                            0.2325659990310669,
                            0.4962567090988159
                        ],
                        [
                            0.4236825704574585,
                            -0.20402956008911133,
                            -0.054691433906555176,
                            0.42575836181640625
                        ]
                    ]
                ],
                [
                    0.04822538420557976,
                    0.052274007350206375,
                    -0.002041701227426529,
                    -0.10084336996078491
                ]
            ],
            "kernel_size": [
                3
            ],
            "dilation": [
                2
            ]
        },
        {
            "type": "batchnorm",
            "activation": "",
            "shape": [
                null,
                100,
                4
            ],
            "weights": [
                [
                    0.03581799194216728,
                    0.0071151042357087135,
                    -0.032265935093164444,
                    0.02310522459447384
                ],
                [
                    -0.0438493974506855,
                    0.005688775330781937,
                    -0.014129102230072021,
                    0.047043945640325546
                ]
            ],
            "epsilon": 5.0
        },
        {
            "type": "prelu",
            "activation": "",
            "shape": [
                null,
                100,
                4
            ],
            "weights": [
                [
                    [
                        -1.2086455821990967
                    ]
                ]
            ]
        },
        {
            "type": "dense",
            "activation": "sigmoid",
            "shape": [
                null,
                100,
                8
            ],
            "weights": [
                [
                    [
                        -0.3607579469680786,
                        -0.3180055618286133,
                        0.2641977369785309,
                        -0.08390212059020996,
                        -0.4396827220916748,
                        0.522953450679779,
                        0.06894339621067047,
                        0.46939507126808167
                    ],
                    [
                        0.5044164061546326,
                        -0.060351766645908356,
                        0.22730955481529236,
                        -0.4037213623523712,
                        -0.36548876762390137,
                        0.05389484763145447,
                        0.528800368309021,
                        -0.33338356018066406
                    ],
                    [
                        0.6241973638534546,
                        0.08304919302463531,
                        0.2813071012496948,
                        0.3479686379432678,
                        0.362206369638443,
                        0.3879930078983307,
                        -0.010713554918766022,
                        0.34845077991485596
                    ],
                    [
                        -0.43739640712738037,
                        0.18526360392570496,
                        0.3099784851074219,
                        0.33531975746154785,
                        0.2822969853878021,
                        0.2943364977836609,
                        0.4404190182685852,
                        -0.45336681604385376
                    ]
                ],
                [
                    -0.030551478266716003,
                    0.001084466464817524,
                    -0.07738001644611359,
                    -0.048178259283304214,
                    0.056362081319093704,
                    -4.477240054256981e-06,
                    -0.015335406176745892,
                    -0.004333370830863714
                ]
            ]
        },
        {
            "type": "dense",
            "activation": "",
            "shape": [
                null,
                100,
                1
            ],
            "weights": [
                [
                    [
                        0.31479668617248535
                    ],
                    [
                        -0.09560170769691467
                    ],
                    [
                        -0.09262937307357788
                    ],
                    [
                        0.5814008712768555
                    ],
                    [
                        0.4769861102104187
                    ],
                    [
                        -0.544793963432312
                    ],
                    [
                        0.13944023847579956
                    ],
                    [
                        0.03737081214785576
                    ]
                ],
                [
                    0.043506767600774765
                ]
            ]
        }
    ]
}