{
    "in_shape": [
        null,
        100,
        50,
        1
    ],
    "layers": [
        {
            "type": "conv2d",
            "activation": "",
            "shape": [
                null,
                96,
                16,
                8
            ],
            "kernel_size_time": 5,
            "kernel_size_feature": 3,
            "dilation": 1,
            "strides": 3,
            "num_filters_in": 1,
            "num_features_in": 50,
            "num_filters_out": 8,
            "weights": [
                [
                    [
                        [
                            [
                                0.045710574835538864,
                                -0.01742766611278057,
                                -0.0722840428352356,
                                0.12753526866436005,
                                -0.019929135218262672,
                                0.015181913040578365,
                                -0.015569533221423626,
                                0.06471488624811172
                            ]
                        ],
                        [
                            [
                                -0.003842715872451663,
                                -0.04941043630242348,
                                0.07632658630609512,
                                -0.050889965146780014,
                                -0.022080598399043083,
                                -0.048881907016038895,
                                0.005883754696696997,
                                0.08199641853570938
                            ]
                        ],
                        [
                            [
                                -0.06303080916404724,
                                -0.010471809655427933,
                                0.0022156606428325176,
                                -0.022642027586698532,
                                0.041712578386068344,
                                0.06880965083837509,
                                0.036410972476005554,
                                0.06815390288829803
                            ]
                        ]
                    ],
                    [
                        [
                            [
                                -0.04300105944275856,
                                -0.014523929916322231,
                                -0.06617726385593414,
                                -0.08248165994882584,
                                0.009184536524116993,
                                -0.09538974612951279,
                                0.037911515682935715,
                                -0.05516276881098747
                            ]
                        ],
                        [
                            [
                                -0.0043181125074625015,
                                -0.0006578389438800514,
                                -0.025159388780593872,
                                0.006832015700638294,
                                -0.0008547836914658546,
                                -0.008806681260466576,
                                -0.027340618893504143,
                                0.007597443647682667
                            ]
                        ],
                        [
                            [
                                -0.06025571748614311,
                                -0.05052490159869194,
                                0.06937705725431442,
                                -0.04203755781054497,
                                -0.005319894291460514,
                                -0.023396188393235207,
                                -0.020653389394283295,
                                0.032228246331214905
                            ]
                        ]
                    ],
                    [
                        [
                            [
                                0.11165423691272736,
                                0.010355069302022457,
                                -0.06555075198411942,
                                0.05124130845069885,
                                -0.017992623150348663,
                                -0.024566514417529106,
                                -0.006545347161591053,
                                -0.025560570880770683
                            ]
                        ],
                        [
                            [
                                0.03995296359062195,
                                0.005791317205876112,
                                -0.07119400054216385,
                                -0.031249577179551125,
                                0.10013953596353531,
                                0.020847609266638756,
                                0.01021888293325901,
                                0.03825132176280022
                            ]
                        ],
                        [
                            [
                                -0.10354729741811752,
                                -0.06415009498596191,
                                -0.05323619768023491,
                                0.0032682016026228666,
                                0.007352694869041443,
                                0.037130456417798996,
                                -0.04132891446352005,
                                -0.02779039554297924
                            ]
                        ]
                    ],
                    [
                        [
                            [
                                -0.04550584405660629,
                                0.030954597517848015,
                                0.032049600034952164,
                                -0.02121697925031185,
                                -0.11995476484298706,
                                0.019472209736704826,
                                -0.004960772581398487,
                                -0.07781697064638138
                            ]
                        ],
                        [
                            [
                                -0.015183414332568645,
                                0.00568187003955245,
                                0.05916036292910576,
                                -0.06492727249860764,
                                0.06957332044839859,
                                -0.027376925572752953,
                                0.02306312508881092,
                                -0.002662276616320014
                            ]
                        ],
                        [
                            [
                                0.011758536100387573,
                                -0.026934677734971046,
                                0.0559365451335907,
                                0.017991704866290092,
                                0.050544291734695435,
                                -0.0012618579203262925,
                                0.028435422107577324,
                                0.06553986668586731
                            ]
                        ]
                    ],
                    [
                        [
                            [
                                0.013428931124508381,
                                0.011779122985899448,
                                -0.03796411678195,
                                0.00683193514123559,
                                0.02387220226228237,
                                0.03210343047976494,
                                0.002377153607085347,
                                0.07096099108457565
                            ]
                        ],
                        [
                            [
                                0.043583549559116364,
                                0.015180236659944057,
                                -0.05780407786369324,
                                -0.01828519068658352,
                                0.09002383053302765,
                                -0.059299565851688385,
                                0.02870764210820198,
                                0.02478679083287716
                            ]
                        ],
                        [
                            [
                                -0.010566878132522106,
                                0.09239398688077927,
                                0.03354613110423088,
                                -0.0034084864892065525,
                                -0.009024130180478096,
                                0.006200787611305714,
                                -0.1040235087275505,
                                0.025372374802827835
                            ]
                        ]
                    ]
                ],
                [
                    0.07938023656606674,
                    -0.02649778127670288,
                    0.07391681522130966,
                    -0.019511835649609566,
                    -0.0014984841691330075,
                    0.021401194855570793,
                    -0.12498320639133453,
                    -0.008995923213660717
                ]
            ]
        },
        {
            "type": "conv2d",
            "activation": "",
            "shape": [
                null,
                76,
                10,
                1
            ],
            "kernel_size_time": 5,
            "kernel_size_feature": 7,
            "dilation": 5,
            "strides": 1,
            "num_filters_in": 8,
            "num_features_in": 16,
            "num_filters_out": 1,
            "weights": [
                [
                    [
                        [
                            [
                                -0.02980945073068142
                            ],
                            [
                                0.019516456872224808
                            ],
                            [
                                0.006719405297189951
                            ],
                            [
                                -0.0667864978313446
                            ],
                            [
                                -0.05012159422039986
                            ],
                            [
                                -0.04446752741932869
                            ],
                            [
                                0.02066219411790371
                            ],
                            [
                                -0.017612295225262642
                            ]
                        ],
                        [
                            [
                                0.06545048207044601
                            ],
                            [
                                0.13046838343143463
                            ],
                            [
                                0.02490747533738613
                            ],
                            [
                                -0.005421625450253487
                            ],
                            [
                                -0.026841038838028908
                            ],
                            [
                                -0.07141494005918503
                            ],
                            [
                                0.0010901248315349221
                            ],
                            [
                                -0.05340833216905594
                            ]
                        ],
                        [
                            [
                                0.03565621003508568
                            ],
                            [
                                -0.010234572924673557
                            ],
                            [
                                -0.022281330078840256
                            ],
                            [
                                0.0664808377623558
                            ],
                            [
                                -0.012444852851331234
                            ],
                            [
                                -0.059249039739370346
                            ],
                            [
                                -0.010095207951962948
                            ],
                            [
                                0.06118553504347801
                            ]
                        ],
                        [
                            [
                                0.02609845995903015
                            ],
                            [
                                0.00032821131753735244
                            ],
                            [
                                0.0408007986843586
                            ],
                            [
                                -0.053483616560697556
                            ],
                            [
                                -0.006857708096504211
                            ],
                            [
                                -0.022498195990920067
                            ],
                            [
                                0.016473641619086266
                            ],
                            [
                                0.1213085800409317
                            ]
                        ],
                        [
                            [
                                -0.034998953342437744
                            ],
                            [
                                -0.006520750466734171
                            ],
                            [
                                -0.04212847352027893
                            ],
                            [
                                -0.004463381599634886
                            ],
                            [
                                -0.01739683747291565
                            ],
                            [
                                0.009898505173623562
                            ],
                            [
                                0.04695078730583191
                            ],
                            [
                                -0.0809236541390419
                            ]
                        ],
                        [
                            [
                                -0.025315290316939354
                            ],
                            [
                                0.05798996612429619
                            ],
                            [
                                0.036334577947854996
                            ],
                            [
                                -0.039211858063936234
                            ],
                            [
                                -0.022984545677900314
                            ],
                            [
                                -0.08505471795797348
                            ],
                            [
                                0.028443599119782448
                            ],
                            [
                                -0.01765342615544796
                            ]
                        ],
                        [
                            [
                                0.020137181505560875
                            ],
                            [
                                -0.008352052420377731
                            ],
                            [
                                0.013757157139480114
                            ],
                            [
                                -0.06816814839839935
                            ],
                            [
                                0.062029946595430374
                            ],
                            [
                                -0.05084307864308357
                            ],
                            [
                                0.06976120918989182
                            ],
                            [
                                -0.13081912696361542
                            ]
                        ]
                    ],
                    [
                        [
                            [
                                0.02646631933748722
                            ],
                            [
                                0.011849908158183098
                            ],
                            [
                                0.05155659466981888
                            ],
                            [
                                -0.1117027997970581
                            ],
                            [
                                0.02094280533492565
                            ],
                            [
                                0.05102568864822388
                            ],
                            [
                                -0.019382474943995476
                            ],
                            [
                                -0.06376033276319504
                            ]
                        ],
                        [
                            [
                                -0.11213896423578262
                            ],
                            [
                                0.022835180163383484
                            ],
                            [
                                -0.0493769608438015
                            ],
                            [
                                -0.011559548787772655
                            ],
                            [
                                -0.036550261080265045
                            ],
                            [
                                -0.0089960228651762
                            ],
                            [
                                -0.05422886088490486
                            ],
                            [
                                0.038786452263593674
                            ]
                        ],
                        [
                            [
                                -0.14554180204868317
                            ],
                            [
                                0.025733862072229385
                            ],
                            [
                                -0.003848939435556531
                            ],
                            [
                                -0.041332803666591644
                            ],
                            [
                                0.04569526016712189
                            ],
                            [
                                -0.08685742318630219
                            ],
                            [
                                -0.017609307542443275
                            ],
                            [
                                0.02400496043264866
                            ]
                        ],
                        [
                            [
                                0.10960473120212555
                            ],
                            [
                                0.020027346909046173
                            ],
                            [
                                0.011908515356481075
                            ],
                            [
                                0.0035931800957769156
                            ],
                            [
                                0.026608670130372047
                            ],
                            [
                                0.058663882315158844
                            ],
                            [
                                -0.020601587370038033
                            ],
                            [
                                -0.033580802381038666
                            ]
                        ],
                        [
                            [
                                0.014905479736626148
                            ],
                            [
                                -0.07936457544565201
                            ],
                            [
                                0.032633449882268906
                            ],
                            [
                                -0.039507634937763214
                            ],
                            [
                                0.11965669691562653
                            ],
                            [
                                0.02508506551384926
                            ],
                            [
                                0.00491552846506238
                            ],
                            [
                                -0.04392233490943909
                            ]
                        ],
                        [
                            [
                                -0.08683457225561142
                            ],
                            [
                                -0.010185068473219872
                            ],
                            [
                                0.018021702766418457
                            ],
                            [
                                -0.014349355362355709
                            ],
                            [
                                0.06163365766406059
                            ],
                            [
                                0.03482471778988838
                            ],
                            [
                                0.037969592958688736
                            ],
                            [
                                -0.015375489369034767
                            ]
                        ],
                        [
                            [
                                -0.06036226823925972
                            ],
                            [
                                0.06065811589360237
                            ],
                            [
                                -0.025943681597709656
                            ],
                            [
                                -0.0404808484017849
                            ],
                            [
                                0.0001799638121156022
                            ],
                            [
                                -0.0033672244753688574
                            ],
                            [
                                0.13316752016544342
                            ],
                            [
                                -0.004770916420966387
                            ]
                        ]
                    ],
                    [
                        [
                            [
                                -0.029694054275751114
                            ],
                            [
                                0.03816039487719536
                            ],
                            [
                                -0.024654438719153404
                            ],
                            [
                                -0.023576414212584496
                            ],
                            [
                                0.06556860357522964
                            ],
                            [
                                -0.06261233985424042
                            ],
                            [
                                -0.0385255441069603
                            ],
                            [
                                0.057030390948057175
                            ]
                        ],
                        [
                            [
                                0.024650877341628075
                            ],
                            [
                                -0.009676358662545681
                            ],
                            [
                                0.017386069521307945
                            ],
                            [
                                -0.03526400774717331
                            ],
                            [
                                -0.04327012598514557
                            ],
                            [
                                0.01882472075521946
                            ],
                            [
                                -0.008489378727972507
                            ],
                            [
                                0.0033055294770747423
                            ]
                        ],
                        [
                            [
                                -0.028079411014914513
                            ],
                            [
                                -0.017020564526319504
                            ],
                            [
                                -0.05209491401910782
                            ],
                            [
                                -0.00798071175813675
                            ],
                            [
                                -0.03880634903907776
                            ],
                            [
                                -0.017123540863394737
                            ],
                            [
                                0.04282636567950249
                            ],
                            [
                                0.017895950004458427
                            ]
                        ],
                        [
                            [
                                -0.010576019063591957
                            ],
                            [
                                -0.0037375097163021564
                            ],
                            [
                                0.007509536575525999
                            ],
                            [
                                0.04365814849734306
                            ],
                            [
                                -0.011667340062558651
                            ],
                            [
                                0.05706620216369629
                            ],
                            [
                                -0.08922240138053894
                            ],
                            [
                                -0.09936388581991196
                            ]
                        ],
                        [
                            [
                                0.051579590886831284
                            ],
                            [
                                -0.001664965064264834
                            ],
                            [
                                0.009408362209796906
                            ],
                            [
                                -0.007672484498471022
                            ],
                            [
                                0.006277050822973251
                            ],
                            [
                                -0.027906620875000954
                            ],
                            [
                                0.10705368965864182
                            ],
                            [
                                -0.009920639917254448
                            ]
                        ],
                        [
                            [
                                0.04583156108856201
                            ],
                            [
                                -0.004193819593638182
                            ],
                            [
                                -0.09788051247596741
                            ],
                            [
                                -0.06628640741109848
                            ],
                            [
                                -0.028548747301101685
                            ],
                            [
                                0.0003310450119897723
                            ],
                            [
                                -0.040385160595178604
                            ],
                            [
                                0.04167265072464943
                            ]
                        ],
                        [
                            [
                                -0.01330846268683672
                            ],
                            [
                                0.09384605288505554
                            ],
                            [
                                -0.07121345400810242
                            ],
                            [
                                -0.025717247277498245
                            ],
                            [
                                -0.07872625440359116
                            ],
                            [
                                0.0016719658160582185
                            ],
                            [
                                0.10661249607801437
                            ],
                            [
                                -0.07685526460409164
                            ]
                        ]
                    ],
                    [
                        [
                            [
                                0.018481655046343803
                            ],
                            [
                                0.008847758173942566
                            ],
                            [
                                0.002631906885653734
                            ],
                            [
                                0.043332722038030624
                            ],
                            [
                                0.037650708109140396
                            ],
                            [
                                0.08246424049139023
                            ],
                            [
                                0.05863896757364273
                            ],
                            [
                                -0.0359775684773922
                            ]
                        ],
                        [
                            [
                                -0.0625334233045578
                            ],
                            [
                                -0.010304991155862808
                            ],
                            [
                                0.04181874915957451
                            ],
                            [
                                -0.007187886629253626
                            ],
                            [
                                -0.023531537503004074
                            ],
                            [
                                -0.008659721352159977
                            ],
                            [
                                0.028300711885094643
                            ],
                            [
                                0.06958547979593277
                            ]
                        ],
                        [
                            [
                                -0.06036140397191048
                            ],
                            [
                                0.0638957992196083
                            ],
                            [
                                0.015217064879834652
                            ],
                            [
                                -0.040882911533117294
                            ],
                            [
                                -0.015728652477264404
                            ],
                            [
                                -0.005476006772369146
                            ],
                            [
                                0.06444010883569717
                            ],
                            [
                                0.022387100383639336
                            ]
                        ],
                        [
                            [
                                0.009257333353161812
                            ],
                            [
                                -0.04281524196267128
                            ],
                            [
                                -0.008642898872494698
                            ],
                            [
                                0.10956815630197525
                            ],
                            [
                                0.10411633551120758
                            ],
                            [
                                0.026345405727624893
                            ],
                            [
                                -0.05379334092140198
                            ],
                            [
                                0.04102061316370964
                            ]
                        ],
                        [
                            [
                                0.07423567026853561
                            ],
                            [
                                0.0427851565182209
                            ],
                            [
                                -0.0012765963329002261
                            ],
                            [
                                0.01800340600311756
                            ],
                            [
                                0.03211825340986252
                            ],
                            [
                                0.025639811530709267
                            ],
                            [
                                -0.08483483642339706
                            ],
                            [
                                -0.05430779606103897
                            ]
                        ],
                        [
                            [
                                0.13355319201946259
                            ],
                            [
                                0.032632313668727875
                            ],
                            [
                                0.007740297820419073
                            ],
                            [
                                0.07411021739244461
                            ],
                            [
                                -0.009189695119857788
                            ],
                            [
                                0.00014015134365763515
                            ],
                            [
                                0.029342547059059143
                            ],
                            [
                                -0.016400426626205444
                            ]
                        ],
                        [
                            [
                                0.045701414346694946
                            ],
                            [
                                -0.02413947507739067
                            ],
                            [
                                0.013107473962008953
                            ],
                            [
                                -0.050394732505083084
                            ],
                            [
                                0.0026763530913740396
                            ],
                            [
                                -0.06652956455945969
                            ],
                            [
                                -0.008168524131178856
                            ],
                            [
                                -0.025900527834892273
                            ]
                        ]
                    ],
                    [
                        [
                            [
                                0.021145489066839218
                            ],
                            [
                                0.0039235614240169525
                            ],
                            [
                                -0.0374830923974514
                            ],
                            [
                                0.005726478528231382
                            ],
                            [
                                -0.020766379311680794
                            ],
                            [
                                -0.01897190697491169
                            ],
                            [
                                0.004963064566254616
                            ],
                            [
                                0.01983238197863102
                            ]
                        ],
                        [
                            [
                                -0.029512032866477966
                            ],
                            [
                                -0.04017389193177223
                            ],
                            [
                                0.009366189129650593
                            ],
                            [
                                0.05510840564966202
                            ],
                            [
                                -0.0060853417962789536
                            ],
                            [
                                -0.016394315287470818
                            ],
                            [
                                -0.06431353837251663
                            ],
                            [
                                0.07035984843969345
                            ]
                        ],
                        [
                            [
                                0.003590449457988143
                            ],
                            [
                                -0.06835413724184036
                            ],
                            [
                                0.07992637157440186
                            ],
                            [
                                0.014305558986961842
                            ],
                            [
                                -0.10727542638778687
                            ],
                            [
                                0.003303374396637082
                            ],
                            [
                                0.08237462490797043
                            ],
                            [
                                0.0025596392806619406
                            ]
                        ],
                        [
                            [
                                0.012847702018916607
                            ],
                            [
                                0.06217845156788826
                            ],
                            [
                                -0.06274094432592392
                            ],
                            [
                                -0.05953611806035042
                            ],
                            [
                                -0.017339367419481277
                            ],
                            [
                                -0.018807733431458473
                            ],
                            [
                                0.037159305065870285
                            ],
                            [
                                0.055310364812612534
                            ]
                        ],
                        [
                            [
                                -0.03181084990501404
                            ],
                            [
                                -0.09217208623886108
                            ],
                            [
                                -0.018590375781059265
                            ],
                            [
                                -0.015028036199510098
                            ],
                            [
                                -0.018662050366401672
                            ],
                            [
                                -0.02219300903379917
                            ],
                            [
                                0.02558617666363716
                            ],
                            [
                                0.008497383445501328
                            ]
                        ],
                        [
                            [
                                0.014119992032647133
                            ],
                            [
                                0.025018343701958656
                            ],
                            [
                                -0.08903881907463074
                            ],
                            [
                                -0.0011695873690769076
                            ],
                            [
                                -0.05395293980836868
                            ],
                            [
                                -0.036395683884620667
                            ],
                            [
                                0.009883986786007881
                            ],
                            [
                                -0.021857423707842827
                            ]
                        ],
                        [
                            [
                                0.0008502473938278854
                            ],
                            [
                                -0.015183982439339161
                            ],
                            [
                                0.019803352653980255
                            ],
                            [
                                -0.008939572609961033
                            ],
                            [
                                0.05208650976419449
                            ],
                            [
                                0.002510435413569212
                            ],
                            [
                                -0.0697866678237915
                            ],
                            [
                                -0.013511762022972107
                            ]
                        ]
                    ]
                ],
                [
                    0.03349434956908226
                ]
            ]
        }
    ]
}