{
    "in_shape": [
        null,
        50,
        23,
        1
    ],
    "layers": [
        {
            "type": "conv2d",
            "activation": "",
            "shape": [
                null,
                42,
                19,
                2
            ],
            "kernel_size_time": 5,
            "kernel_size_feature": 5,
            "dilation": 2,
            "strides": 1,
            "num_filters_in": 1,
            "num_features_in": 23,
            "num_filters_out": 2,
            "padding": "valid",
            "weights": [
                [
                    [
                        [
                            [
                                0.09530436247587204,
                                0.036341410130262375
                            ]
                        ],
                        [
                            [
                                -0.04274597391486168,
                                0.05429160222411156
                            ]
                        ],
                        [
                            [
                                -0.1024380475282669,
                                -0.020180925726890564
                            ]
                        ],
                        [
                            [
                                0.0970308855175972,
                                0.0063103074207901955
                            ]
                        ],
                        [
                            [
                                -0.0326557494699955,
                                0.0012521396856755018
                            ]
                        ]
                    ],
                    [
                        [
                            [
                                -0.049117010086774826,
                                0.0031374942045658827
                            ]
                        ],
                        [
                            [
                                -0.019305352121591568,
                                0.02012050338089466
                            ]
                        ],
                        [
                            [
                                -0.0004442525969352573,
                                -0.04841272160410881
                            ]
                        ],
                        [
                            [
                                0.06235361099243164,
                                0.0447491779923439
                            ]
                        ],
                        [
                            [
                                0.023195883259177208,
                                0.040220942348241806
                            ]
                        ]
                    ],
                    [
                        [
                            [
                                0.07285910099744797,
                                -0.04749002307653427
                            ]
                        ],
                        [
                            [
                                -0.0190045814961195,
                                -0.03189949691295624
                            ]
                        ],
                        [
                            [
                                0.01041413750499487,
                                0.10472480207681656
                            ]
                        ],
                        [
                            [
                                0.07077031582593918,
                                -0.009067540988326073
                            ]
                        ],
                        [
                            [
                                0.0852399691939354,
                                0.03286499157547951
                            ]
                        ]
                    ],
                    [
                        [
                            [
                                -0.0071769580245018005,
                                -0.03828185796737671
                            ]
                        ],
                        [
                            [
                                -0.007623034063726664,
                                0.10157152265310287
                            ]
                        ],
                        [
                            [
                                -0.03727861866354942,
                                0.01654278114438057
                            ]
                        ],
                        [
                            [
                                0.030222220346331596,
                                0.026134207844734192
                            ]
                        ],
                        [
                            [
                                0.0019035844597965479,
                                -0.03385080024600029
                            ]
                        ]
                    ],
                    [
                        [
                            [
                                -0.03523629531264305,
                                -0.01889314129948616
                            ]
                        ],
                        [
                            [
                                0.03528926521539688,
                                -0.05605679377913475
                            ]
                        ],
                        [
                            [
                                -0.0012620046036317945,
                                -0.023233039304614067
                            ]
                        ],
                        [
                            [
                                0.10400848835706711,
                                0.012644141912460327
                            ]
                        ],
                        [
                            [
                                -0.004995629191398621,
                                0.03518376871943474
                            ]
                        ]
                    ]
                ],
                [
                    0.012210636399686337,
                    0.009218341670930386
                ]
            ]
        },
        {
            "type": "conv2d",
            "activation": "",
            "shape": [
                null,
                42,
                10,
                3
            ],
            "kernel_size_time": 4,
            "kernel_size_feature": 3,
            "dilation": 1,
            "strides": 2,
            "num_filters_in": 2,
            "num_features_in": 19,
            "num_filters_out": 3,
            "padding": "same",
            "weights": [
                [
                    [
                        [
                            [
                                0.02435283549129963,
                                0.09744799882173538,
                                -0.0038122173864394426
                            ],
                            [
                                0.011112543754279613,
                                -0.018354332074522972,
                                -0.044112931936979294
                            ]
                        ],
                        [
                            [
                                0.017940422520041466,
                                -0.0794324055314064,
                                0.006398101802915335
                            ],
                            [
                                0.06440167874097824,
                                0.03250579908490181,
                                0.041687604039907455
                            ]
                        ],
                        [
                            [
                                0.04877493903040886,
                                -0.029688376933336258,
                                0.035696402192115784
                            ],
                            [
                                -0.012305788695812225,
                                0.017728999257087708,
                                0.02357528917491436
                            ]
                        ]
                    ],
                    [
                        [
                            [
                                0.03903336450457573,
                                0.008319801650941372,
                                0.07143444567918777
                            ],
                            [
                                0.02284959889948368,
                                0.019019529223442078,
                                -0.01422391552478075
                            ]
                        ],
                        [
                            [
                                0.035141412168741226,
                                -0.04681003838777542,
                                -0.035681772977113724
                            ],
                            [
                                0.03181697800755501,
                                -0.041151996701955795,
                                0.030688373371958733
                            ]
                        ],
                        [
                            [
                                0.008884522132575512,
                                0.07568331807851791,
                                -0.039818115532398224
                            ],
                            [
                                -0.010066737420856953,
                                -0.01339180301874876,
                                0.038567349314689636
                            ]
                        ]
                    ],
                    [
                        [
                            [
                                0.05256747826933861,
                                -0.025272278115153313,
                                0.04449508711695671
                            ],
                            [
                                -0.005571566987782717,
                                0.04993448778986931,
                                0.019720619544386864
                            ]
                        ],
                        [
                            [
                                -0.07578305155038834,
                                0.00954558327794075,
                                0.05035799741744995
                            ],
                            [
                                0.03422239422798157,
                                0.01628781482577324,
                                -0.0332382507622242
                            ]
                        ],
                        [
                            [
                                -0.037398260086774826,
                                -0.040139347314834595,
                                -0.007834969088435173
                            ],
                            [
                                0.010163999162614346,
                                -0.01587074063718319,
                                -0.06288175284862518
                            ]
                        ]
                    ],
                    [
                        [
                            [
                                -0.032660700380802155,
                                0.02034122124314308,
                                -0.10787887871265411
                            ],
                            [
                                -0.017659001052379608,
                                -0.009355827234685421,
                                0.057695187628269196
                            ]
                        ],
                        [
                            [
                                0.004157327115535736,
                                0.06043589115142822,
                                -0.09669236093759537
                            ],
                            [
                                0.10952108353376389,
                                -0.010597098618745804,
                                -0.010594937019050121
                            ]
                        ],
                        [
                            [
                                0.008792764507234097,
                                -0.03135150671005249,
                                -0.009484192356467247
                            ],
                            [
                                -0.006833740975707769,
                                -0.0010074571473523974,
                                -0.021106887608766556
                            ]
                        ]
                    ]
                ],
                [
                    -0.04899030178785324,
                    -0.034932978451251984,
                    0.1066577211022377
                ]
            ]
        },
        {
            "type": "conv2d",
            "activation": "",
            "shape": [
                null,
                39,
                8,
                1
            ],
            "kernel_size_time": 2,
            "kernel_size_feature": 3,
            "dilation": 3,
            "strides": 1,
            "num_filters_in": 3,
            "num_features_in": 10,
            "num_filters_out": 1,
            "padding": "valid",
            "weights": [
                [
                    [
                        [
                            [
                                0.017303984612226486
                            ],
                            [
                                -0.022165438160300255
                            ],
                            [
                                0.05061331391334534
                            ]
                        ],
                        [
                            [
                                -0.015273806639015675
                            ],
                            [
                                -0.029785258695483208
                            ],
                            [
                                0.017229601740837097
                            ]
                        ],
                        [
                            [
                                0.04150242730975151
                            ],
                            [
                                -0.014788364060223103
                            ],
                            [
                                -0.05144162103533745
                            ]
                        ]
                    ],
                    [
                        [
                            [
                                -0.03038444183766842
                            ],
                            [
                                0.03767086938023567
                            ],
                            [
                                0.028968801721930504
                            ]
                        ],
                        [
                            [
                                0.04295286908745766
                            ],
                            [
                                0.012798569165170193
                            ],
                            [
                                -0.03277556970715523
                            ]
                        ],
                        [
                            [
                                0.01753460243344307
                            ],
                            [
                                0.07294769585132599
                            ],
                            [
                                0.04034554213285446
                            ]
                        ]
                    ]
                ],
                [
                    0.05061778053641319
                ]
            ]
        }
    ]
}