{
    "in_shape": [
        null,
        null,
        1
    ],
    "layers": [
        {
            "type": "dense",
            "activation": "sigmoid",
            "shape": [
                null,
                null,
                8
            ],
            "weights": [
                [
                    [
                        -0.2597498893737793,
                        0.720626950263977,
                        0.24647308886051178,
                        0.4983530640602112,
                        0.04337248578667641,
                        -0.0929962620139122,
                        -0.09014337509870529,
                        -0.29234689474105835
                    ]
                ],
                [
                    0.011026376858353615,
                    -0.05738193541765213,
                    -0.050368376076221466,
                    -0.03121138922870159,
                    -0.029797902330756187,
                    -0.03128541633486748,
                    -0.020264074206352234,
                    -0.06726939231157303
                ]
            ]
        },
        {
            "type": "conv1d",
            "activation": "tanh",
            "shape": [
                null,
                null,
                4
            ],
            "weights": [
                [
                    [
                        [
                            -0.3806403875350952,
                            0.3552321195602417,
                            -0.22990170121192932,
                            -0.2734065651893616
                        ],
                        [
                            0.17931264638900757,
                            0.12685012817382812,
                            -0.3701407015323639,
                            -0.12078386545181274
                        ],
                        [
                            0.1930556297302246,
                            0.18172037601470947,
                            0.12920308113098145,
                            -0.06615138053894043
                        ],
                        [
                            0.17429256439208984,
                            -0.02184319496154785,
                            0.35532283782958984,
                            0.15900194644927979
                        ],
                        [
                            -0.25974738597869873,
                            -0.2888016104698181,
                            -0.036073923110961914,
                            -0.1118425726890564
                        ],
                        [
                            -0.39601945877075195,
                            -0.23429204523563385,
                            0.3296300768852234,
                            0.05483737587928772
                        ],
                        [
                            -0.3244243860244751,
                            0.193850576877594,
                            0.016370803117752075,
                            0.3421555161476135
                        ],
                        [
                            0.120028555393219,
                            -0.11619234085083008,
                            0.38670557737350464,
                            0.1490585207939148
                        ]
                    ],
                    [
                        [
                            0.044006139039993286,
                            0.06306695938110352,
                            0.15013104677200317,
                            0.07967573404312134
                        ],
                        [
                            -0.08571511507034302,
                            0.20344465970993042,
                            0.08408644795417786,
                            0.24901020526885986
                        ],
                        [
                            0.03148198127746582,
                            0.2165161371231079,
                            -0.3490440249443054,
                            0.4041529893875122
                        ],
                        [
                            -0.09137696027755737,
                            -0.3313836455345154,
                            0.2256285548210144,
                            0.1197405457496643
                        ],
                        [
                            0.2920135259628296,
                            -0.29843902587890625,
                            0.18796730041503906,
                            0.20384186506271362
                        ],
                        [
                            -0.29552164673805237,
                            0.1699209213256836,
                            0.1454804539680481,
                            -0.25665152072906494
                        ],
                        [
                            -0.2644038796424866,
                            -0.3104494512081146,
                            0.0986739993095398,
                            0.07208389043807983
                        ],
                        [
                            -0.20248767733573914,
                            0.4060392379760742,
                            -0.10348382592201233,
                            0.17785000801086426
                        ]
                    ],
                    [
                        [
                            0.019785761833190918,
                            -0.2248399406671524,
                            -0.3156307339668274,
                            -0.09375715255737305
                        ],
                        [
                            0.3395339250564575,
                            0.20137768983840942,
                            -0.23546579480171204,
                            -0.3112139105796814
                        ],
                        [
                            0.18942654132843018,
                            0.2990228533744812,
                            -0.3240768015384674,
                            -0.08476513624191284
                        ],
                        [
                            -0.2503608167171478,
                            0.13284987211227417,
                            -0.40090659260749817,
                            0.3356603980064392
                        ],
                        [
                            -0.22978830337524414,
                            0.4077377915382385,
                            0.22289025783538818,
                            -0.4009949862957001
                        ],
                        [
                            0.31359773874282837,
                            -0.09192952513694763,
                            0.126073956489563,
                            -0.1652848720550537
                        ],
                        [
                            -0.19316580891609192,
                            0.1654927134513855,
                            -0.001309722661972046,
                            -0.09621697664260864
                        ],
                        [
                            0.2934131622314453,
                            -0.2566860616207123,
                            0.08541262149810791,
                            0.07206666469573975
                        ]
                    ]
                ],
                [
                    0.0847955122590065,
                    0.0005305331433191895,
                    0.02680957317352295,
                    0.11999835073947906
                ]
            ],
            "kernel_size": [
                3
            ],
            "dilation": [
                3
            ]
        },
        {
            "type": "dense",
            "activation": "sigmoid",
            "shape": [
                null,
                null,
                8
            ],
            "weights": [
                [
                    [
                        0.4399876594543457,
                        -0.05530323088169098,
                        -0.012308970093727112,
                        -0.16726094484329224,
                        -0.13227452337741852,
                        0.01007645484060049,
                        0.5655853748321533,
                        -0.6616189479827881
                    ],
                    [
                        0.15821240842342377,
                        0.49433207511901855,
                        0.42495572566986084,
                        -0.3777187764644623,
                        -0.08813811093568802,
                        -0.31385257840156555,
                        0.3249695599079132,
                        0.442118763923645
                    ],
                    [
                        -0.5593461394309998,
                        -0.40809366106987,
                        0.14821089804172516,
                        -0.10002325475215912,
                        -0.6090255975723267,
                        -0.2826452851295471,
                        0.19143718481063843,
                        -0.03422856330871582
                    ],
                    [
                        -0.10784273594617844,
                        -0.2351054549217224,
                        0.6041829586029053,
                        0.4924667179584503,
                        0.4796159863471985,
                        -0.15407538414001465,
                        0.26023539900779724,
                        -0.06357567012310028
                    ]
                ],
                [
                    -0.04936511814594269,
                    -0.02010657638311386,
                    0.12331140041351318,
                    -0.02078082785010338,
                    -0.03321142867207527,
                    -0.03717031702399254,
                    -0.03785004839301109,
                    -0.0036387492436915636
                ]
            ]
        },
        {
            "type": "dense",
            "activation": "",
            "shape": [
                null,
                null,
                1
            ],
            "weights": [
                [
                    [
                        0.7678443193435669
                    ],
                    [
                        -0.49862366914749146
                    ],
                    [
                        -0.10260646790266037
                    ],
                    [
                        -0.041104476898908615
                    ],
                    [
                        0.23417434096336365
                    ],
                    [
                        -0.21633771061897278
                    ],
                    [
                        -0.17318330705165863
                    ],
                    [
                        -0.13393963873386383
                    ]
                ],
                [
                    -0.10148821026086807
                ]
            ]
        }
    ]
}