{
    "in_shape": [
        null,
        50,
        23,
        1
    ],
    "layers": [
        {
            "type": "conv2d",
            "activation": "relu",
            "shape": [
                null,
                42,
                19,
                2
            ],
            "kernel_size_time": 5,
            "kernel_size_feature": 5,
            "dilation": 2,
            "strides": 1,
            "num_filters_in": 1,
            "num_features_in": 23,
            "num_filters_out": 2,
            "padding": "valid",
            "weights": [
                [
                    [
                        [
                            [
                                -0.01563098095357418,
                                0.0199719425290823
                            ]
                        ],
                        [
                            [
                                -0.02052520029246807,
                                0.004678485449403524
                            ]
                        ],
                        [
                            [
                                -0.045844484120607376,
                                -0.16270507872104645
                            ]
                        ],
                        [
                            [
                                -0.05674699693918228,
                                -0.029581977054476738
                            ]
                        ],
                        [
                            [
                                0.06402677297592163,
                                0.00770125538110733
                            ]
                        ]
                    ],
                    [
                        [
                            [
                                0.03027251735329628,
                                -0.03300689160823822
                            ]
                        ],
                        [
                            [
                                0.021159959957003593,
                                -0.07611215114593506
                            ]
                        ],
                        [
                            [
                                -0.06128528341650963,
                                0.016106650233268738
                            ]
                        ],
                        [
                            [
                                -0.0429270938038826,
                                -0.0416259728372097
                            ]
                        ],
                        [
                            [
                                0.04287876933813095,
                                -0.027564600110054016
                            ]
                        ]
                    ],
                    [
                        [
                            [
                                -0.011635701172053814,
                                -0.004925226792693138
                            ]
                        ],
                        [
                            [
                                -0.0575268380343914,
                                0.06660973280668259
                            ]
                        ],
                        [
                            [
                                0.016702163964509964,
                                0.007927431724965572
                            ]
                        ],
                        [
                            [
                                0.0851394310593605,
                                0.015408474020659924
                            ]
                        ],
                        [
                            [
                                -0.007444128394126892,
                                -0.027398524805903435
                            ]
                        ]
                    ],
                    [
                        [
                            [
                                -0.009210558608174324,
                                -0.09925362467765808
                            ]
                        ],
                        [
                            [
                                0.09213215112686157,
                                0.037440065294504166
                            ]
                        ],
                        [
                            [
                                0.06102265790104866,
                                0.0376264750957489
                            ]
                        ],
                        [
                            [
                                -0.10531339794397354,
                                -0.012459726072847843
                            ]
                        ],
                        [
                            [
                                0.021991712972521782,
                                0.061831284314394
                            ]
                        ]
                    ],
                    [
                        [
                            [
                                -0.17577703297138214,
                                -0.04243684560060501
                            ]
                        ],
                        [
                            [
                                0.030043406412005424,
                                0.009314784780144691
                            ]
                        ],
                        [
                            [
                                -0.01862662099301815,
                                -0.06134466081857681
                            ]
                        ],
                        [
                            [
                                0.08559061586856842,
                                -0.007183360401540995
                            ]
                        ],
                        [
                            [
                                0.060888517647981644,
                                0.012373405508697033
                            ]
                        ]
                    ]
                ],
                [
                    -0.051928192377090454,
                    0.058461517095565796
                ]
            ]
        },
        {
            "type": "conv2d",
            "activation": "",
            "shape": [
                null,
                42,
                10,
                3
            ],
            "kernel_size_time": 4,
            "kernel_size_feature": 3,
            "dilation": 1,
            "strides": 2,
            "num_filters_in": 2,
            "num_features_in": 19,
            "num_filters_out": 3,
            "padding": "same",
            "weights": [
                [
                    [
                        [
                            [
                                -0.012456155382096767,
                                0.020301057025790215,
                                -0.04643506556749344
                            ],
                            [
                                0.062132567167282104,
                                0.08888950198888779,
                                0.04403342679142952
                            ]
                        ],
                        [
                            [
                                0.040657054632902145,
                                0.13099953532218933,
                                -0.01546170562505722
                            ],
                            [
                                -0.0385652594268322,
                                0.015118074603378773,
                                0.016336960718035698
                            ]
                        ],
                        [
                            [
                                0.02059873193502426,
                                0.115241639316082,
                                -0.037770289927721024
                            ],
                            [
                                0.0029224681202322245,
                                0.10480642318725586,
                                0.005162182729691267
                            ]
                        ]
                    ],
                    [
                        [
                            [
                                -0.022666970267891884,
                                -0.029775196686387062,
                                -0.022810503840446472
                            ],
                            [
                                -0.0211276076734066,
                                0.010665042325854301,
                                -0.04796425253152847
                            ]
                        ],
                        [
                            [
                                -0.004227338824421167,
                                0.07689925283193588,
                                -0.02338266931474209
                            ],
                            [
                                -0.048793382942676544,
                                -0.04937463626265526,
                                -0.030119365081191063
                            ]
                        ],
                        [
                            [
                                0.0075323693454265594,
                                0.06069473549723625,
                                0.00048168693319894373
                            ],
                            [
                                -0.01012494508177042,
                                0.01539651770144701,
                                -0.01041047926992178
                            ]
                        ]
                    ],
                    [
                        [
                            [
                                0.01474732905626297,
                                0.02172844298183918,
                                0.09045270830392838
                            ],
                            [
                                -0.011679518036544323,
                                0.04193853586912155,
                                -0.11373638361692429
                            ]
                        ],
                        [
                            [
                                -0.010501808486878872,
                                -0.004491479601711035,
                                0.04003144055604935
                            ],
                            [
                                -0.023595774546265602,
                                -0.002106523374095559,
                                0.020869793370366096
                            ]
                        ],
                        [
                            [
                                -0.04839368909597397,
                                0.019054800271987915,
                                0.009081775322556496
                            ],
                            [
                                -0.060431044548749924,
                                -0.0679323598742485,
                                -0.035146959125995636
                            ]
                        ]
                    ],
                    [
                        [
                            [
                                -0.06530991196632385,
                                -0.014687202870845795,
                                0.017597513273358345
                            ],
                            [
                                -0.03315476328134537,
                                0.007469331379979849,
                                0.022988907992839813
                            ]
                        ],
                        [
                            [
                                0.024681130424141884,
                                -0.07683476060628891,
                                -0.03493174910545349
                            ],
                            [
                                0.02432521991431713,
                                -0.03286072239279747,
                                -0.005869565065950155
                            ]
                        ],
                        [
                            [
                                0.09429251402616501,
                                -0.0037999916821718216,
                                -0.004688662942498922
                            ],
                            [
                                0.010043208487331867,
                                0.040929462760686874,
                                0.06324764341115952
                            ]
                        ]
                    ]
                ],
                [
                    0.0128306420519948,
                    0.032686032354831696,
                    0.014529499225318432
                ]
            ]
        },
        {
            "type": "batchnorm2d",
            "activation": "",
            "shape": [
                null,
                42,
                10,
                3
            ],
            "epsilon": 0.01,
            "num_filters_in": 3,
            "num_features_in": 10,
            "weights": [
                [
                    0.12156796455383301,
                    -0.21708035469055176,
                    0.9000780582427979
                ],
                [
                    0.04325094819068909,
                    -0.0755317285656929,
                    0.021895064041018486
                ],
                [
                    -0.019980784505605698,
                    0.050606586039066315,
                    -0.0016617663204669952
                ],
                [
                    1.0,
                    1.0,
                    1.0
                ]
            ]
        },
        {
            "type": "conv2d",
            "activation": "",
            "shape": [
                null,
                39,
                8,
                1
            ],
            "kernel_size_time": 2,
            "kernel_size_feature": 3,
            "dilation": 3,
            "strides": 1,
            "num_filters_in": 3,
            "num_features_in": 10,
            "num_filters_out": 1,
            "padding": "valid",
            "weights": [
                [
                    [
                        [
                            [
                                0.030947793275117874
                            ],
                            [
                                0.03365375101566315
                            ],
                            [
                                0.00243752496317029
                            ]
                        ],
                        [
                            [
                                0.07471995800733566
                            ],
                            [
                                -0.06441587209701538
                            ],
                            [
                                0.06497633457183838
                            ]
                        ],
                        [
                            [
                                0.08422733098268509
                            ],
                            [
                                -0.04024657607078552
                            ],
                            [
                                0.0061189522966742516
                            ]
                        ]
                    ],
                    [
                        [
                            [
                                0.06401374191045761
                            ],
                            [
                                0.027471063658595085
                            ],
                            [
                                0.012558584101498127
                            ]
                        ],
                        [
                            [
                                0.0010724791791290045
                            ],
                            [
                                0.02137666754424572
                            ],
                            [
                                -0.09176792949438095
                            ]
                        ],
                        [
                            [
                                0.020445456728339195
                            ],
                            [
                                -0.14923782646656036
                            ],
                            [
                                -0.041507478803396225
                            ]
                        ]
                    ]
                ],
                [
                    -0.11019765585660934
                ]
            ]
        }
    ]
}