{"weight": [[[0.42042818602691356, 0.1858797375490857, -0.03632900008519796, 0.37632816922892476, 0.12971351638863882]], [[0.2604105913683754, -0.2874633759199114, -0.133173389274643, 0.0727535304168383, -0.18940757615126635]], [[-0.042155383103857524, -0.28907929190745385, -0.12945334678288611, 0.10903536914457612, -0.016235283900972675]], [[-0.052949643348350395, -0.08292988099514709, -0.26346373142713686, 0.14761463194395663, 0.2547989625732606]], [[-0.25905610025815295, 0.15808027546219416, -0.34906339493213423, 0.021244487771611753, -0.24505498027654232]], [[0.05209419030753171, 0.07828828346651195, 0.16273716855750242, 0.21947111004375486, -0.24359220394331174]], [[0.27717606937734685, 0.11680352718221176, -0.27200591158308884, -0.31061109556281746, -0.016541087272268717]], [[0.373428551091498, 0.06443427563294302, -0.01714668517146567, 0.26480286942932707, -0.11809103926987097]], [[-0.20376508378726751, -0.4101489918413958, 0.22243354926660963, -0.1415378682437916, 0.03418948702732588]], [[-0.030083683922472015, 0.3251121740625388, -0.4104889739324586, 0.44476320803199676, 0.33958189380583503]], [[0.23523181888045974, -0.21832991723821316, -0.2776229753490371, 0.43626998347391177, 0.2500835212321163]], [[-0.12353886811696624, 0.05889253838767561, 0.21573556208629685, -0.44322181585645837, 0.0747782571361536]]], "bias": [0.06235345040330914, -0.4040258841158204, -0.3014178940814476, 0.4460338126973123, 0.09003928036486314, -0.31381897448216467, -0.09468682430373992, 0.32503807662859413, -0.34778085576777357, 0.2768484289218343, 0.25847621557696404, 0.26623018434095796]}