{
    "in_shape": [
        null,
        null,
        1
    ],
    "layers": [
        {
            "type": "dense",
            "activation": "sigmoid",
            "shape": [
                null,
                null,
                8
            ],
            "weights": [
                [
                    [
                        0.4095125198364258,
                        -0.655545175075531,
                        0.14257493615150452,
                        -0.469492644071579,
                        -0.07960668206214905,
                        -0.36027902364730835,
                        -0.10030985623598099,
                        -0.12493490427732468
                    ]
                ],
                [
                    -0.06334634870290756,
                    0.04574047774076462,
                    -0.03859567269682884,
                    -0.05035579204559326,
                    0.03676053509116173,
                    -0.04460134729743004,
                    -0.030156930908560753,
                    -0.017896875739097595
                ]
            ]
        },
        {
            "type": "conv1d",
            "activation": "tanh",
            "shape": [
                null,
                null,
                4
            ],
            "weights": [
                [
                    [
                        [
                            -0.025803446769714355,
                            0.0514683723449707,
                            0.19535726308822632,
                            0.03865531086921692
                        ],
                        [
                            0.23381191492080688,
                            -0.13680699467658997,
                            0.15668636560440063,
                            0.21931368112564087
                        ],
                        [
                            -0.1968330591917038,
                            0.0019440650939941406,
                            0.22475945949554443,
                            0.2238585352897644
                        ],
                        [
                            -0.059670984745025635,
                            -0.40168604254722595,
                            0.36597925424575806,
                            -0.24459104239940643
                        ],
                        [
                            -0.13625404238700867,
                            0.060755372047424316,
                            -0.07215502858161926,
                            0.24545663595199585
                        ],
                        [
                            0.05020827054977417,
                            -0.15092217922210693,
                            -0.16431494057178497,
                            -0.3556360602378845
                        ],
                        [
                            0.36707961559295654,
                            -0.02195844054222107,
                            -0.22580783069133759,
                            0.19643104076385498
                        ],
                        [
                            0.02393510937690735,
                            0.01044929027557373,
                            -0.20415860414505005,
                            0.2597201466560364
                        ]
                    ],
                    [
                        [
                            0.2640073299407959,
                            -0.011704593896865845,
                            -0.22593718767166138,
                            -0.25943630933761597
                        ],
                        [
                            0.04401111602783203,
                            0.2783154249191284,
                            -0.19355767965316772,
                            -0.1649123728275299
                        ],
                        [
                            -0.16212035715579987,
                            0.14106470346450806,
                            0.13144809007644653,
                            0.24052995443344116
                        ],
                        [
                            -0.3062880337238312,
                            0.011401981115341187,
                            0.36134040355682373,
                            0.27864307165145874
                        ],
                        [
                            -0.010932058095932007,
                            -0.11054834723472595,
                            0.001453787088394165,
                            -0.1428552269935608
                        ],
                        [
                            -0.20618422329425812,
                            -0.27485132217407227,
                            0.07871749997138977,
                            0.007546901702880859
                        ],
                        [
                            -0.33367684483528137,
                            0.33224838972091675,
                            0.227270245552063,
                            -0.3854721486568451
                        ],
                        [
                            0.047153741121292114,
                            -0.04261252284049988,
                            -0.27417248487472534,
                            0.15229731798171997
                        ]
                    ],
                    [
                        [
                            0.21776902675628662,
                            -0.2916015088558197,
                            0.3441757559776306,
                            0.16823410987854004
                        ],
                        [
                            -0.17293240129947662,
                            0.2244352102279663,
                            0.23794996738433838,
                            0.3585193157196045
                        ],
                        [
                            0.24555963277816772,
                            0.17953193187713623,
                            -0.18152661621570587,
                            0.014999449253082275
                        ],
                        [
                            -0.25652146339416504,
                            -0.17889995872974396,
                            0.0034650862216949463,
                            -0.30046960711479187
                        ],
                        [
                            -0.24761871993541718,
                            0.3110160231590271,
                            -0.011127710342407227,
                            0.041746556758880615
                        ],
                        [
                            0.30020761489868164,
                            -0.4077833294868469,
                            -0.029888629913330078,
                            -0.33696448802948
                        ],
                        [
                            -0.24029433727264404,
                            -0.2454329878091812,
                            -0.18429255485534668,
                            -0.14416533708572388
                        ],
                        [
                            -0.3651139736175537,
                            0.03791722655296326,
                            -0.2020658254623413,
                            0.09499204158782959
                        ]
                    ]
                ],
                [
                    0.06519249826669693,
                    -0.06177148222923279,
                    -0.020406795665621758,
                    -0.0966072753071785
                ]
            ]
        },
        {
            "type": "dense",
            "activation": "sigmoid",
            "shape": [
                null,
                null,
                8
            ],
            "weights": [
                [
                    [
                        -0.051566123962402344,
                        -0.6397958397865295,
                        -0.016989095136523247,
                        0.026032110676169395,
                        -0.7514352798461914,
                        0.06164063513278961,
                        0.053679533302783966,
                        -0.125298872590065
                    ],
                    [
                        -0.2052495926618576,
                        -0.1602073311805725,
                        0.39716047048568726,
                        0.554547131061554,
                        0.06257233023643494,
                        -0.5537561178207397,
                        -0.3609459400177002,
                        0.16156743466854095
                    ],
                    [
                        -0.47474032640457153,
                        0.09765154123306274,
                        0.054689981043338776,
                        0.19887104630470276,
                        0.02979731559753418,
                        0.5990526676177979,
                        -0.48277610540390015,
                        -0.36016717553138733
                    ],
                    [
                        0.7261454463005066,
                        -0.09883818030357361,
                        -0.21444383263587952,
                        0.4775901734828949,
                        0.039354681968688965,
                        0.3065231144428253,
                        -0.2762431502342224,
                        0.13057389855384827
                    ]
                ],
                [
                    0.0690937414765358,
                    -0.07738608866930008,
                    0.008327747695147991,
                    -0.07606944441795349,
                    -0.04112796112895012,
                    -0.02562166191637516,
                    -0.0058811078779399395,
                    0.004175907466560602
                ]
            ]
        },
        {
            "type": "dense",
            "activation": "",
            "shape": [
                null,
                null,
                1
            ],
            "weights": [
                [
                    [
                        -0.24128413200378418
                    ],
                    [
                        -0.21939001977443695
                    ],
                    [
                        -0.42180413007736206
                    ],
                    [
                        0.3173055350780487
                    ],
                    [
                        -0.24877797067165375
                    ],
                    [
                        -0.4229917824268341
                    ],
                    [
                        0.2953490912914276
                    ],
                    [
                        0.5357282161712646
                    ]
                ],
                [
                    -0.07362114638090134
                ]
            ]
        }
    ]
}