{
    "in_shape": [
        null,
        null,
        1
    ],
    "layers": [
        {
            "type": "dense",
            "activation": "sigmoid",
            "shape": [
                null,
                null,
                8
            ],
            "weights": [
                [
                    [
                        0.19616460800170898,
                        0.236541286110878,
                        0.26633110642433167,
                        -0.14910508692264557,
                        0.5377674102783203,
                        -0.5030472874641418,
                        0.23804160952568054,
                        -0.4620485007762909
                    ]
                ],
                [
                    -0.07476264983415604,
                    0.00631448719650507,
                    -0.011855975724756718,
                    0.04719599708914757,
                    -0.0001932470331666991,
                    0.07476385682821274,
                    -0.028948653489351273,
                    0.0562283881008625
                ]
            ]
        },
        {
            "type": "conv1d",
            "activation": "tanh",
            "shape": [
                null,
                null,
                4
            ],
            "weights": [
                [
                    [
                        [
                            -0.29088833928108215,
                            -0.34812092781066895,
                            -0.11905056238174438,
                            -0.1998722106218338
                        ],
                        [
                            0.15374571084976196,
                            -0.2375618815422058,
                            0.2884431481361389,
                            0.26964741945266724
                        ],
                        [
                            0.19406050443649292,
                            0.09256649017333984,
                            -0.23986032605171204,
                            -0.2601862847805023
                        ],
                        [
                            0.27744805812835693,
                            0.3793036937713623,
                            0.07885199785232544,
                            -0.10167771577835083
                        ],
                        [
                            0.13303810358047485,
                            -0.38004735112190247,
                            -0.24023282527923584,
                            0.31296008825302124
                        ],
                        [
                            -0.3596493601799011,
                            -0.35706183314323425,
                            0.08759307861328125,
                            0.004113048315048218
                        ],
                        [
                            0.30849194526672363,
                            -0.2350245714187622,
                            0.31661856174468994,
                            0.17706644535064697
                        ],
                        [
                            -0.2330184280872345,
                            -0.049693763256073,
                            0.29366976022720337,
                            -0.30746978521347046
                        ]
                    ],
                    [
                        [
                            -0.24098356068134308,
                            0.3992280960083008,
                            0.26371055841445923,
                            0.21792954206466675
                        ],
                        [
                            0.3732143044471741,
                            -0.29594093561172485,
                            -0.13757067918777466,
                            -0.24303409457206726
                        ],
                        [
                            0.15482592582702637,
                            0.1146051287651062,
                            -0.03994587063789368,
                            0.014997124671936035
                        ],
                        [
                            -0.19328348338603973,
                            0.22175151109695435,
                            -0.09254094958305359,
                            0.3560633659362793
                        ],
                        [
                            -0.37874743342399597,
                            -0.07359820604324341,
                            -0.3816046714782715,
                            -0.20434792339801788
                        ],
                        [
                            -0.05596187710762024,
                            0.02825760841369629,
                            0.1003064513206482,
                            -0.28320732712745667
                        ],
                        [
                            0.22765541076660156,
                            -0.24722616374492645,
                            0.2410951852798462,
                            -0.3925342261791229
                        ],
                        [
                            -0.3600042462348938,
                            -0.37548238039016724,
                            -0.2947796583175659,
                            -0.1325685977935791
                        ]
                    ],
                    [
                        [
                            -0.18764415383338928,
                            -0.12942129373550415,
                            -0.19460128247737885,
                            -0.28333309292793274
                        ],
                        [
                            0.15815991163253784,
                            -0.07858434319496155,
                            -0.3568739593029022,
                            0.06450915336608887
                        ],
                        [
                            -0.3454643785953522,
                            0.2690630555152893,
                            -0.40652742981910706,
                            -0.04677772521972656
                        ],
                        [
                            0.31400662660598755,
                            -0.21856170892715454,
                            -0.1265960931777954,
                            0.17985647916793823
                        ],
                        [
                            0.01392984390258789,
                            0.34848982095718384,
                            -0.22067375481128693,
                            -0.029741942882537842
                        ],
                        [
                            -0.06278938055038452,
                            0.21945124864578247,
                            0.35317838191986084,
                            -0.030793845653533936
                        ],
                        [
                            0.13563257455825806,
                            0.06920045614242554,
                            0.15234732627868652,
                            0.00852850079536438
                        ],
                        [
                            -0.2559437155723572,
                            0.08490735292434692,
                            -0.20203429460525513,
                            0.17236989736557007
                        ]
                    ]
                ],
                [
                    -0.022115087136626244,
                    -0.07656186819076538,
                    0.09512074291706085,
                    -0.0538875050842762
                ]
            ],
            "kernel_size": [
                3
            ],
            "dilation": [
                1
            ]
        },
        {
            "type": "dense",
            "activation": "sigmoid",
            "shape": [
                null,
                null,
                8
            ],
            "weights": [
                [
                    [
                        -0.5422831773757935,
                        -0.17853856086730957,
                        -0.1520886868238449,
                        0.4030950665473938,
                        -0.17177192866802216,
                        0.3727690875530243,
                        -0.5526326894760132,
                        -0.12071041762828827
                    ],
                    [
                        0.1590588539838791,
                        -0.6649352312088013,
                        -0.6319742202758789,
                        -0.018336495384573936,
                        -0.2559906542301178,
                        -0.1263216882944107,
                        0.18509985506534576,
                        0.13070398569107056
                    ],
                    [
                        -0.06206037849187851,
                        0.11471199244260788,
                        0.050343047827482224,
                        0.7097973823547363,
                        -0.08198294043540955,
                        0.1801067292690277,
                        0.655672013759613,
                        0.08704962581396103
                    ],
                    [
                        0.1473633497953415,
                        -0.21045444905757904,
                        0.5174081325531006,
                        -0.17061179876327515,
                        -0.5974148511886597,
                        0.3309381604194641,
                        -0.024630405008792877,
                        0.4124835133552551
                    ]
                ],
                [
                    0.033627208322286606,
                    0.05832761526107788,
                    -0.016174372285604477,
                    0.029027307406067848,
                    -0.05001077055931091,
                    0.035958416759967804,
                    0.019414955750107765,
                    -0.04529973119497299
                ]
            ]
        },
        {
            "type": "dense",
            "activation": "",
            "shape": [
                null,
                null,
                1
            ],
            "weights": [
                [
                    [
                        0.3213777542114258
                    ],
                    [
                        -0.06764419376850128
                    ],
                    [
                        0.0003473958058748394
                    ],
                    [
                        0.3305802047252655
                    ],
                    [
                        0.04208427667617798
                    ],
                    [
                        0.06113066151738167
                    ],
                    [
                        -0.8585255742073059
                    ],
                    [
                        -0.20070631802082062
                    ]
                ],
                [
                    0.028458286076784134
                ]
            ]
        }
    ]
}