{
    "in_shape": [
        null,
        50,
        23,
        1
    ],
    "layers": [
        {
            "type": "conv2d",
            "activation": "",
            "shape": [
                null,
                42,
                19,
                2
            ],
            "kernel_size_time": 5,
            "kernel_size_feature": 5,
            "dilation": 2,
            "strides": 1,
            "num_filters_in": 1,
            "num_features_in": 23,
            "num_filters_out": 2,
            "padding": "valid",
            "weights": [
                [
                    [
                        [
                            [
                                0.07477455586194992,
                                -0.019900521263480186
                            ]
                        ],
                        [
                            [
                                0.015920838341116905,
                                0.04784868285059929
                            ]
                        ],
                        [
                            [
                                -0.05285557731986046,
                                -0.001230707042850554
                            ]
                        ],
                        [
                            [
                                0.09567438811063766,
                                -0.04429243132472038
                            ]
                        ],
                        [
                            [
                                0.014786559157073498,
                                -0.04446662589907646
                            ]
                        ]
                    ],
                    [
                        [
                            [
                                0.03956614434719086,
                                0.023486772552132607
                            ]
                        ],
                        [
                            [
                                0.015356780961155891,
                                -0.014201121404767036
                            ]
                        ],
                        [
                            [
                                0.010960319079458714,
                                -0.07000791281461716
                            ]
                        ],
                        [
                            [
                                -0.003107632277533412,
                                0.02299192175269127
                            ]
                        ],
                        [
                            [
                                0.012309265322983265,
                                0.018475214019417763
                            ]
                        ]
                    ],
                    [
                        [
                            [
                                -0.06010453775525093,
                                0.0569026842713356
                            ]
                        ],
                        [
                            [
                                -0.03789364919066429,
                                -0.030579281970858574
                            ]
                        ],
                        [
                            [
                                0.0707436054944992,
                                -0.014365117065608501
                            ]
                        ],
                        [
                            [
                                -0.08322491496801376,
                                -0.042278584092855453
                            ]
                        ],
                        [
                            [
                                -0.01296138670295477,
                                0.012895886786282063
                            ]
                        ]
                    ],
                    [
                        [
                            [
                                0.017289310693740845,
                                0.03321770951151848
                            ]
                        ],
                        [
                            [
                                -0.013543163426220417,
                                0.012891682796180248
                            ]
                        ],
                        [
                            [
                                -0.011296807788312435,
                                0.013896557502448559
                            ]
                        ],
                        [
                            [
                                0.025655508041381836,
                                -0.007006329949945211
                            ]
                        ],
                        [
                            [
                                0.07213553786277771,
                                -0.10997848957777023
                            ]
                        ]
                    ],
                    [
                        [
                            [
                                -0.02658524177968502,
                                0.03149830549955368
                            ]
                        ],
                        [
                            [
                                0.07539402693510056,
                                -0.015170292928814888
                            ]
                        ],
                        [
                            [
                                0.003962777089327574,
                                -0.010728143155574799
                            ]
                        ],
                        [
                            [
                                0.003037563059478998,
                                -0.10038552433252335
                            ]
                        ],
                        [
                            [
                                -0.003846269566565752,
                                -0.0057698762975633144
                            ]
                        ]
                    ]
                ],
                [
                    -0.024682430550456047,
                    -0.09314405173063278
                ]
            ]
        },
        {
            "type": "batchnorm2d",
            "activation": "",
            "shape": [
                null,
                42,
                19,
                2
            ],
            "epsilon": 5.0,
            "num_filters_in": 2,
            "num_features_in": 19,
            "weights": [
                [
                    0.002741343341767788,
                    0.030715012922883034
                ],
                [
                    0.02119537815451622,
                    0.010743498802185059
                ]
            ]
        },
        {
            "type": "activation",
            "activation": "relu",
            "shape": [
                null,
                42,
                19,
                2
            ],
            "weights": []
        },
        {
            "type": "conv2d",
            "activation": "",
            "shape": [
                null,
                42,
                10,
                3
            ],
            "kernel_size_time": 4,
            "kernel_size_feature": 3,
            "dilation": 1,
            "strides": 2,
            "num_filters_in": 2,
            "num_features_in": 19,
            "num_filters_out": 3,
            "padding": "same",
            "weights": [
                [
                    [
                        [
                            [
                                -0.02995729260146618,
                                0.011058098636567593,
                                -0.06969152390956879
                            ],
                            [
                                0.08854132890701294,
                                -0.01082999724894762,
                                -0.005616223905235529
                            ]
                        ],
                        [
                            [
                                -0.030610525980591774,
                                0.023372014984488487,
                                -0.044877782464027405
                            ],
                            [
                                -0.15678846836090088,
                                0.03993270918726921,
                                -0.03891357406973839
                            ]
                        ],
                        [
                            [
                                0.02193107269704342,
                                -0.0408768355846405,
                                0.034073080867528915
                            ],
                            [
                                -0.007617140654474497,
                                0.012555713765323162,
                                0.003956892993301153
                            ]
                        ]
                    ],
                    [
                        [
                            [
                                -0.04362843558192253,
                                0.024439310654997826,
                                -0.060432471334934235
                            ],
                            [
                                0.09170050919055939,
                                0.02552116848528385,
                                0.016014670953154564
                            ]
                        ],
                        [
                            [
                                -0.019302863627672195,
                                -0.06281639635562897,
                                0.005456745158880949
                            ],
                            [
                                0.012212635949254036,
                                0.029184846207499504,
                                0.004515191540122032
                            ]
                        ],
                        [
                            [
                                0.011825313791632652,
                                0.044936180114746094,
                                -0.039336998015642166
                            ],
                            [
                                -0.07369443029165268,
                                0.09906800836324692,
                                0.013789529912173748
                            ]
                        ]
                    ],
                    [
                        [
                            [
                                0.0009617915493436158,
                                0.04750263690948486,
                                -0.005383157636970282
                            ],
                            [
                                0.08737867325544357,
                                0.014848357997834682,
                                -0.07955958694219589
                            ]
                        ],
                        [
                            [
                                -0.08073772490024567,
                                -0.07602368295192719,
                                -0.04425520449876785
                            ],
                            [
                                -0.043782852590084076,
                                0.04332011565566063,
                                0.10702186077833176
                            ]
                        ],
                        [
                            [
                                -0.06859941780567169,
                                0.008158023469150066,
                                -0.12008204311132431
                            ],
                            [
                                0.04107542708516121,
                                0.009456489235162735,
                                0.02359670400619507
                            ]
                        ]
                    ],
                    [
                        [
                            [
                                -0.04214208945631981,
                                0.10865390300750732,
                                -0.03499368578195572
                            ],
                            [
                                0.01721009984612465,
                                0.04348200559616089,
                                0.07200806587934494
                            ]
                        ],
                        [
                            [
                                0.01756214164197445,
                                0.08421676605939865,
                                0.009940999560058117
                            ],
                            [
                                0.061156269162893295,
                                0.04329390451312065,
                                0.07052800804376602
                            ]
                        ],
                        [
                            [
                                -0.03877156600356102,
                                -0.0011428346624597907,
                                0.07949381321668625
                            ],
                            [
                                0.09198324382305145,
                                0.018388621509075165,
                                0.07178685814142227
                            ]
                        ]
                    ]
                ],
                [
                    -0.01667908951640129,
                    -0.04195116460323334,
                    0.029068371281027794
                ]
            ]
        },
        {
            "type": "batchnorm2d",
            "activation": "",
            "shape": [
                null,
                42,
                10,
                3
            ],
            "epsilon": 0.01,
            "num_filters_in": 3,
            "num_features_in": 10,
            "weights": [
                [
                    -0.2865333557128906,
                    -0.38713812828063965,
                    0.13605213165283203
                ],
                [
                    -0.030306151136755943,
                    0.036258514970541,
                    0.06535416841506958
                ],
                [
                    0.08751623332500458,
                    -0.014792612753808498,
                    0.006887505296617746
                ],
                [
                    1.0,
                    1.0,
                    1.0
                ]
            ]
        },
        {
            "type": "conv2d",
            "activation": "",
            "shape": [
                null,
                39,
                8,
                1
            ],
            "kernel_size_time": 2,
            "kernel_size_feature": 3,
            "dilation": 3,
            "strides": 1,
            "num_filters_in": 3,
            "num_features_in": 10,
            "num_filters_out": 1,
            "padding": "valid",
            "weights": [
                [
                    [
                        [
                            [
                                -0.09876935929059982
                            ],
                            [
                                0.006924620363861322
                            ],
                            [
                                0.07136444747447968
                            ]
                        ],
                        [
                            [
                                -0.0023006133269518614
                            ],
                            [
                                -0.01972285471856594
                            ],
                            [
                                -0.026172315701842308
                            ]
                        ],
                        [
                            [
                                0.05235337093472481
                            ],
                            [
                                0.012476284988224506
                            ],
                            [
                                -0.05451495200395584
                            ]
                        ]
                    ],
                    [
                        [
                            [
                                0.016820121556520462
                            ],
                            [
                                -0.04941827431321144
                            ],
                            [
                                0.040767084807157516
                            ]
                        ],
                        [
                            [
                                0.02195116877555847
                            ],
                            [
                                0.05441519245505333
                            ],
                            [
                                -0.04897336661815643
                            ]
                        ],
                        [
                            [
                                0.024991733953356743
                            ],
                            [
                                -0.03741703927516937
                            ],
                            [
                                -0.00041958573274314404
                            ]
                        ]
                    ]
                ],
                [
                    -0.0497920922935009
                ]
            ]
        }
    ]
}