{
    "in_shape": [
        null,
        null,
        1
    ],
    "layers": [
        {
            "type": "dense",
            "activation": "tanh",
            "shape": [
                null,
                null,
                8
            ],
            "weights": [
                [
                    [
                        0.040848951786756516,
                        0.009470826014876366,
                        0.04745715856552124,
                        0.08986492455005646,
                        -0.0016478345496580005,
                        0.04925836622714996,
                        -0.02410576306283474,
                        -0.09796124696731567
                    ]
                ],
                [
                    0.02338050864636898,
                    -0.08835149556398392,
                    -0.01659432053565979,
                    0.0037179216742515564,
                    0.09575460106134415,
                    -0.018192723393440247,
                    0.030314559116959572,
                    0.04037496820092201
                ]
            ]
        },
        {
            "type": "conv1d",
            "activation": "tanh",
            "shape": [
                null,
                null,
                4
            ],
            "weights": [
                [
                    [
                        [
                            0.22214144468307495,
                            -0.38665905594825745,
                            -0.11541056632995605,
                            0.14536213874816895
                        ],
                        [
                            -0.18583859503269196,
                            -0.031503111124038696,
                            -0.24022911489009857,
                            0.33901095390319824
                        ],
                        [
                            0.14443576335906982,
                            0.35303425788879395,
                            0.27362918853759766,
                            -0.16734251379966736
                        ],
                        [
                            0.22863107919692993,
                            0.09770959615707397,
                            -0.37002068758010864,
                            -0.03802245855331421
                        ],
                        [
                            -0.20597563683986664,
                            0.21160268783569336,
                            0.340005099773407,
                            0.19008195400238037
                        ],
                        [
                            -0.3129701018333435,
                            -0.4006868302822113,
                            0.347001850605011,
                            0.14953583478927612
                        ],
                        [
                            -0.15927907824516296,
                            -0.0048389732837677,
                            0.12351417541503906,
                            -0.3769071400165558
                        ],
                        [
                            -0.17989704012870789,
                            -0.37744659185409546,
                            0.16337662935256958,
                            0.35398030281066895
                        ]
                    ],
                    [
                        [
                            0.24742978811264038,
                            -0.2835344672203064,
                            -0.3503624200820923,
                            0.2447817325592041
                        ],
                        [
                            -0.29174819588661194,
                            0.25712865591049194,
                            0.13638007640838623,
                            -0.08403056859970093
                        ],
                        [
                            0.24480324983596802,
                            -0.08921301364898682,
                            0.15346133708953857,
                            0.11399054527282715
                        ],
                        [
                            -0.2837878465652466,
                            -0.024722158908843994,
                            0.3206692337989807,
                            -0.30505579710006714
                        ],
                        [
                            -0.36591240763664246,
                            -0.09139895439147949,
                            -0.19713391363620758,
                            0.13555258512496948
                        ],
                        [
                            0.0779276192188263,
                            0.18735557794570923,
                            0.3464048504829407,
                            -0.13651198148727417
                        ],
                        [
                            -0.404771625995636,
                            0.003354310989379883,
                            0.3441160321235657,
                            0.20766234397888184
                        ],
                        [
                            0.13858741521835327,
                            0.30972570180892944,
                            0.05875077843666077,
                            0.06170573830604553
                        ]
                    ],
                    [
                        [
                            -0.02043011784553528,
                            -0.0029540956020355225,
                            0.28843289613723755,
                            -0.32207491993904114
                        ],
                        [
                            0.09443283081054688,
                            0.23656654357910156,
                            -0.08075138926506042,
                            -0.35184451937675476
                        ],
                        [
                            0.35624784231185913,
                            0.10503494739532471,
                            0.22826004028320312,
                            -0.34240615367889404
                        ],
                        [
                            -0.014237433671951294,
                            0.11996287107467651,
                            -0.13988617062568665,
                            0.23315703868865967
                        ],
                        [
                            0.05779203772544861,
                            -0.07528901100158691,
                            0.18049561977386475,
                            -0.31455355882644653
                        ],
                        [
                            0.02311420440673828,
                            0.19183415174484253,
                            -0.120088130235672,
                            0.3582879304885864
                        ],
                        [
                            -0.039124369621276855,
                            0.10957002639770508,
                            -0.27640923857688904,
                            0.00682029128074646
                        ],
                        [
                            -0.18174093961715698,
                            -0.3135540187358856,
                            0.3447832465171814,
                            0.04430866241455078
                        ]
                    ]
                ],
                [
                    0.06687769293785095,
                    0.09896042943000793,
                    -0.06919427216053009,
                    -0.09067609161138535
                ]
            ],
            "kernel_size": [
                3
            ],
            "dilation": [
                2
            ]
        },
        {
            "type": "dense",
            "activation": "sigmoid",
            "shape": [
                null,
                null,
                8
            ],
            "weights": [
                [
                    [
                        -0.6005218029022217,
                        -0.048631977289915085,
                        -0.1951351910829544,
                        0.2758840322494507,
                        -0.10551896691322327,
                        -0.2377803921699524,
                        0.6258103847503662,
                        0.25200507044792175
                    ],
                    [
                        -0.38236796855926514,
                        0.3128879964351654,
                        0.36760571599006653,
                        0.10309645533561707,
                        0.4574204683303833,
                        -0.39208391308784485,
                        -0.4391361474990845,
                        0.23308612406253815
                    ],
                    [
                        -0.18268893659114838,
                        0.23565441370010376,
                        -0.6322327256202698,
                        0.15735161304473877,
                        -0.06710954755544662,
                        -0.25931239128112793,
                        -0.30486375093460083,
                        -0.5673845410346985
                    ],
                    [
                        -0.16807574033737183,
                        -0.3228686451911926,
                        0.4403667747974396,
                        0.041089728474617004,
                        0.29958564043045044,
                        -0.036139264702796936,
                        0.2583348751068115,
                        -0.717008113861084
                    ]
                ],
                [
                    -0.014781002886593342,
                    -0.017272932454943657,
                    -0.012437989935278893,
                    -0.07062597572803497,
                    -0.020176712423563004,
                    0.0664997324347496,
                    -0.13445879518985748,
                    0.0679418221116066
                ]
            ]
        },
        {
            "type": "dense",
            "activation": "",
            "shape": [
                null,
                null,
                1
            ],
            "weights": [
                [
                    [
                        -0.017203450202941895
                    ],
                    [
                        0.17267830669879913
                    ],
                    [
                        0.13115590810775757
                    ],
                    [
                        0.20857281982898712
                    ],
                    [
                        0.3370583951473236
                    ],
                    [
                        -0.15350164473056793
                    ],
                    [
                        -0.8538827896118164
                    ],
                    [
                        0.2071109116077423
                    ]
                ],
                [
                    -0.0016857999144122005
                ]
            ]
        }
    ]
}