{
    "in_shape": [
        null,
        100,
        1
    ],
    "layers": [
        {
            "type": "dense",
            "activation": "tanh",
            "shape": [
                null,
                100,
                8
            ],
            "weights": [
                [
                    [
                        0.13014279305934906,
                        -0.05828217417001724,
                        -0.056574251502752304,
                        -0.021002810448408127,
                        0.001809358480386436,
                        -0.036245398223400116,
                        -0.0008814525790512562,
                        -0.002635416341945529
                    ]
                ],
                [
                    -0.04183909669518471,
                    -0.0033466131426393986,
                    0.002920675091445446,
                    0.015518652275204659,
                    -0.08525512367486954,
                    0.07453388720750809,
                    -0.0564403235912323,
                    -0.014893271028995514
                ]
            ]
        },
        {
            "type": "conv1d",
            "activation": "tanh",
            "shape": [
                null,
                100,
                4
            ],
            "weights": [
                [
                    [
                        [
                            0.10845577716827393,
                            0.1838698387145996,
                            0.19308394193649292,
                            -0.16191449761390686
                        ],
                        [
                            -0.15213748812675476,
                            0.27545350790023804,
                            -0.25120148062705994,
                            0.3271239399909973
                        ],
                        [
                            -0.267206609249115,
                            -0.3827110826969147,
                            0.382068395614624,
                            0.40348899364471436
                        ],
                        [
                            -0.1252439022064209,
                            0.038476526737213135,
                            0.1069265604019165,
                            -0.22067277133464813
                        ],
                        [
                            0.18071651458740234,
                            0.3194052577018738,
                            -0.0990220308303833,
                            -0.1267651617527008
                        ],
                        [
                            0.2780994176864624,
                            -0.23596034944057465,
                            0.13708722591400146,
                            -0.040426403284072876
                        ],
                        [
                            -0.1599232405424118,
                            0.10123461484909058,
                            0.3365780711174011,
                            -0.1416912078857422
                        ],
                        [
                            0.32781511545181274,
                            0.05020934343338013,
                            0.12265610694885254,
                            -0.06688499450683594
                        ]
                    ],
                    [
                        [
                            -0.061972737312316895,
                            -0.26775693893432617,
                            -0.4043744206428528,
                            0.20158731937408447
                        ],
                        [
                            -0.06431207060813904,
                            0.076439768075943,
                            0.031144440174102783,
                            0.20182210206985474
                        ],
                        [
                            -0.17461754381656647,
                            0.013840585947036743,
                            0.16369503736495972,
                            -0.18995864689350128
                        ],
                        [
                            0.2628004550933838,
                            0.24221962690353394,
                            0.35771602392196655,
                            -0.3900555968284607
                        ],
                        [
                            0.1670001745223999,
                            -0.12557649612426758,
                            0.12605005502700806,
                            -0.2597842216491699
                        ],
                        [
                            0.2896183133125305,
                            0.1453995704650879,
                            0.025878578424453735,
                            0.3425004482269287
                        ],
                        [
                            0.339028537273407,
                            0.2359328269958496,
                            0.12708306312561035,
                            0.19191545248031616
                        ],
                        [
                            -0.023528844118118286,
                            -0.3954418897628784,
                            -0.3760668635368347,
                            -0.20547835528850555
                        ]
                    ],
                    [
                        [
                            -0.10463285446166992,
                            0.2510967254638672,
                            0.14372247457504272,
                            -0.10523691773414612
                        ],
                        [
                            0.26639658212661743,
                            -0.01707005500793457,
                            0.15203917026519775,
                            -0.03753355145454407
                        ],
                        [
                            -0.17055337131023407,
                            0.06142076849937439,
                            0.2561596632003784,
                            -0.004520982503890991
                        ],
                        [
                            0.29866260290145874,
                            0.05156412720680237,
                            0.2601497769355774,
                            -0.20923292636871338
                        ],
                        [
                            -0.3729339838027954,
                            0.030542224645614624,
                            0.4002341032028198,
                            0.2427569031715393
                        ],
                        [
                            -0.06201818585395813,
                            0.2576919198036194,
                            -0.18018515408039093,
                            0.1546153426170349
                        ],
                        [
                            -0.37185776233673096,
                            0.3571323752403259,
                            -0.227717325091362,
                            -0.13155221939086914
                        ],
                        [
                            0.06288027763366699,
                            0.33291590213775635,
                            0.15697109699249268,
                            0.024628520011901855
                        ]
                    ]
                ],
                [
                    -0.05902610346674919,
                    0.023049283772706985,
                    -0.05301964282989502,
                    -0.0338982529938221
                ]
            ],
            "kernel_size": [
                3
            ],
            "dilation": [
                1
            ]
        },
        {
            "type": "prelu",
            "activation": "",
            "shape": [
                null,
                100,
                4
            ],
            "weights": [
                [
                    [
                        0.09292268753051758,
                        -0.803213357925415,
                        0.9148573875427246,
                        -0.7219290733337402
                    ]
                ]
            ]
        },
        {
            "type": "conv1d",
            "activation": "tanh",
            "shape": [
                null,
                100,
                4
            ],
            "weights": [
                [
                    [
                        [
                            -0.2623023986816406,
                            -0.2071927785873413,
                            0.4704347848892212,
                            0.2689317464828491
                        ],
                        [
                            0.3532029390335083,
                            -0.28193581104278564,
                            -0.47641992568969727,
                            0.2767035961151123
                        ],
                        [
                            -0.09800589084625244,
                            -0.35838818550109863,
                            0.10954797267913818,
                            0.37888145446777344
                        ],
                        [
                            -0.3279554843902588,
                            -0.2386239767074585,
                            0.012086749076843262,
                            0.3851076364517212
                        ]
                    ],
                    [
                        [
                            0.4506063461303711,
                            0.15912771224975586,
                            -0.2958559989929199,
                            0.45591259002685547
                        ],
                        [
                            -0.32483482360839844,
                            0.2796154022216797,
                            -0.17627811431884766,
                            -0.35958242416381836
                        ],
                        [
                            -0.24818873405456543,
                            0.07311320304870605,
                            0.10135757923126221,
                            0.16354811191558838
                        ],
                        [
                            -0.06666326522827148,
                            0.148645281791687,
                            0.3182191848754883,
                            -0.45516324043273926
                        ]
                    ],
                    [
                        [
                            -0.13107538223266602,
                            -0.38368475437164307,
                            -0.49011099338531494,
                            -0.2882477045059204
                        ],
                        [
                            -0.02142953872680664,
                            0.10384571552276611,
                            -0.0409245491027832,
                            0.3835717439651489
                        ],
                        [
                            -0.2721841335296631,
                            0.43394696712493896,
                            -0.4803069829940796,
                            -0.41197311878204346
                        ],
                        [
                            -0.04430210590362549,
                            0.07331037521362305,
                            -0.41698265075683594,
                            -0.08201658725738525
                        ]
                    ]
                ],
                [
                    0.06211252883076668,
                    -0.025351641699671745,
                    -0.03156159073114395,
                    -0.014391260221600533
                ]
            ],
            "kernel_size": [
                3
            ],
            "dilation": [
                2
            ]
        },
        {
            "type": "prelu",
            "activation": "",
            "shape": [
                null,
                100,
                4
            ],
            "weights": [
                [
                    [
                        -1.3744362592697144
                    ]
                ]
            ]
        },
        {
            "type": "dense",
            "activation": "sigmoid",
            "shape": [
                null,
                100,
                8
            ],
            "weights": [
                [
                    [
                        0.02181065082550049,
                        0.3707025349140167,
                        0.3473852872848511,
                        0.6494125127792358,
                        -0.3061997592449188,
                        -0.3132123351097107,
                        0.18005722761154175,
                        -0.30888503789901733
                    ],
                    [
                        0.49267205595970154,
                        0.4080192744731903,
                        -0.5700441598892212,
                        0.18414847552776337,
                        0.29472851753234863,
                        0.18131999671459198,
                        0.33479106426239014,
                        -0.010338202118873596
                    ],
                    [
                        -0.40794456005096436,
                        -0.2876266539096832,
                        -0.25611627101898193,
                        0.10059264302253723,
                        0.4917920231819153,
                        -0.5406892895698547,
                        0.31293317675590515,
                        -0.2073797583580017
                    ],
                    [
                        0.008633962832391262,
                        0.31152209639549255,
                        -0.33146655559539795,
                        0.002217403147369623,
                        0.047335412353277206,
                        -0.388876348733902,
                        -0.7923673987388611,
                        -0.10813392698764801
                    ]
                ],
                [
                    0.06033993512392044,
                    -0.06040940433740616,
                    -0.030747190117836,
                    -0.004092735704034567,
                    -0.002743854420259595,
                    0.07406323403120041,
                    0.021400807425379753,
                    -0.10573158413171768
                ]
            ]
        },
        {
            "type": "dense",
            "activation": "",
            "shape": [
                null,
                100,
                1
            ],
            "weights": [
                [
                    [
                        -0.08927476406097412
                    ],
                    [
                        -0.37677329778671265
                    ],
                    [
                        0.3504220247268677
                    ],
                    [
                        0.10334999114274979
                    ],
                    [
                        0.2468090057373047
                    ],
                    [
                        0.2188645303249359
                    ],
                    [
                        -0.2623177468776703
                    ],
                    [
                        0.7341445088386536
                    ]
                ],
                [
                    -0.03824067488312721
                ]
            ]
        }
    ]
}