{
    "in_shape": [
        null,
        100,
        50,
        1
    ],
    "layers": [
        {
            "type": "conv2d",
            "activation": "",
            "shape": [
                null,
                96,
                16,
                8
            ],
            "kernel_size_time": 5,
            "kernel_size_feature": 3,
            "dilation": 1,
            "strides": 3,
            "num_filters_in": 1,
            "num_features_in": 50,
            "num_filters_out": 8,
            "weights": [
                [
                    [
                        [
                            [
                                0.06467913836240768,
                                -0.031018340960144997,
                                -0.03737818822264671,
                                -0.05753998085856438,
                                -0.007819189690053463,
                                -0.031294312328100204,
                                0.024384595453739166,
                                0.03935232385993004
                            ]
                        ],
                        [
                            [
                                0.004800644237548113,
                                0.03860434517264366,
                                0.025143438950181007,
                                -0.021562406793236732,
                                -0.022193271666765213,
                                0.03155060112476349,
                                0.05019015073776245,
                                -0.10090134292840958
                            ]
                        ],
                        [
                            [
                                0.11876461654901505,
                                -0.038671646267175674,
                                0.0019855033606290817,
                                0.049205753952264786,
                                -0.031062861904501915,
                                -0.06961861997842789,
                                -0.06492530554533005,
                                -0.035102229565382004
                            ]
                        ]
                    ],
                    [
                        [
                            [
                                0.0708320364356041,
                                0.0472603403031826,
                                -0.013462728820741177,
                                0.09193214029073715,
                                -0.029426096007227898,
                                0.040915172547101974,
                                -0.08595088124275208,
                                -0.019269805401563644
                            ]
                        ],
                        [
                            [
                                -0.06177094206213951,
                                0.07666849344968796,
                                0.1010529175400734,
                                -0.04316741228103638,
                                -0.02545822598040104,
                                -0.001396765117533505,
                                -0.006927552167326212,
                                -0.051404859870672226
                            ]
                        ],
                        [
                            [
                                -0.049446240067481995,
                                0.06460638344287872,
                                0.00673901429399848,
                                0.010509544052183628,
                                -0.01556127704679966,
                                -0.06862733513116837,
                                0.02250961773097515,
                                0.016701145097613335
                            ]
                        ]
                    ],
                    [
                        [
                            [
                                0.0077673159539699554,
                                0.04118277505040169,
                                0.003536683740094304,
                                0.0466667041182518,
                                -0.03610920533537865,
                                -0.12519901990890503,
                                0.03474052995443344,
                                0.0055286032147705555
                            ]
                        ],
                        [
                            [
                                -0.061589788645505905,
                                -0.04210471734404564,
                                0.0668872594833374,
                                0.0019656203221529722,
                                -0.13621929287910461,
                                0.05077524110674858,
                                -0.024000870063900948,
                                0.018435856327414513
                            ]
                        ],
                        [
                            [
                                -0.02125062420964241,
                                -0.015996569767594337,
                                -0.047553714364767075,
                                0.10598690807819366,
                                0.07388609647750854,
                                -0.004002181347459555,
                                -0.07607933133840561,
                                -0.0242010448127985
                            ]
                        ]
                    ],
                    [
                        [
                            [
                                0.04046432673931122,
                                -0.01632830873131752,
                                -0.03636807203292847,
                                0.01618826761841774,
                                -0.05148196965456009,
                                0.058914560824632645,
                                0.014455129392445087,
                                0.03747551888227463
                            ]
                        ],
                        [
                            [
                                -0.11359802633523941,
                                -0.01474822498857975,
                                -0.0006629334529861808,
                                -0.011242588981986046,
                                0.01896004006266594,
                                -0.05370569974184036,
                                0.06079773232340813,
                                0.026866737753152847
                            ]
                        ],
                        [
                            [
                                0.01622362993657589,
                                -0.07098729908466339,
                                0.010728742927312851,
                                -0.019507605582475662,
                                0.007586959283798933,
                                0.050575144588947296,
                                -0.016266580671072006,
                                -0.04908160865306854
                            ]
                        ]
                    ],
                    [
                        [
                            [
                                0.006608098745346069,
                                -0.017557671293616295,
                                0.01766831986606121,
                                -0.037312258034944534,
                                0.05479875206947327,
                                -0.029375502839684486,
                                -0.0367051437497139,
                                0.041008360683918
                            ]
                        ],
                        [
                            [
                                -0.07985078543424606,
                                0.07357709109783173,
                                -0.1213238388299942,
                                0.03545314818620682,
                                -0.039745643734931946,
                                0.10523857921361923,
                                -0.017187675461173058,
                                -0.04205457493662834
                            ]
                        ],
                        [
                            [
                                0.012359462678432465,
                                0.02083780989050865,
                                0.022145399823784828,
                                -0.05245768651366234,
                                0.05898534134030342,
                                0.005863668397068977,
                                0.04528450220823288,
                                -0.004282315727323294
                            ]
                        ]
                    ]
                ],
                [
                    -0.015270287171006203,
                    0.03744887933135033,
                    -0.030128752812743187,
                    0.03653978183865547,
                    -0.047052498906850815,
                    -0.006329444702714682,
                    -0.02417372167110443,
                    -0.04342956468462944
                ]
            ]
        },
        {
            "type": "conv2d",
            "activation": "",
            "shape": [
                null,
                76,
                10,
                1
            ],
            "kernel_size_time": 5,
            "kernel_size_feature": 7,
            "dilation": 5,
            "strides": 1,
            "num_filters_in": 8,
            "num_features_in": 16,
            "num_filters_out": 1,
            "weights": [
                [
                    [
                        [
                            [
                                -0.002178326714783907
                            ],
                            [
                                -0.04280456528067589
                            ],
                            [
                                -0.02363577112555504
                            ],
                            [
                                0.029207060113549232
                            ],
                            [
                                0.1086396798491478
                            ],
                            [
                                -0.0035676811821758747
                            ],
                            [
                                0.04627731814980507
                            ],
                            [
                                0.03615869581699371
                            ]
                        ],
                        [
                            [
                                0.011922947131097317
                            ],
                            [
                                -0.01573135331273079
                            ],
                            [
                                -0.011880423873662949
                            ],
                            [
                                0.012190653942525387
                            ],
                            [
                                0.07291455566883087
                            ],
                            [
                                -0.015495307743549347
                            ],
                            [
                                0.007295296993106604
                            ],
                            [
                                0.03619326651096344
                            ]
                        ],
                        [
                            [
                                -0.0826491042971611
                            ],
                            [
                                -0.030093589797616005
                            ],
                            [
                                0.05521002039313316
                            ],
                            [
                                -0.06472311913967133
                            ],
                            [
                                -0.04015379771590233
                            ],
                            [
                                -0.06468597799539566
                            ],
                            [
                                -0.05617523938417435
                            ],
                            [
                                -0.04859815910458565
                            ]
                        ],
                        [
                            [
                                -0.07342496514320374
                            ],
                            [
                                0.04819278419017792
                            ],
                            [
                                0.08168379217386246
                            ],
                            [
                                0.020091021433472633
                            ],
                            [
                                0.06640296429395676
                            ],
                            [
                                0.03437282517552376
                            ],
                            [
                                -0.024779824540019035
                            ],
                            [
                                0.00885599572211504
                            ]
                        ],
                        [
                            [
                                -0.03174787387251854
                            ],
                            [
                                -0.12519465386867523
                            ],
                            [
                                0.009004843421280384
                            ],
                            [
                                -0.024288123473525047
                            ],
                            [
                                0.07496821135282516
                            ],
                            [
                                -0.017157791182398796
                            ],
                            [
                                0.01332695223391056
                            ],
                            [
                                -0.011278634890913963
                            ]
                        ],
                        [
                            [
                                0.0400531031191349
                            ],
                            [
                                0.025364691391587257
                            ],
                            [
                                -0.0805492103099823
                            ],
                            [
                                0.008862863294780254
                            ],
                            [
                                0.08049755543470383
                            ],
                            [
                                0.03132183849811554
                            ],
                            [
                                0.0635947436094284
                            ],
                            [
                                -0.008933458477258682
                            ]
                        ],
                        [
                            [
                                -0.06071460247039795
                            ],
                            [
                                0.013678915798664093
                            ],
                            [
                                -0.03550252690911293
                            ],
                            [
                                0.04552765190601349
                            ],
                            [
                                -0.0170764047652483
                            ],
                            [
                                0.029207617044448853
                            ],
                            [
                                -0.07947435975074768
                            ],
                            [
                                0.051419615745544434
                            ]
                        ]
                    ],
                    [
                        [
                            [
                                0.011125217191874981
                            ],
                            [
                                -0.01839163340628147
                            ],
                            [
                                0.004699853714555502
                            ],
                            [
                                -0.018017491325736046
                            ],
                            [
                                -0.008220359683036804
                            ],
                            [
                                0.054865747690200806
                            ],
                            [
                                -0.03740435466170311
                            ],
                            [
                                -0.0007752358797006309
                            ]
                        ],
                        [
                            [
                                0.009157675318419933
                            ],
                            [
                                0.1386534571647644
                            ],
                            [
                                0.08442588895559311
                            ],
                            [
                                -0.020993750542402267
                            ],
                            [
                                0.022403554990887642
                            ],
                            [
                                0.06243014335632324
                            ],
                            [
                                0.11039119213819504
                            ],
                            [
                                -0.004810241516679525
                            ]
                        ],
                        [
                            [
                                0.03791484981775284
                            ],
                            [
                                -0.03294111415743828
                            ],
                            [
                                0.04869266599416733
                            ],
                            [
                                -0.056660979986190796
                            ],
                            [
                                0.023195242509245872
                            ],
                            [
                                0.05136561393737793
                            ],
                            [
                                0.02701544761657715
                            ],
                            [
                                -0.0291912741959095
                            ]
                        ],
                        [
                            [
                                -0.03291304409503937
                            ],
                            [
                                0.041742824018001556
                            ],
                            [
                                0.04105904698371887
                            ],
                            [
                                -0.06115388870239258
                            ],
                            [
                                0.04153622314333916
                            ],
                            [
                                0.02437303029000759
                            ],
                            [
                                -0.07417088001966476
                            ],
                            [
                                0.0693049281835556
                            ]
                        ],
                        [
                            [
                                -0.08845378458499908
                            ],
                            [
                                0.040316108614206314
                            ],
                            [
                                -0.034330110996961594
                            ],
                            [
                                0.04538225755095482
                            ],
                            [
                                0.00041591879562474787
                            ],
                            [
                                -0.005564106162637472
                            ],
                            [
                                0.08326402306556702
                            ],
                            [
                                -0.04825948551297188
                            ]
                        ],
                        [
                            [
                                -0.036819957196712494
                            ],
                            [
                                -0.06095735356211662
                            ],
                            [
                                -0.012845203280448914
                            ],
                            [
                                -0.03900132700800896
                            ],
                            [
                                -0.05903952196240425
                            ],
                            [
                                -0.07682394981384277
                            ],
                            [
                                -0.027064133435487747
                            ],
                            [
                                0.009278039447963238
                            ]
                        ],
                        [
                            [
                                -0.020598866045475006
                            ],
                            [
                                0.004211969207972288
                            ],
                            [
                                -0.0017003180691972375
                            ],
                            [
                                -0.07171092182397842
                            ],
                            [
                                0.0364493764936924
                            ],
                            [
                                0.015698863193392754
                            ],
                            [
                                0.029204070568084717
                            ],
                            [
                                -0.049087043851614
                            ]
                        ]
                    ],
                    [
                        [
                            [
                                0.052136268466711044
                            ],
                            [
                                -0.1390068233013153
                            ],
                            [
                                0.02056446485221386
                            ],
                            [
                                0.08177070319652557
                            ],
                            [
                                -0.06644000858068466
                            ],
                            [
                                -0.005621060263365507
                            ],
                            [
                                -0.05975502356886864
                            ],
                            [
                                -0.0039198617450892925
                            ]
                        ],
                        [
                            [
                                -0.026126692071557045
                            ],
                            [
                                0.019579341635107994
                            ],
                            [
                                0.04179626330733299
                            ],
                            [
                                -0.056762732565402985
                            ],
                            [
                                0.055570799857378006
                            ],
                            [
                                -0.008316079154610634
                            ],
                            [
                                -0.04516029357910156
                            ],
                            [
                                -0.026357552036643028
                            ]
                        ],
                        [
                            [
                                -0.07949832826852798
                            ],
                            [
                                0.009391186758875847
                            ],
                            [
                                0.008328542113304138
                            ],
                            [
                                0.014938469044864178
                            ],
                            [
                                -0.03222214803099632
                            ],
                            [
                                -0.06588774174451828
                            ],
                            [
                                0.06377264857292175
                            ],
                            [
                                -0.053118374198675156
                            ]
                        ],
                        [
                            [
                                0.01426242757588625
                            ],
                            [
                                -0.03920633718371391
                            ],
                            [
                                -0.06631922721862793
                            ],
                            [
                                0.043335460126399994
                            ],
                            [
                                0.05792315676808357
                            ],
                            [
                                0.017033066600561142
                            ],
                            [
                                -0.02620917372405529
                            ],
                            [
                                -0.029302258044481277
                            ]
                        ],
                        [
                            [
                                0.10527222603559494
                            ],
                            [
                                -0.07566019147634506
                            ],
                            [
                                -0.019515948370099068
                            ],
                            [
                                0.007600375451147556
                            ],
                            [
                                0.016631579026579857
                            ],
                            [
                                0.07094071060419083
                            ],
                            [
                                0.037237897515296936
                            ],
                            [
                                -0.05330631881952286
                            ]
                        ],
                        [
                            [
                                -0.06346943229436874
                            ],
                            [
                                -0.048198625445365906
                            ],
                            [
                                0.02522890642285347
                            ],
                            [
                                -0.0064950003288686275
                            ],
                            [
                                -0.037938084453344345
                            ],
                            [
                                -0.03895478695631027
                            ],
                            [
                                -0.026598740369081497
                            ],
                            [
                                0.0557892881333828
                            ]
                        ],
                        [
                            [
                                0.054474182426929474
                            ],
                            [
                                -0.004267646931111813
                            ],
                            [
                                0.11526770889759064
                            ],
                            [
                                0.03767495974898338
                            ],
                            [
                                -0.005917152389883995
                            ],
                            [
                                -0.009874170646071434
                            ],
                            [
                                0.07379420846700668
                            ],
                            [
                                0.0010403584456071258
                            ]
                        ]
                    ],
                    [
                        [
                            [
                                0.024910081177949905
                            ],
                            [
                                -0.07513439655303955
                            ],
                            [
                                -0.03729761764407158
                            ],
                            [
                                -0.04493964463472366
                            ],
                            [
                                0.01597057282924652
                            ],
                            [
                                0.06879846006631851
                            ],
                            [
                                -0.06599494069814682
                            ],
                            [
                                0.04097716137766838
                            ]
                        ],
                        [
                            [
                                0.05953041464090347
                            ],
                            [
                                0.022650424391031265
                            ],
                            [
                                -0.04500927776098251
                            ],
                            [
                                -0.05986032634973526
                            ],
                            [
                                0.0136575847864151
                            ],
                            [
                                0.09662077575922012
                            ],
                            [
                                -0.06076362729072571
                            ],
                            [
                                0.03982602059841156
                            ]
                        ],
                        [
                            [
                                -0.019969908520579338
                            ],
                            [
                                0.01611986756324768
                            ],
                            [
                                -0.03294973075389862
                            ],
                            [
                                0.017271123826503754
                            ],
                            [
                                -0.07711079716682434
                            ],
                            [
                                -0.0703798159956932
                            ],
                            [
                                0.0006135750445537269
                            ],
                            [
                                0.03792330622673035
                            ]
                        ],
                        [
                            [
                                0.035209495574235916
                            ],
                            [
                                -0.11200588941574097
                            ],
                            [
                                -0.04759057238698006
                            ],
                            [
                                0.07148805260658264
                            ],
                            [
                                -0.005862556863576174
                            ],
                            [
                                0.0008745025261305273
                            ],
                            [
                                0.06881268322467804
                            ],
                            [
                                -0.005690078251063824
                            ]
                        ],
                        [
                            [
                                0.04190593585371971
                            ],
                            [
                                0.047855500131845474
                            ],
                            [
                                -0.046398185193538666
                            ],
                            [
                                -0.10689973831176758
                            ],
                            [
                                0.04532572254538536
                            ],
                            [
                                0.008941753767430782
                            ],
                            [
                                -0.0367012545466423
                            ],
                            [
                                0.012653467245399952
                            ]
                        ],
                        [
                            [
                                -0.09380552172660828
                            ],
                            [
                                0.009088738821446896
                            ],
                            [
                                0.027494225651025772
                            ],
                            [
                                0.0771833211183548
                            ],
                            [
                                -0.03143610060214996
                            ],
                            [
                                -0.04134654998779297
                            ],
                            [
                                -0.01812157966196537
                            ],
                            [
                                0.021865008398890495
                            ]
                        ],
                        [
                            [
                                -0.052662670612335205
                            ],
                            [
                                0.01602361723780632
                            ],
                            [
                                -0.006714969407767057
                            ],
                            [
                                -0.04257561266422272
                            ],
                            [
                                0.058493729680776596
                            ],
                            [
                                0.0035819464828819036
                            ],
                            [
                                0.024212012067437172
                            ],
                            [
                                -0.01796475611627102
                            ]
                        ]
                    ],
                    [
                        [
                            [
                                -0.013337266631424427
                            ],
                            [
                                -0.0183026771992445
                            ],
                            [
                                0.0725320428609848
                            ],
                            [
                                0.0308940801769495
                            ],
                            [
                                -0.020837299525737762
                            ],
                            [
                                0.020693520084023476
                            ],
                            [
                                0.04900382086634636
                            ],
                            [
                                0.028789836913347244
                            ]
                        ],
                        [
                            [
                                0.08455485850572586
                            ],
                            [
                                0.016913829371333122
                            ],
                            [
                                0.04368198290467262
                            ],
                            [
                                -0.07468574494123459
                            ],
                            [
                                -0.05936681851744652
                            ],
                            [
                                0.01209584716707468
                            ],
                            [
                                0.038076408207416534
                            ],
                            [
                                0.035494472831487656
                            ]
                        ],
                        [
                            [
                                0.01927393302321434
                            ],
                            [
                                0.02060197852551937
                            ],
                            [
                                0.10798957198858261
                            ],
                            [
                                0.052755970507860184
                            ],
                            [
                                0.03693821281194687
                            ],
                            [
                                -0.004022026434540749
                            ],
                            [
                                0.03683483973145485
                            ],
                            [
                                0.01817329041659832
                            ]
                        ],
                        [
                            [
                                -0.12445157021284103
                            ],
                            [
                                0.03755348548293114
                            ],
                            [
                                0.005515968892723322
                            ],
                            [
                                -0.008421450853347778
                            ],
                            [
                                -0.05903913453221321
                            ],
                            [
                                -0.0049645546823740005
                            ],
                            [
                                -0.0711139366030693
                            ],
                            [
                                -0.021103333681821823
                            ]
                        ],
                        [
                            [
                                0.03842733055353165
                            ],
                            [
                                -0.048641614615917206
                            ],
                            [
                                0.002261444693431258
                            ],
                            [
                                -0.0144497724249959
                            ],
                            [
                                0.02129405550658703
                            ],
                            [
                                0.029964348301291466
                            ],
                            [
                                -0.08768730610609055
                            ],
                            [
                                -0.07822044938802719
                            ]
                        ],
                        [
                            [
                                0.008451822213828564
                            ],
                            [
                                0.017918989062309265
                            ],
                            [
                                0.017337607219815254
                            ],
                            [
                                -0.11166484653949738
                            ],
                            [
                                -0.03866150602698326
                            ],
                            [
                                0.0029846196994185448
                            ],
                            [
                                0.041455741971731186
                            ],
                            [
                                -0.021917371079325676
                            ]
                        ],
                        [
                            [
                                0.003615442430600524
                            ],
                            [
                                -0.032272305339574814
                            ],
                            [
                                0.03839188441634178
                            ],
                            [
                                0.024794399738311768
                            ],
                            [
                                0.0018056565895676613
                            ],
                            [
                                0.0484682098031044
                            ],
                            [
                                -0.006901248823851347
                            ],
                            [
                                0.0332467183470726
                            ]
                        ]
                    ]
                ],
                [
                    0.01961742900311947
                ]
            ]
        }
    ]
}