{
    "in_shape": [
        null,
        100,
        1
    ],
    "layers": [
        {
            "type": "dense",
            "activation": "tanh",
            "shape": [
                null,
                100,
                8
            ],
            "weights": [
                [
                    [
                        0.06656239181756973,
                        -0.0006040206644684076,
                        0.012142895720899105,
                        0.051892347633838654,
                        -0.008433851413428783,
                        0.01794683001935482,
                        0.04561030864715576,
                        -0.06618297100067139
                    ]
                ],
                [
                    0.051698099821805954,
                    0.033575356006622314,
                    -0.046891048550605774,
                    0.0003971352707594633,
                    -0.01093071885406971,
                    0.09347115457057953,
                    -0.047010648995637894,
                    0.015157110057771206
                ]
            ]
        },
        {
            "type": "conv1d",
            "activation": "tanh",
            "shape": [
                null,
                100,
                4
            ],
            "weights": [
                [
                    [
                        [
                            0.1854819655418396,
                            0.3576408624649048,
                            -0.3954821825027466,
                            0.09188783168792725
                        ],
                        [
                            0.2131330966949463,
                            0.2615807056427002,
                            0.23516219854354858,
                            0.17619377374649048
                        ],
                        [
                            -0.3940015435218811,
                            0.3587779998779297,
                            -0.16593584418296814,
                            -0.30294275283813477
                        ],
                        [
                            0.23269778490066528,
                            -0.1282062828540802,
                            0.3792911767959595,
                            0.1288454532623291
                        ],
                        [
                            0.19955295324325562,
                            0.16407305002212524,
                            -0.3803459703922272,
                            0.06642237305641174
                        ],
                        [
                            0.36655694246292114,
                            0.05473187565803528,
                            0.2964431047439575,
                            0.08650451898574829
                        ],
                        [
                            0.10580283403396606,
                            0.18840432167053223,
                            0.22079676389694214,
                            -0.21182891726493835
                        ],
                        [
                            0.22483402490615845,
                            0.3011753559112549,
                            -0.28253084421157837,
                            0.33940261602401733
                        ]
                    ],
                    [
                        [
                            -0.3592798709869385,
                            0.08430621027946472,
                            0.29410988092422485,
                            -0.23654356598854065
                        ],
                        [
                            0.4063934087753296,
                            -0.4034750461578369,
                            -0.19427648186683655,
                            -0.29562345147132874
                        ],
                        [
                            0.2631229758262634,
                            -0.146455317735672,
                            0.15268433094024658,
                            0.18632304668426514
                        ],
                        [
                            0.3565329313278198,
                            0.18067967891693115,
                            -0.06000426411628723,
                            0.10194343328475952
                        ],
                        [
                            -0.15133380889892578,
                            0.16136670112609863,
                            0.3299313187599182,
                            0.3735313415527344
                        ],
                        [
                            -0.2592313289642334,
                            -0.28624629974365234,
                            -0.33871719241142273,
                            0.34897541999816895
                        ],
                        [
                            -0.30937322974205017,
                            -0.3804835081100464,
                            -0.04780802130699158,
                            -0.3631190061569214
                        ],
                        [
                            -0.024844110012054443,
                            0.03765958547592163,
                            -0.05795195698738098,
                            -0.21203604340553284
                        ]
                    ],
                    [
                        [
                            -0.20071746408939362,
                            -0.040200501680374146,
                            0.3929639458656311,
                            -0.29818761348724365
                        ],
                        [
                            0.21879249811172485,
                            -0.3724052608013153,
                            -0.4033677875995636,
                            -0.09511446952819824
                        ],
                        [
                            -0.25122347474098206,
                            0.285788357257843,
                            0.008946269750595093,
                            -0.25422388315200806
                        ],
                        [
                            0.18593746423721313,
                            0.010019361972808838,
                            0.3400673270225525,
                            -0.23597416281700134
                        ],
                        [
                            -0.01184651255607605,
                            -0.3011031746864319,
                            -0.09558692574501038,
                            -0.21719561517238617
                        ],
                        [
                            -0.3224070370197296,
                            -0.11900791525840759,
                            -0.08601033687591553,
                            0.15633082389831543
                        ],
                        [
                            -0.02950379252433777,
                            0.1717008352279663,
                            -0.1995031237602234,
                            0.08258339762687683
                        ],
                        [
                            -0.21622374653816223,
                            0.1323871612548828,
                            0.13615572452545166,
                            -0.09166836738586426
                        ]
                    ]
                ],
                [
                    -0.03848162293434143,
                    0.06127206236124039,
                    0.006293840240687132,
                    0.08795132488012314
                ]
            ],
            "kernel_size": [
                3
            ],
            "dilation": [
                1
            ]
        },
        {
            "type": "batchnorm",
            "activation": "",
            "shape": [
                null,
                100,
                4
            ],
            "weights": [
                [
                    -0.20857661962509155,
                    -0.48893460631370544,
                    0.4712849259376526,
                    0.01940464973449707
                ],
                [
                    -0.006600051652640104,
                    0.011664402671158314,
                    0.01130590308457613,
                    0.035329561680555344
                ],
                [
                    -0.0008973292424343526,
                    0.024522913619875908,
                    0.08325810730457306,
                    0.03229643777012825
                ],
                [
                    1.0,
                    1.0,
                    1.0,
                    1.0
                ]
            ],
            "epsilon": 0.01
        },
        {
            "type": "prelu",
            "activation": "",
            "shape": [
                null,
                100,
                4
            ],
            "weights": [
                [
                    [
                        0.45249128341674805,
                        -0.6763591170310974,
                        -0.12550532817840576,
                        -0.606115460395813
                    ]
                ]
            ]
        },
        {
            "type": "conv1d",
            "activation": "tanh",
            "shape": [
                null,
                100,
                4
            ],
            "weights": [
                [
                    [
                        [
                            -0.32565784454345703,
                            -0.10097801685333252,
                            0.3127326965332031,
                            0.4331096410751343
                        ],
                        [
                            0.13188397884368896,
                            -0.4741384983062744,
                            -0.13765740394592285,
                            -0.2702404260635376
                        ],
                        [
                            0.0521012544631958,
                            0.43842649459838867,
                            0.011306405067443848,
                            0.40771353244781494
                        ],
                        [
                            0.22574126720428467,
                            0.16993927955627441,
                            -0.25854456424713135,
                            0.4267696142196655
                        ]
                    ],
                    [
                        [
                            0.05638158321380615,
                            -0.1553361415863037,
                            0.4815351963043213,
                            -0.30332493782043457
                        ],
                        [
                            0.14702939987182617,
                            0.32636940479278564,
                            0.011737704277038574,
                            -0.4623098373413086
                        ],
                        [
                            -0.2578158378601074,
                            0.4125627279281616,
                            0.07831311225891113,
                            0.2872380018234253
                        ],
                        [
                            -0.19362115859985352,
                            -0.04278719425201416,
                            -0.36194372177124023,
                            -0.22445547580718994
                        ]
                    ],
                    [
                        [
                            0.09662020206451416,
                            0.4749969244003296,
                            -0.2771874666213989,
                            0.37985992431640625
                        ],
                        [
                            0.48667168617248535,
                            -0.43159615993499756,
                            0.04208207130432129,
                            -0.17136478424072266
                        ],
                        [
                            -0.3540380001068115,
                            0.09820282459259033,
                            -0.49906349182128906,
                            -0.23247408866882324
                        ],
                        [
                            -0.36406028270721436,
                            -0.056505441665649414,
                            -0.07265186309814453,
                            -0.30564606189727783
                        ]
                    ]
                ],
                [
                    -0.10520442575216293,
                    0.07420983165502548,
                    0.03893394395709038,
                    0.033335816115140915
                ]
            ],
            "kernel_size": [
                3
            ],
            "dilation": [
                2
            ]
        },
        {
            "type": "prelu",
            "activation": "",
            "shape": [
                null,
                100,
                4
            ],
            "weights": [
                [
                    [
                        0.5460206270217896
                    ]
                ]
            ]
        },
        {
            "type": "dense",
            "activation": "sigmoid",
            "shape": [
                null,
                100,
                8
            ],
            "weights": [
                [
                    [
                        0.34720444679260254,
                        -0.39081069827079773,
                        0.2290380448102951,
                        -0.09413350373506546,
                        0.02517479844391346,
                        -0.7511348724365234,
                        0.038041263818740845,
                        0.31482064723968506
                    ],
                    [
                        -0.5040717124938965,
                        -0.39320558309555054,
                        0.4702104330062866,
                        -0.20894977450370789,
                        -0.5538920164108276,
                        0.09163165092468262,
                        0.06795531511306763,
                        -0.08205161988735199
                    ],
                    [
                        -0.5772789716720581,
                        -0.04734034836292267,
                        -0.4952211380004883,
                        -0.2571954131126404,
                        0.12524931132793427,
                        -0.39813554286956787,
                        -0.42026543617248535,
                        -0.04787707328796387
                    ],
                    [
                        -0.40500208735466003,
                        -0.369592547416687,
                        -0.03242482244968414,
                        0.5744810104370117,
                        0.4285179078578949,
                        -0.02080698311328888,
                        0.42655885219573975,
                        0.04776901751756668
                    ]
                ],
                [
                    -0.16590812802314758,
                    0.0337151437997818,
                    0.00417325971648097,
                    -0.010687865316867828,
                    -0.04224025830626488,
                    0.10794313251972198,
                    -0.06528806686401367,
                    -0.021995672956109047
                ]
            ]
        },
        {
            "type": "dense",
            "activation": "",
            "shape": [
                null,
                100,
                1
            ],
            "weights": [
                [
                    [
                        0.38485729694366455
                    ],
                    [
                        0.15905019640922546
                    ],
                    [
                        0.11253922432661057
                    ],
                    [
                        -0.09451991319656372
                    ],
                    [
                        -0.08330798894166946
                    ],
                    [
                        0.20652727782726288
                    ],
                    [
                        0.8493983149528503
                    ],
                    [
                        -0.18416748940944672
                    ]
                ],
                [
                    0.06296252459287643
                ]
            ]
        }
    ]
}