{
    "in_shape": [
        null,
        null,
        1
    ],
    "layers": [
        {
            "type": "dense",
            "activation": "tanh",
            "shape": [
                null,
                null,
                8
            ],
            "weights": [
                [
                    [
                        0.03242310509085655,
                        -0.04377797245979309,
                        -0.08373941481113434,
                        0.056808289140462875,
                        0.0195753276348114,
                        0.05851238593459129,
                        -0.03875311091542244,
                        -0.004685849417001009
                    ]
                ],
                [
                    0.03322145342826843,
                    0.05370393022894859,
                    0.023881839588284492,
                    -0.013095892034471035,
                    -0.12703363597393036,
                    0.020429570227861404,
                    0.020392080768942833,
                    0.002234972547739744
                ]
            ]
        },
        {
            "type": "conv1d",
            "activation": "tanh",
            "shape": [
                null,
                null,
                4
            ],
            "weights": [
                [
                    [
                        [
                            -0.08429968357086182,
                            0.3254689574241638,
                            -0.30621981620788574,
                            0.04881057143211365
                        ],
                        [
                            0.18327772617340088,
                            0.19141173362731934,
                            -0.24471232295036316,
                            0.08366438746452332
                        ],
                        [
                            -0.03759360313415527,
                            0.19903689622879028,
                            -0.05872783064842224,
                            -0.4037243127822876
                        ],
                        [
                            -0.37678948044776917,
                            -0.02075052261352539,
                            0.33560043573379517,
                            0.15448468923568726
                        ],
                        [
                            0.15714436769485474,
                            0.2552737593650818,
                            -0.1919425129890442,
                            0.4020841717720032
                        ],
                        [
                            -0.33616578578948975,
                            0.2835589051246643,
                            0.11906152963638306,
                            -0.1846810132265091
                        ],
                        [
                            0.003225654363632202,
                            -0.3977363407611847,
                            0.18416988849639893,
                            -0.3514464199542999
                        ],
                        [
                            -0.007348239421844482,
                            0.1618075966835022,
                            0.3910137414932251,
                            0.06837740540504456
                        ]
                    ],
                    [
                        [
                            0.3955061435699463,
                            0.13107556104660034,
                            -0.3212915062904358,
                            -0.3256918787956238
                        ],
                        [
                            0.4043365716934204,
                            0.189100444316864,
                            0.2627077102661133,
                            0.0918615460395813
                        ],
                        [
                            -0.3198806345462799,
                            0.26723921298980713,
                            -0.29944390058517456,
                            -0.3404473066329956
                        ],
                        [
                            0.08848077058792114,
                            0.06808501482009888,
                            0.036501407623291016,
                            -0.21385608613491058
                        ],
                        [
                            0.3687587380409241,
                            -0.3932742476463318,
                            0.02066284418106079,
                            0.022116810083389282
                        ],
                        [
                            0.14753282070159912,
                            -0.2800963521003723,
                            -0.29875069856643677,
                            -0.3454461693763733
                        ],
                        [
                            0.19682693481445312,
                            0.3596532344818115,
                            0.22946476936340332,
                            0.022403955459594727
                        ],
                        [
                            -0.3656902015209198,
                            -0.10794493556022644,
                            -0.314990371465683,
                            0.21695727109909058
                        ]
                    ],
                    [
                        [
                            0.2542375326156616,
                            -0.26674365997314453,
                            -0.20069478452205658,
                            0.07080501317977905
                        ],
                        [
                            -0.14218655228614807,
                            0.19450843334197998,
                            -0.34466293454170227,
                            -0.10217791795730591
                        ],
                        [
                            0.12415093183517456,
                            0.18969613313674927,
                            -0.24176456034183502,
                            0.004022121429443359
                        ],
                        [
                            0.3825579881668091,
                            0.23278158903121948,
                            0.33665168285369873,
                            -0.013535350561141968
                        ],
                        [
                            0.05129861831665039,
                            -0.21975569427013397,
                            -0.058703482151031494,
                            0.18850475549697876
                        ],
                        [
                            0.24780678749084473,
                            -0.258319228887558,
                            0.38898396492004395,
                            0.120810866355896
                        ],
                        [
                            0.22832459211349487,
                            -0.10511729121208191,
                            -0.3973877727985382,
                            0.40267127752304077
                        ],
                        [
                            -0.3315145671367645,
                            -0.29748865962028503,
                            0.021052271127700806,
                            0.1303156018257141
                        ]
                    ]
                ],
                [
                    -0.09539046138525009,
                    -0.0853595957159996,
                    -0.040631603449583054,
                    -0.06017458438873291
                ]
            ],
            "kernel_size": [
                3
            ],
            "dilation": [
                1
            ]
        },
        {
            "type": "conv1d",
            "activation": "tanh",
            "shape": [
                null,
                null,
                4
            ],
            "weights": [
                [
                    [
                        [
                            0.16510117053985596,
                            0.023943662643432617,
                            0.3113769292831421,
                            -0.1460338830947876
                        ],
                        [
                            -0.4074808359146118,
                            -0.17160403728485107,
                            -0.326482892036438,
                            0.29346632957458496
                        ],
                        [
                            -0.15968739986419678,
                            0.018939614295959473,
                            -0.3437608480453491,
                            0.20268213748931885
                        ],
                        [
                            -0.10281920433044434,
                            0.3176015615463257,
                            -0.45019829273223877,
                            0.05644333362579346
                        ]
                    ],
                    [
                        [
                            -0.3083845376968384,
                            -0.32458972930908203,
                            0.2205333709716797,
                            -0.09663939476013184
                        ],
                        [
                            0.12114644050598145,
                            0.3024662733078003,
                            -0.08834433555603027,
                            -0.46440768241882324
                        ],
                        [
                            0.11320054531097412,
                            0.017814040184020996,
                            -0.47342896461486816,
                            0.35681188106536865
                        ],
                        [
                            0.054592251777648926,
                            -0.37842369079589844,
                            0.10900557041168213,
                            -0.2909291982650757
                        ]
                    ],
                    [
                        [
                            -0.1026238203048706,
                            0.21222543716430664,
                            -0.27513444423675537,
                            -0.204673171043396
                        ],
                        [
                            -0.07268011569976807,
                            -0.15618431568145752,
                            -0.23585999011993408,
                            -0.06724190711975098
                        ],
                        [
                            0.05651199817657471,
                            -0.26362788677215576,
                            0.36534392833709717,
                            -0.2053389549255371
                        ],
                        [
                            0.0013717412948608398,
                            0.2682708501815796,
                            -0.20679163932800293,
                            -0.1896125078201294
                        ]
                    ]
                ],
                [
                    -0.12782453000545502,
                    -0.014881680719554424,
                    0.016690809279680252,
                    -0.029741138219833374
                ]
            ],
            "kernel_size": [
                3
            ],
            "dilation": [
                2
            ]
        },
        {
            "type": "dense",
            "activation": "sigmoid",
            "shape": [
                null,
                null,
                8
            ],
            "weights": [
                [
                    [
                        0.7486943006515503,
                        0.08835715800523758,
                        -0.10916520655155182,
                        -0.0969281941652298,
                        -0.5412819981575012,
                        -0.08527173101902008,
                        -0.2932340204715729,
                        0.1552225947380066
                    ],
                    [
                        -0.049925632774829865,
                        -0.8835234642028809,
                        -0.30052807927131653,
                        -0.25087475776672363,
                        -0.082268625497818,
                        0.21752992272377014,
                        -0.08947068452835083,
                        0.03932026028633118
                    ],
                    [
                        0.07909436523914337,
                        -0.29315367341041565,
                        0.8973819613456726,
                        0.06328552961349487,
                        0.053274963051080704,
                        0.024178359657526016,
                        -0.25491395592689514,
                        0.17349812388420105
                    ],
                    [
                        0.3133207857608795,
                        0.04544155299663544,
                        -0.06403026729822159,
                        -0.08615797758102417,
                        0.5293933153152466,
                        0.17978231608867645,
                        -0.4761805534362793,
                        -0.5906906127929688
                    ]
                ],
                [
                    0.11131149530410767,
                    0.01978493295609951,
                    0.04762132838368416,
                    0.004492290783673525,
                    0.04622126743197441,
                    -0.01724814437329769,
                    -0.09825783222913742,
                    -0.03328464552760124
                ]
            ]
        },
        {
            "type": "dense",
            "activation": "",
            "shape": [
                null,
                null,
                1
            ],
            "weights": [
                [
                    [
                        0.1118854284286499
                    ],
                    [
                        0.2665315866470337
                    ],
                    [
                        -0.6992233991622925
                    ],
                    [
                        0.2491467446088791
                    ],
                    [
                        0.31528693437576294
                    ],
                    [
                        0.30031415820121765
                    ],
                    [
                        -0.07431082427501678
                    ],
                    [
                        0.4127209186553955
                    ]
                ],
                [
                    -0.0068873013369739056
                ]
            ]
        }
    ]
}