{
    "in_shape": [
        null,
        100,
        1
    ],
    "layers": [
        {
            "type": "dense",
            "activation": "tanh",
            "shape": [
                null,
                100,
                8
            ],
            "weights": [
                [
                    [
                        0.05598251149058342,
                        -0.07200523465871811,
                        0.02589217759668827,
                        -0.03946569934487343,
                        -0.035330630838871,
                        -0.07593408226966858,
                        -0.020361287519335747,
                        -0.006077453028410673
                    ]
                ],
                [
                    -0.04474436864256859,
                    -0.017711853608489037,
                    -0.0023042878601700068,
                    -0.10744231939315796,
                    -0.038191888481378555,
                    -0.014063176698982716,
                    0.03400794789195061,
                    -0.05277238041162491
                ]
            ]
        },
        {
            "type": "conv1d",
            "activation": "tanh",
            "shape": [
                null,
                100,
                4
            ],
            "kernel_size": [
                3
            ],
            "dilation": [
                1
            ],
            "weights": [
                [
                    [
                        [
                            -0.1400146484375,
                            -0.3293377161026001,
                            0.1681690812110901,
                            -0.06694602966308594
                        ],
                        [
                            0.3680291175842285,
                            0.3766040802001953,
                            -0.05485326051712036,
                            -0.19622939825057983
                        ],
                        [
                            -0.33546847105026245,
                            0.24249780178070068,
                            -0.030355364084243774,
                            -0.22818930447101593
                        ],
                        [
                            -0.13094156980514526,
                            0.3217065930366516,
                            -0.38461560010910034,
                            0.3439379930496216
                        ],
                        [
                            -0.021243155002593994,
                            0.33620744943618774,
                            -0.23770077526569366,
                            -0.28853821754455566
                        ],
                        [
                            -0.05460250377655029,
                            -0.3193019926548004,
                            -0.10173261165618896,
                            -0.09122228622436523
                        ],
                        [
                            -0.14416885375976562,
                            -0.2998571991920471,
                            0.3072581887245178,
                            0.023701995611190796
                        ],
                        [
                            -0.2690643072128296,
                            -0.38189250230789185,
                            -0.19501174986362457,
                            -0.21388879418373108
                        ]
                    ],
                    [
                        [
                            -0.29572468996047974,
                            -0.12711963057518005,
                            0.22988379001617432,
                            -0.27552932500839233
                        ],
                        [
                            -0.12351438403129578,
                            -0.40368011593818665,
                            0.3571462035179138,
                            0.04528599977493286
                        ],
                        [
                            0.018774747848510742,
                            0.00012886524200439453,
                            0.2455989122390747,
                            -0.3210532069206238
                        ],
                        [
                            0.2959745526313782,
                            0.04817691445350647,
                            -0.2523668706417084,
                            -0.40480852127075195
                        ],
                        [
                            -0.037944287061691284,
                            0.24970227479934692,
                            -0.35183626413345337,
                            0.30250632762908936
                        ],
                        [
                            -0.20938612520694733,
                            -0.12354126572608948,
                            0.12321138381958008,
                            -0.14896565675735474
                        ],
                        [
                            -0.07626029849052429,
                            -0.36898162961006165,
                            0.003952622413635254,
                            0.036209315061569214
                        ],
                        [
                            -0.14905765652656555,
                            0.20257633924484253,
                            0.3258482813835144,
                            0.30211347341537476
                        ]
                    ],
                    [
                        [
                            0.23111534118652344,
                            0.27374207973480225,
                            0.09656953811645508,
                            -0.37965986132621765
                        ],
                        [
                            -0.16914533078670502,
                            -0.12339621782302856,
                            -0.26759809255599976,
                            0.04291006922721863
                        ],
                        [
                            -0.09424373507499695,
                            0.26176536083221436,
                            0.11022418737411499,
                            0.18641221523284912
                        ],
                        [
                            -0.12615516781806946,
                            0.11896353960037231,
                            -0.03038349747657776,
                            -0.11098021268844604
                        ],
                        [
                            0.22287964820861816,
                            0.3397790193557739,
                            0.18755978345870972,
                            -0.3665810823440552
                        ],
                        [
                            -0.2447483390569687,
                            -0.3090096116065979,
                            0.25515735149383545,
                            0.378156840801239
                        ],
                        [
                            0.32581186294555664,
                            -0.34681808948516846,
                            0.026110827922821045,
                            -0.22867587208747864
                        ],
                        [
                            0.29437798261642456,
                            -0.22583867609500885,
                            -0.10590267181396484,
                            0.30998915433883667
                        ]
                    ]
                ],
                [
                    -0.09794079512357712,
                    0.04439571499824524,
                    -0.008201065473258495,
                    0.025808755308389664
                ]
            ]
        },
        {
            "type": "batchnorm",
            "activation": "",
            "shape": [
                null,
                100,
                4
            ],
            "epsilon": 0.01,
            "weights": [
                [
                    -0.2837452292442322,
                    0.28216999769210815,
                    -0.833458662033081,
                    -0.7894847393035889
                ],
                [
                    -0.001773769618012011,
                    -0.1342775970697403,
                    0.08713386207818985,
                    0.05011708289384842
                ],
                [
                    -0.0322117954492569,
                    0.0446665920317173,
                    -0.062453366816043854,
                    0.10143911093473434
                ],
                [
                    1.0,
                    1.0,
                    1.0,
                    1.0
                ]
            ]
        },
        {
            "type": "prelu",
            "activation": "",
            "shape": [
                null,
                100,
                4
            ],
            "weights": [
                [
                    [
                        0.4560098648071289,
                        0.5551869869232178,
                        0.2404646873474121,
                        -0.4284476041793823
                    ]
                ]
            ]
        },
        {
            "type": "conv1d",
            "activation": "tanh",
            "shape": [
                null,
                100,
                4
            ],
            "kernel_size": [
                1
            ],
            "dilation": [
                1
            ],
            "weights": [
                [
                    [
                        [
                            0.12498027086257935,
                            0.47380393743515015,
                            0.6918533444404602,
                            -0.82884681224823
                        ],
                        [
                            -0.6686703562736511,
                            -0.7602720260620117,
                            0.09288328886032104,
                            0.3058919310569763
                        ],
                        [
                            -0.7762836813926697,
                            0.007411658763885498,
                            0.13585954904556274,
                            -0.38418078422546387
                        ],
                        [
                            0.21664386987686157,
                            0.01324528455734253,
                            0.3251885771751404,
                            -0.22675687074661255
                        ]
                    ]
                ],
                [
                    -0.017425881698727608,
                    0.03877745196223259,
                    0.035951580852270126,
                    0.0167413167655468
                ]
            ]
        },
        {
            "type": "conv1d",
            "activation": "tanh",
            "shape": [
                null,
                100,
                4
            ],
            "kernel_size": [
                3
            ],
            "dilation": [
                2
            ],
            "weights": [
                [
                    [
                        [
                            -0.17169427871704102,
                            0.38072192668914795,
                            -0.08367717266082764,
                            0.4417891502380371
                        ],
                        [
                            0.37393736839294434,
                            -0.13251852989196777,
                            0.11802268028259277,
                            0.4053969383239746
                        ],
                        [
                            -0.4844686985015869,
                            -0.2797790765762329,
                            0.33751916885375977,
                            0.3371903896331787
                        ],
                        [
                            -0.20845234394073486,
                            -0.42528343200683594,
                            -0.4499228000640869,
                            0.34611284732818604
                        ]
                    ],
                    [
                        [
                            0.2986927032470703,
                            0.2933000326156616,
                            0.44200801849365234,
                            0.08825647830963135
                        ],
                        [
                            0.3301210403442383,
                            0.03481554985046387,
                            0.13524627685546875,
                            0.16745150089263916
                        ],
                        [
                            -0.35719025135040283,
                            0.20594489574432373,
                            -0.31638669967651367,
                            -0.42792022228240967
                        ],
                        [
                            0.22114646434783936,
                            0.17715144157409668,
                            0.41124391555786133,
                            -0.31616997718811035
                        ]
                    ],
                    [
                        [
                            0.4918473958969116,
                            0.36183977127075195,
                            0.3759753704071045,
                            -0.4840129613876343
                        ],
                        [
                            0.49018073081970215,
                            0.02201366424560547,
                            0.27783966064453125,
                            -0.12034082412719727
                        ],
                        [
                            -0.4139721393585205,
                            0.152510404586792,
                            0.17481446266174316,
                            0.017937064170837402
                        ],
                        [
                            -0.03551840782165527,
                            -0.32903993129730225,
                            0.026776432991027832,
                            -0.43321990966796875
                        ]
                    ]
                ],
                [
                    0.06676631420850754,
                    -0.05353308841586113,
                    -0.044394899159669876,
                    -0.033264607191085815
                ]
            ]
        },
        {
            "type": "batchnorm",
            "activation": "",
            "shape": [
                null,
                100,
                4
            ],
            "epsilon": 5.0,
            "weights": [
                [
                    0.009693937376141548,
                    -0.050066668540239334,
                    0.066548191010952,
                    0.03619669750332832
                ],
                [
                    -0.03489372879266739,
                    -0.03181689977645874,
                    0.04487129673361778,
                    0.024202313274145126
                ]
            ]
        },
        {
            "type": "prelu",
            "activation": "",
            "shape": [
                null,
                100,
                4
            ],
            "weights": [
                [
                    [
                        1.5879992246627808
                    ]
                ]
            ]
        },
        {
            "type": "dense",
            "activation": "sigmoid",
            "shape": [
                null,
                100,
                1
            ],
            "weights": [
                [
                    [
                        0.7377135753631592
                    ],
                    [
                        -0.33115455508232117
                    ],
                    [
                        -0.24240994453430176
                    ],
                    [
                        0.5360530018806458
                    ]
                ],
                [
                    -0.02684621326625347
                ]
            ]
        }
    ]
}