{
    "in_shape": [
        null,
        1
    ],
    "layers": [
        {
            "type": "dense",
            "activation": "",
            "shape": [
                null,
                8
            ],
            "weights": [
                [
                    [
                        0.02959759347140789,
                        0.013856622390449047,
                        0.032424140721559525,
                        -0.05226530507206917,
                        -0.0022389169316738844,
                        -0.0022201465908437967,
                        0.14792291820049286,
                        -0.0340598002076149
                    ]
                ],
                [
                    -0.033835519105196,
                    -0.004419860430061817,
                    -0.04077084735035896,
                    0.06576187163591385,
                    0.02637501060962677,
                    0.015842854976654053,
                    -0.06899886578321457,
                    0.014413068071007729
                ]
            ]
        },
        {
            "type": "activation",
            "activation": "tanh",
            "shape": [
                null,
                8
            ],
            "weights": []
        },
        {
            "type": "dense",
            "activation": "",
            "shape": [
                null,
                8
            ],
            "weights": [
                [
                    [
                        -0.11824238300323486,
                        0.18984776735305786,
                        -0.32243698835372925,
                        -0.053159601986408234,
                        -0.234708771109581,
                        -0.5278862714767456,
                        -0.3106524348258972,
                        -0.6425948143005371
                    ],
                    [
                        -0.053796082735061646,
                        -0.007236320525407791,
                        0.2985859513282776,
                        -0.4773643910884857,
                        -0.557999312877655,
                        -0.37290218472480774,
                        0.43713968992233276,
                        0.19624699652194977
                    ],
                    [
                        0.2779940664768219,
                        -0.49355548620224,
                        -0.5186429023742676,
                        0.27592599391937256,
                        -0.545677125453949,
                        0.15460051596164703,
                        0.08471795916557312,
                        0.07179676741361618
                    ],
                    [
                        -0.4904208779335022,
                        -0.12053998559713364,
                        -0.22945156693458557,
                        0.431242436170578,
                        0.23868657648563385,
                        -0.5095962285995483,
                        0.2889946699142456,
                        0.32582491636276245
                    ],
                    [
                        -0.6140166521072388,
                        0.061950989067554474,
                        -0.46456414461135864,
                        -0.46851322054862976,
                        -0.03316175937652588,
                        0.4230864644050598,
                        0.024708256125450134,
                        0.05575639009475708
                    ],
                    [
                        0.4344633221626282,
                        0.616168737411499,
                        -0.44833940267562866,
                        -0.04195869714021683,
                        0.14244748651981354,
                        -0.024230584502220154,
                        0.4486488699913025,
                        0.08151553571224213
                    ],
                    [
                        -0.10237322747707367,
                        -0.23776470124721527,
                        0.1324652135372162,
                        0.09194865077733994,
                        0.15291863679885864,
                        0.193818137049675,
                        0.6473000049591064,
                        -0.6534823179244995
                    ],
                    [
                        -0.29845649003982544,
                        0.5155042409896851,
                        0.22553829848766327,
                        0.5267564058303833,
                        -0.48377537727355957,
                        0.2855444550514221,
                        0.028553344309329987,
                        -0.021203696727752686
                    ]
                ],
                [
                    0.027708694338798523,
                    -0.11620844900608063,
                    0.010310920886695385,
                    -0.02356245182454586,
                    -0.04637200012803078,
                    0.014046723954379559,
                    -0.030229294672608376,
                    0.050620585680007935
                ]
            ]
        },
        {
            "type": "activation",
            "activation": "relu",
            "shape": [
                null,
                8
            ],
            "weights": []
        },
        {
            "type": "dense",
            "activation": "",
            "shape": [
                null,
                8
            ],
            "weights": [
                [
                    [
                        -0.20817959308624268,
                        -0.022461755201220512,
                        -0.028169117867946625,
                        0.3681483268737793,
                        -0.6971794366836548,
                        0.21201810240745544,
                        -0.11270102858543396,
                        -0.5254690647125244
                    ],
                    [
                        0.43870025873184204,
                        -0.047398097813129425,
                        -0.2160155028104782,
                        -0.5335911512374878,
                        -0.19222524762153625,
                        -0.2507162094116211,
                        0.39698728919029236,
                        -0.4653013348579407
                    ],
                    [
                        -0.26814693212509155,
                        -0.5439682006835938,
                        -0.27317094802856445,
                        -0.04124649614095688,
                        0.3320295512676239,
                        0.5519460439682007,
                        0.332748681306839,
                        -0.17396140098571777
                    ],
                    [
                        0.0069047934375703335,
                        0.4070618450641632,
                        -0.27469736337661743,
                        -0.3182283043861389,
                        -0.3814701735973358,
                        0.5282473564147949,
                        0.1502683162689209,
                        0.45867177844047546
                    ],
                    [
                        -0.6643510460853577,
                        -0.05349980294704437,
                        0.3391300439834595,
                        -0.22969183325767517,
                        -0.21785585582256317,
                        -0.32640543580055237,
                        0.4615830183029175,
                        0.14473211765289307
                    ],
                    [
                        -0.44933491945266724,
                        0.42264944314956665,
                        -0.1401549130678177,
                        -0.4198732376098633,
                        0.29233378171920776,
                        0.03885771334171295,
                        -0.4093458354473114,
                        -0.41109082102775574
                    ],
                    [
                        0.20841355621814728,
                        -0.10478948056697845,
                        0.7941262722015381,
                        -0.3240814805030823,
                        -0.022079207003116608,
                        0.42153286933898926,
                        -0.13157229125499725,
                        -0.12012029439210892
                    ],
                    [
                        -0.0745147168636322,
                        -0.5858094096183777,
                        -0.1928049921989441,
                        -0.37775135040283203,
                        -0.29634371399879456,
                        -0.15086306631565094,
                        -0.5463178157806396,
                        0.24972525238990784
                    ]
                ],
                [
                    0.08585952967405319,
                    -0.00612999452278018,
                    0.011831352487206459,
                    -0.01632610522210598,
                    -0.021000942215323448,
                    0.0771828219294548,
                    0.04144418239593506,
                    -0.08865813165903091
                ]
            ]
        },
        {
            "type": "activation",
            "activation": "elu",
            "shape": [
                null,
                8
            ],
            "weights": []
        },
        {
            "type": "dense",
            "activation": "",
            "shape": [
                null,
                8
            ],
            "weights": [
                [
                    [
                        0.05400395393371582,
                        -0.15698114037513733,
                        -0.12308583408594131,
                        0.4648529887199402,
                        -0.742836594581604,
                        -0.43209171295166016,
                        -0.05043284595012665,
                        -0.012207024730741978
                    ],
                    [
                        0.5854129791259766,
                        0.1987193524837494,
                        -0.3993404805660248,
                        0.02702420949935913,
                        -0.054016679525375366,
                        0.1597747653722763,
                        0.6549045443534851,
                        0.015919221565127373
                    ],
                    [
                        0.19693134725093842,
                        0.5775699019432068,
                        0.3521740436553955,
                        0.22699564695358276,
                        0.11732374131679535,
                        -0.24965617060661316,
                        -0.09006930142641068,
                        0.6065244674682617
                    ],
                    [
                        0.07257136702537537,
                        0.27656614780426025,
                        0.13267970085144043,
                        0.5824130177497864,
                        -0.04584095627069473,
                        0.6138626933097839,
                        -0.2368190884590149,
                        -0.3555615544319153
                    ],
                    [
                        0.32703906297683716,
                        -0.20853662490844727,
                        0.8106528520584106,
                        -0.16368092596530914,
                        -0.1715278923511505,
                        -0.019745364785194397,
                        0.2688019573688507,
                        -0.25207605957984924
                    ],
                    [
                        0.6684560775756836,
                        -0.09408790618181229,
                        -0.15061809122562408,
                        -0.2961271405220032,
                        -0.05506795644760132,
                        0.013608694076538086,
                        -0.6562104225158691,
                        -0.010354566387832165
                    ],
                    [
                        0.23102398216724396,
                        -0.5718412399291992,
                        0.002263445407152176,
                        0.5259236693382263,
                        0.5539560914039612,
                        -0.15677398443222046,
                        0.028096608817577362,
                        0.10387344658374786
                    ],
                    [
                        0.056272219866514206,
                        0.3826865255832672,
                        -0.06243092939257622,
                        0.037029776722192764,
                        0.30014652013778687,
                        -0.5687355995178223,
                        -0.026552969589829445,
                        -0.6564012765884399
                    ]
                ],
                [
                    -0.007640047464519739,
                    0.03396986424922943,
                    0.023156268522143364,
                    0.03924748674035072,
                    -0.08401282131671906,
                    0.007182068657130003,
                    -0.043575387448072433,
                    -0.05071526765823364
                ]
            ]
        },
        {
            "type": "activation",
            "activation": "softmax",
            "shape": [
                null,
                8
            ],
            "weights": []
        },
        {
            "type": "dense",
            "activation": "",
            "shape": [
                null,
                1
            ],
            "weights": [
                [
                    [
                        0.5878281593322754
                    ],
                    [
                        -0.12552057206630707
                    ],
                    [
                        -0.402028888463974
                    ],
                    [
                        0.15968173742294312
                    ],
                    [
                        -0.15990637242794037
                    ],
                    [
                        0.07232145965099335
                    ],
                    [
                        -0.5600761771202087
                    ],
                    [
                        -0.3272480368614197
                    ]
                ],
                [
                    -0.024063842371106148
                ]
            ]
        }
    ]
}