{
    "in_shape": [
        null,
        1
    ],
    "layers": [
        {
            "type": "dense",
            "activation": "tanh",
            "shape": [
                null,
                8
            ],
            "weights": [
                [
                    [
                        0.06359849125146866,
                        0.06866405159235,
                        0.08771087229251862,
                        -0.027638910338282585,
                        0.007315054070204496,
                        -0.03927389904856682,
                        -0.002313339849933982,
                        0.07144182175397873
                    ]
                ],
                [
                    0.06244078278541565,
                    -0.053287871181964874,
                    -0.03267466276884079,
                    -0.0012031387304887176,
                    0.04782925173640251,
                    0.01661761663854122,
                    0.07709114253520966,
                    -0.08785270899534225
                ]
            ]
        },
        {
            "type": "dense",
            "activation": "relu",
            "shape": [
                null,
                8
            ],
            "weights": [
                [
                    [
                        -0.030403632670640945,
                        -0.004953236319124699,
                        0.07517743110656738,
                        0.0033344917465001345,
                        -0.00066183420130983,
                        0.014868545345962048,
                        0.0575869083404541,
                        -0.013135978952050209
                    ],
                    [
                        0.031343039125204086,
                        -0.04610509052872658,
                        0.01267845369875431,
                        0.09037815034389496,
                        -0.028922511264681816,
                        -0.0010789954103529453,
                        -0.006756827235221863,
                        0.09265685826539993
                    ],
                    [
                        -0.06439237296581268,
                        0.019971033558249474,
                        -0.007693450897932053,
                        0.0700783059000969,
                        0.10364139080047607,
                        0.0502096489071846,
                        -0.05210558697581291,
                        0.06001461297273636
                    ],
                    [
                        0.06658750027418137,
                        0.0031132639851421118,
                        -0.06496776640415192,
                        -0.0033699744381010532,
                        0.0157011691480875,
                        0.03897198662161827,
                        0.05181504040956497,
                        -0.05519571527838707
                    ],
                    [
                        -0.0751153826713562,
                        0.034883465617895126,
                        0.01594509743154049,
                        -0.019947286695241928,
                        0.08836325258016586,
                        0.015898151323199272,
                        0.03589022904634476,
                        -0.007756153587251902
                    ],
                    [
                        0.02510296367108822,
                        0.03210044652223587,
                        0.05984277278184891,
                        0.023156022652983665,
                        -0.07249680161476135,
                        -0.005453616380691528,
                        0.019702354446053505,
                        -0.005229496397078037
                    ],
                    [
                        0.005339760333299637,
                        0.052628081291913986,
                        -0.025820458307862282,
                        -0.007657014764845371,
                        0.028275033459067345,
                        -0.03546047583222389,
                        -0.008814474567770958,
                        -0.0016280272975564003
                    ],
                    [
                        0.008129101246595383,
                        0.05038725957274437,
                        0.034977614879608154,
                        -0.02055399864912033,
                        -0.014602591283619404,
                        0.13264279067516327,
                        0.016222434118390083,
                        0.028256598860025406
                    ]
                ],
                [
                    -0.022921431809663773,
                    0.01459838729351759,
                    -0.015853675082325935,
                    -0.0006092572002671659,
                    0.008908878080546856,
                    0.022079961374402046,
                    -0.009394911117851734,
                    -0.09274524450302124
                ]
            ]
        },
        {
            "type": "dense",
            "activation": "",
            "shape": [
                null,
                1
            ],
            "weights": [
                [
                    [
                        0.017923329025506973
                    ],
                    [
                        0.08100686967372894
                    ],
                    [
                        0.018099313601851463
                    ],
                    [
                        0.0319991409778595
                    ],
                    [
                        0.0377800390124321
                    ],
                    [
                        0.005591270979493856
                    ],
                    [
                        -0.012418405152857304
                    ],
                    [
                        0.04274078831076622
                    ]
                ],
                [
                    -0.05175987631082535
                ]
            ]
        }
    ]
}