{
    "in_shape": [
        null,
        1
    ],
    "layers": [
        {
            "type": "dense",
            "activation": "tanh",
            "shape": [
                null,
                8
            ],
            "weights": [
                [
                    [
                        0.0963064432144165,
                        0.015062709338963032,
                        -0.033853065222501755,
                        -0.007409217301756144,
                        0.08118917793035507,
                        0.12824170291423798,
                        0.02807791903614998,
                        0.023563699796795845
                    ]
                ],
                [
                    -0.07516790181398392,
                    0.03814579173922539,
                    -0.08704177290201187,
                    -0.038303978741168976,
                    0.004408271051943302,
                    -0.009060604497790337,
                    0.03941630944609642,
                    0.006771183107048273
                ]
            ]
        },
        {
            "type": "dense",
            "activation": "relu",
            "shape": [
                null,
                8
            ],
            "weights": [
                [
                    [
                        -0.050253719091415405,
                        0.05247477442026138,
                        -0.04285917058587074,
                        0.018887488171458244,
                        -0.02596272900700569,
                        -0.04885062575340271,
                        -0.06772799044847488,
                        -0.04484499245882034
                    ],
                    [
                        0.12244637310504913,
                        0.012102612294256687,
                        -0.03964501619338989,
                        0.020070122554898262,
                        0.06749328225851059,
                        -0.08268147706985474,
                        0.023467188701033592,
                        0.013014762662351131
                    ],
                    [
                        -0.10940350592136383,
                        0.10046100616455078,
                        -0.007519037462770939,
                        0.034590207040309906,
                        -0.06197535619139671,
                        -0.012592613697052002,
                        -0.017334869131445885,
                        0.05007783696055412
                    ],
                    [
                        -0.04026053100824356,
                        0.032922133803367615,
                        -0.06598705053329468,
                        0.03224340081214905,
                        0.06246249005198479,
                        -0.03837674483656883,
                        -0.058930348604917526,
                        0.0517461858689785
                    ],
                    [
                        0.05600118264555931,
                        -0.0012162819039076567,
                        -0.022484848275780678,
                        0.050698377192020416,
                        -0.06070558354258537,
                        -0.02744016982614994,
                        -0.03551698848605156,
                        -0.059348613023757935
                    ],
                    [
                        0.04243898391723633,
                        -0.08972100913524628,
                        0.03612828627228737,
                        0.043536968529224396,
                        0.05339038372039795,
                        0.025232000276446342,
                        -0.07154340296983719,
                        -0.008254879154264927
                    ],
                    [
                        0.044203728437423706,
                        -0.01680861972272396,
                        0.05678558349609375,
                        0.030664343386888504,
                        -0.024775709956884384,
                        0.027300680056214333,
                        -0.018876997753977776,
                        0.002506913850083947
                    ],
                    [
                        0.06442230194807053,
                        -0.022617338225245476,
                        -0.0347026027739048,
                        0.07822175323963165,
                        -0.043606579303741455,
                        -0.06400080770254135,
                        -0.042045626789331436,
                        0.004273801110684872
                    ]
                ],
                [
                    -0.0342620387673378,
                    0.06041586399078369,
                    0.009205035865306854,
                    -0.016515297815203667,
                    -0.0031766940373927355,
                    -0.10083867609500885,
                    0.0728880912065506,
                    -0.041408587247133255
                ]
            ]
        },
        {
            "type": "dense",
            "activation": "",
            "shape": [
                null,
                8
            ],
            "weights": [
                [
                    [
                        0.03662360832095146,
                        -0.061096351593732834,
                        -0.025631669908761978,
                        0.029615724459290504,
                        0.12523908913135529,
                        -0.004281842615455389,
                        0.005045234225690365,
                        0.0423693023622036
                    ],
                    [
                        0.06878789514303207,
                        -0.07953842729330063,
                        -0.03303106501698494,
                        0.05569077283143997,
                        -0.01638198457658291,
                        0.10089534521102905,
                        -0.07894571870565414,
                        -0.030863074585795403
                    ],
                    [
                        0.11689529567956924,
                        -0.12197863310575485,
                        -0.04844425991177559,
                        0.012679996900260448,
                        -0.06620050221681595,
                        0.043944742530584335,
                        -0.03419015556573868,
                        -0.10322034358978271
                    ],
                    [
                        0.02995511330664158,
                        0.017067035660147667,
                        -0.038265079259872437,
                        -0.016817256808280945,
                        0.0586622953414917,
                        -0.01930730603635311,
                        0.02370995096862316,
                        -0.011940306052565575
                    ],
                    [
                        0.006937155965715647,
                        0.02907484769821167,
                        0.060265470296144485,
                        -0.029247170314192772,
                        -0.009454662911593914,
                        -0.040847811847925186,
                        0.010259988717734814,
                        -0.032771866768598557
                    ],
                    [
                        0.09111430495977402,
                        -0.004753466695547104,
                        -0.0578986294567585,
                        0.10322004556655884,
                        0.07067940384149551,
                        0.12377610057592392,
                        -0.029640808701515198,
                        -0.020215556025505066
                    ],
                    [
                        0.11474090069532394,
                        0.025729278102517128,
                        0.019141510128974915,
                        0.14999988675117493,
                        0.03420029208064079,
                        0.055371977388858795,
                        -0.11326593160629272,
                        -0.024630220606923103
                    ],
                    [
                        0.029706237837672234,
                        -0.034765150398015976,
                        -0.01108801644295454,
                        -0.022204237058758736,
                        -0.06630250811576843,
                        -0.05346406251192093,
                        0.037059396505355835,
                        0.00799263920634985
                    ]
                ],
                [
                    -0.05680740997195244,
                    0.043218519538640976,
                    -0.051434826105833054,
                    0.06331593543291092,
                    0.01758928783237934,
                    -0.06423830986022949,
                    0.05715113878250122,
                    0.024328621104359627
                ]
            ]
        },
        {
            "type": "dense",
            "activation": "",
            "shape": [
                null,
                1
            ],
            "weights": [
                [
                    [
                        -0.03551039472222328
                    ],
                    [
                        0.08289524167776108
                    ],
                    [
                        0.00866152998059988
                    ],
                    [
                        -0.051064442843198776
                    ],
                    [
                        -0.035291630774736404
                    ],
                    [
                        -0.03374560922384262
                    ],
                    [
                        -0.03431432694196701
                    ],
                    [
                        0.0460088737308979
                    ]
                ],
                [
                    0.008584118448197842
                ]
            ]
        }
    ]
}