{
    "in_shape": [
        null,
        1
    ],
    "layers": [
        {
            "type": "dense",
            "activation": "",
            "shape": [
                null,
                8
            ],
            "weights": [
                [
                    [
                        -0.03534340858459473,
                        -0.052705056965351105,
                        0.052596330642700195,
                        -0.006017900072038174,
                        0.0628681406378746,
                        0.011521938256919384,
                        0.021455300971865654,
                        -0.08634442090988159
                    ]
                ],
                [
                    0.04202878102660179,
                    -0.0012000653659924865,
                    0.011545690707862377,
                    -0.05244330316781998,
                    0.03159698098897934,
                    0.010745985433459282,
                    -0.03388917073607445,
                    0.029600143432617188
                ]
            ]
        },
        {
            "type": "activation",
            "activation": "tanh",
            "shape": [
                null,
                8
            ],
            "weights": []
        },
        {
            "type": "dense",
            "activation": "",
            "shape": [
                null,
                8
            ],
            "weights": [
                [
                    [
                        -0.003918290138244629,
                        -0.34485363960266113,
                        -0.34457308053970337,
                        -0.10131333768367767,
                        0.7012238502502441,
                        -0.04543594643473625,
                        0.3385898768901825,
                        -0.3790031671524048
                    ],
                    [
                        0.07936839759349823,
                        0.14327313005924225,
                        -0.5227841138839722,
                        0.35828861594200134,
                        0.07653595507144928,
                        -0.2009020447731018,
                        -0.6946932077407837,
                        -0.2065955549478531
                    ],
                    [
                        0.689213216304779,
                        -0.5692605972290039,
                        0.21413308382034302,
                        0.12099577486515045,
                        -0.25283142924308777,
                        0.0012526456266641617,
                        -0.0875929594039917,
                        -0.262367844581604
                    ],
                    [
                        0.41735997796058655,
                        0.6434321403503418,
                        0.09785640239715576,
                        0.3696126937866211,
                        0.06955072283744812,
                        -0.13385352492332458,
                        0.42027747631073,
                        -0.2573500871658325
                    ],
                    [
                        0.12645135819911957,
                        0.3164733946323395,
                        0.32790112495422363,
                        -0.6105164289474487,
                        0.19617542624473572,
                        0.1823834478855133,
                        -0.38583192229270935,
                        -0.4277736246585846
                    ],
                    [
                        -0.27132299542427063,
                        -0.11044679582118988,
                        0.45485758781433105,
                        0.059217073023319244,
                        0.08727099001407623,
                        -0.8194010257720947,
                        -0.07838885486125946,
                        -0.13639730215072632
                    ],
                    [
                        -0.3447718024253845,
                        -0.012321121990680695,
                        -0.2535732388496399,
                        -0.10530606657266617,
                        -0.5970247387886047,
                        -0.01188876386731863,
                        0.2204296737909317,
                        -0.6327897310256958
                    ],
                    [
                        0.3687921166419983,
                        0.0999026671051979,
                        -0.4169214367866516,
                        -0.5681415796279907,
                        -0.17642810940742493,
                        -0.4845951795578003,
                        0.12187013775110245,
                        0.2767520546913147
                    ]
                ],
                [
                    -0.14227238297462463,
                    -0.046730611473321915,
                    -0.016264744102954865,
                    0.12445727735757828,
                    0.008557003922760487,
                    0.014110793359577656,
                    0.05469542741775513,
                    -0.01889052987098694
                ]
            ]
        },
        {
            "type": "activation",
            "activation": "relu",
            "shape": [
                null,
                8
            ],
            "weights": []
        },
        {
            "type": "dense",
            "activation": "",
            "shape": [
                null,
                8
            ],
            "weights": [
                [
                    [
                        0.03138935565948486,
                        -0.25379428267478943,
                        0.021432332694530487,
                        -0.10971544682979584,
                        -0.38787373900413513,
                        -0.16265034675598145,
                        0.5014432668685913,
                        0.7026806473731995
                    ],
                    [
                        0.6687290072441101,
                        -0.1225038468837738,
                        -0.4222104847431183,
                        0.012664854526519775,
                        -0.35956957936286926,
                        0.41438084840774536,
                        0.0883433073759079,
                        -0.22486859560012817
                    ],
                    [
                        0.3078693449497223,
                        0.27866658568382263,
                        0.03669373691082001,
                        -0.8103352785110474,
                        0.38431358337402344,
                        0.02902795746922493,
                        0.08127378672361374,
                        0.1201113760471344
                    ],
                    [
                        0.3174535632133484,
                        -0.7608171105384827,
                        0.4355405867099762,
                        -0.09939200431108475,
                        0.14800995588302612,
                        -0.2040300816297531,
                        -0.18602214753627777,
                        -0.15055477619171143
                    ],
                    [
                        0.48993900418281555,
                        0.5000723600387573,
                        0.41257500648498535,
                        0.23876293003559113,
                        -0.23757822811603546,
                        -0.4714456796646118,
                        0.007814973592758179,
                        -0.06241774559020996
                    ],
                    [
                        0.020556680858135223,
                        0.04478450492024422,
                        0.466820627450943,
                        0.23737166821956635,
                        0.2820282280445099,
                        0.4843200743198395,
                        0.6242638826370239,
                        -0.13961918652057648
                    ],
                    [
                        0.3072773814201355,
                        -0.04788568243384361,
                        -0.3972523510456085,
                        0.4314861595630646,
                        0.6439536213874817,
                        -0.22335284948349,
                        0.07541020214557648,
                        0.29840973019599915
                    ],
                    [
                        0.1461978405714035,
                        0.09855207055807114,
                        0.2903235852718353,
                        0.14746803045272827,
                        0.00036875903606414795,
                        0.5026419162750244,
                        -0.551440954208374,
                        0.5533016920089722
                    ]
                ],
                [
                    -0.07373789697885513,
                    0.06499330699443817,
                    0.003997496794909239,
                    0.06643050909042358,
                    0.030990097671747208,
                    0.019048111513257027,
                    -0.024648671969771385,
                    0.05282875895500183
                ]
            ]
        },
        {
            "type": "activation",
            "activation": "elu",
            "shape": [
                null,
                8
            ],
            "weights": []
        },
        {
            "type": "dense",
            "activation": "",
            "shape": [
                null,
                8
            ],
            "weights": [
                [
                    [
                        -0.16288280487060547,
                        0.30220749974250793,
                        -0.0768054723739624,
                        -0.002265450544655323,
                        0.6957710385322571,
                        0.22263841331005096,
                        0.5587034821510315,
                        0.1744154840707779
                    ],
                    [
                        -0.09981019794940948,
                        -0.020481636747717857,
                        -0.17108102142810822,
                        0.17606449127197266,
                        -0.24456611275672913,
                        0.16554871201515198,
                        0.4478242099285126,
                        -0.8009903430938721
                    ],
                    [
                        -0.1700940579175949,
                        0.7128530144691467,
                        -0.2377501130104065,
                        -0.5241463780403137,
                        -0.35995081067085266,
                        0.005054648965597153,
                        -0.03336644172668457,
                        0.030829260125756264
                    ],
                    [
                        0.29436230659484863,
                        0.06995957344770432,
                        -0.6804766654968262,
                        0.03464367985725403,
                        0.4033496379852295,
                        -0.3069074749946594,
                        -0.3430510461330414,
                        -0.26389506459236145
                    ],
                    [
                        0.4082008898258209,
                        0.5367173552513123,
                        0.37801751494407654,
                        0.4418834149837494,
                        -0.045446962118148804,
                        -0.4314388632774353,
                        0.12730294466018677,
                        -0.05231919512152672
                    ],
                    [
                        0.2724139392375946,
                        0.22808748483657837,
                        -0.1881563663482666,
                        0.4315183758735657,
                        -0.13492807745933533,
                        0.7422537207603455,
                        -0.2437678873538971,
                        0.15358063578605652
                    ],
                    [
                        0.2557021975517273,
                        0.09555301070213318,
                        0.4984159469604492,
                        -0.41643184423446655,
                        0.3402327597141266,
                        0.2974848449230194,
                        -0.31229642033576965,
                        -0.44929659366607666
                    ],
                    [
                        -0.7360060811042786,
                        0.21442362666130066,
                        0.1361616849899292,
                        0.37172824144363403,
                        0.1667485535144806,
                        -0.05684076249599457,
                        -0.44198277592658997,
                        -0.1709120273590088
                    ]
                ],
                [
                    0.04880663380026817,
                    -0.020496316254138947,
                    0.01028179470449686,
                    0.038034942001104355,
                    -0.005797349847853184,
                    0.007567500229924917,
                    0.02594216726720333,
                    -0.014992105774581432
                ]
            ]
        },
        {
            "type": "activation",
            "activation": "softmax",
            "shape": [
                null,
                8
            ],
            "weights": []
        },
        {
            "type": "dense",
            "activation": "",
            "shape": [
                null,
                1
            ],
            "weights": [
                [
                    [
                        -0.14135122299194336
                    ],
                    [
                        -0.09697845578193665
                    ],
                    [
                        0.058321475982666016
                    ],
                    [
                        -0.7096578478813171
                    ],
                    [
                        0.5546531677246094
                    ],
                    [
                        0.09789115935564041
                    ],
                    [
                        -0.3475968539714813
                    ],
                    [
                        -0.15985368192195892
                    ]
                ],
                [
                    0.0
                ]
            ]
        },
        {
            "type": "dense",
            "activation": "",
            "shape": [
                null,
                8
            ],
            "weights": [
                [
                    [
                        -0.5305205583572388,
                        -0.3290325701236725,
                        -0.543561577796936,
                        0.42929863929748535,
                        -0.17142745852470398,
                        0.2421179711818695,
                        -0.03362809866666794,
                        0.20344458520412445
                    ]
                ]
            ]
        },
        {
            "type": "dense",
            "activation": "",
            "shape": [
                null,
                8
            ],
            "weights": [
                [
                    [
                        -0.06177079677581787,
                        -0.23814216256141663,
                        -0.7005293965339661,
                        -0.49466732144355774,
                        0.30031296610832214,
                        0.17563900351524353,
                        -0.24616742134094238,
                        0.14966678619384766
                    ],
                    [
                        -0.05930411443114281,
                        -0.33255618810653687,
                        -0.25533393025398254,
                        0.2986767888069153,
                        -0.10642198473215103,
                        0.2810288667678833,
                        0.04773542284965515,
                        -0.7993151545524597
                    ],
                    [
                        -0.1486942321062088,
                        -0.5120373368263245,
                        -0.04606333374977112,
                        0.55389803647995,
                        0.006042502820491791,
                        -0.3016049265861511,
                        -0.4680682420730591,
                        0.3109550178050995
                    ],
                    [
                        -0.20093034207820892,
                        -0.12035319209098816,
                        0.3936957120895386,
                        -0.5204573273658752,
                        -0.11970169842243195,
                        -0.3155381977558136,
                        -0.5103104114532471,
                        -0.38073667883872986
                    ],
                    [
                        0.40579211711883545,
                        -0.08158302307128906,
                        -0.26265230774879456,
                        -0.04430527985095978,
                        0.1374949961900711,
                        -0.7785845994949341,
                        0.30249178409576416,
                        -0.2027994841337204
                    ],
                    [
                        0.7071669101715088,
                        0.18410181999206543,
                        -0.15025553107261658,
                        0.033111751079559326,
                        -0.46437638998031616,
                        0.1352890431880951,
                        -0.45631009340286255,
                        0.01344994455575943
                    ],
                    [
                        0.5039335489273071,
                        -0.32378825545310974,
                        0.42154166102409363,
                        -0.018352121114730835,
                        0.6269726753234863,
                        0.2561192512512207,
                        -0.05312468856573105,
                        -0.040791891515254974
                    ],
                    [
                        -0.1071593314409256,
                        0.6408118605613708,
                        -0.13298353552818298,
                        0.29158440232276917,
                        0.5064350962638855,
                        -0.09772287309169769,
                        -0.39379656314849854,
                        -0.23252765834331512
                    ]
                ]
            ]
        },
        {
            "type": "dense",
            "activation": "",
            "shape": [
                null,
                1
            ],
            "weights": [
                [
                    [
                        -0.15197956562042236
                    ],
                    [
                        -0.5088167786598206
                    ],
                    [
                        0.671139657497406
                    ],
                    [
                        -0.18995320796966553
                    ],
                    [
                        -0.12430261075496674
                    ],
                    [
                        0.22196348011493683
                    ],
                    [
                        -0.042059820145368576
                    ],
                    [
                        -0.4062132239341736
                    ]
                ]
            ]
        }
    ]
}