{
    "in_shape": [
        null,
        1
    ],
    "layers": [
        {
            "type": "dense",
            "activation": "",
            "shape": [
                null,
                8
            ],
            "weights": [
                [
                    [
                        -0.05373595282435417,
                        0.0031860116869211197,
                        0.06591559946537018,
                        -0.05028676614165306,
                        -0.0788656696677208,
                        -0.05484018474817276,
                        -0.029224110767245293,
                        -0.04065656289458275
                    ]
                ],
                [
                    0.03922043368220329,
                    -0.025920307263731956,
                    -0.053219329565763474,
                    -0.0006764839054085314,
                    0.08247379213571548,
                    0.021727608516812325,
                    -0.03592854365706444,
                    0.01699131540954113
                ]
            ]
        },
        {
            "type": "activation",
            "activation": "tanh",
            "shape": [
                null,
                8
            ],
            "weights": []
        },
        {
            "type": "dense",
            "activation": "",
            "shape": [
                null,
                8
            ],
            "weights": [
                [
                    [
                        -0.1842249631881714,
                        -0.23199358582496643,
                        0.10731160640716553,
                        -0.1248837262392044,
                        0.23583918809890747,
                        -0.7297313809394836,
                        0.022819576784968376,
                        -0.5444992780685425
                    ],
                    [
                        -0.22124093770980835,
                        0.4800814986228943,
                        0.2453354299068451,
                        -0.7355278134346008,
                        -0.25739580392837524,
                        0.07353658974170685,
                        0.18580137193202972,
                        -0.11489637941122055
                    ],
                    [
                        -0.19382527470588684,
                        0.6366037726402283,
                        -0.4203192889690399,
                        0.40424448251724243,
                        0.12542523443698883,
                        -0.1172655001282692,
                        0.4053057134151459,
                        -0.1527416855096817
                    ],
                    [
                        0.2931934893131256,
                        0.16517892479896545,
                        0.18116581439971924,
                        0.06603869795799255,
                        -0.3053852915763855,
                        -0.6368216872215271,
                        0.13072486221790314,
                        0.5776505470275879
                    ],
                    [
                        0.2576892375946045,
                        -0.048474084585905075,
                        -0.7233990430831909,
                        -0.5149344801902771,
                        0.28271692991256714,
                        -0.1269616186618805,
                        -0.08685790747404099,
                        0.19796577095985413
                    ],
                    [
                        0.12687252461910248,
                        -0.30045491456985474,
                        -0.3705570101737976,
                        0.02368004247546196,
                        -0.7700138092041016,
                        0.004201486706733704,
                        0.24271275103092194,
                        -0.32234853506088257
                    ],
                    [
                        0.786545991897583,
                        0.3441365957260132,
                        0.145416259765625,
                        0.03912416845560074,
                        0.040237367153167725,
                        0.03777742385864258,
                        -0.2182101309299469,
                        -0.4354044198989868
                    ],
                    [
                        0.304019570350647,
                        -0.26851344108581543,
                        0.19246019423007965,
                        -0.09153719246387482,
                        0.307679146528244,
                        0.15882989764213562,
                        0.8182456493377686,
                        0.025164030492305756
                    ]
                ],
                [
                    -0.03607766702771187,
                    0.05449585244059563,
                    -0.05831870064139366,
                    -0.10014410316944122,
                    -0.062451478093862534,
                    0.02693987265229225,
                    -0.06740105897188187,
                    0.021658221259713173
                ]
            ]
        },
        {
            "type": "activation",
            "activation": "relu",
            "shape": [
                null,
                8
            ],
            "weights": []
        },
        {
            "type": "dense",
            "activation": "",
            "shape": [
                null,
                8
            ],
            "weights": [
                [
                    [
                        -0.21871399879455566,
                        -0.12025029957294464,
                        -0.15615853667259216,
                        0.7020757794380188,
                        0.13360869884490967,
                        0.12698450684547424,
                        0.08339481800794601,
                        -0.6160169243812561
                    ],
                    [
                        -0.36184683442115784,
                        -0.657552182674408,
                        0.1752064824104309,
                        -0.3252633512020111,
                        -0.297462522983551,
                        -0.07929009199142456,
                        0.4146481454372406,
                        -0.18301507830619812
                    ],
                    [
                        -0.44204574823379517,
                        -0.163512721657753,
                        -0.22742637991905212,
                        0.3310565948486328,
                        -0.413106769323349,
                        0.2457922101020813,
                        -0.29829010367393494,
                        0.5445089340209961
                    ],
                    [
                        -0.17408272624015808,
                        0.5006813406944275,
                        0.5541691780090332,
                        0.24520477652549744,
                        -0.23847901821136475,
                        0.10743474960327148,
                        0.5127880573272705,
                        0.14289361238479614
                    ],
                    [
                        -0.25397545099258423,
                        0.012178519740700722,
                        0.6022653579711914,
                        0.004050776362419128,
                        -0.06246243044734001,
                        -0.29966866970062256,
                        -0.6547014713287354,
                        -0.22421275079250336
                    ],
                    [
                        -0.043494634330272675,
                        -0.2589675486087799,
                        0.09475419670343399,
                        0.3474918603897095,
                        0.4546191394329071,
                        -0.607605516910553,
                        0.1865808218717575,
                        0.4366230368614197
                    ],
                    [
                        0.23063738644123077,
                        0.16130730509757996,
                        -0.28983020782470703,
                        0.13517171144485474,
                        -0.6382613778114319,
                        -0.6226489543914795,
                        0.043878525495529175,
                        -0.1466931402683258
                    ],
                    [
                        -0.6898788213729858,
                        0.42721685767173767,
                        -0.361092209815979,
                        -0.3041890561580658,
                        0.21949420869350433,
                        -0.2428055852651596,
                        0.061741963028907776,
                        -0.08769258856773376
                    ]
                ],
                [
                    -0.010757498443126678,
                    0.02986888960003853,
                    0.0560227632522583,
                    0.014326280914247036,
                    -0.0087828254327178,
                    -0.07232420891523361,
                    0.039746228605508804,
                    -0.006940274033695459
                ]
            ]
        },
        {
            "type": "activation",
            "activation": "elu",
            "shape": [
                null,
                8
            ],
            "weights": []
        },
        {
            "type": "dense",
            "activation": "",
            "shape": [
                null,
                8
            ],
            "weights": [
                [
                    [
                        -0.22939443588256836,
                        0.26182183623313904,
                        -0.02568492665886879,
                        -0.44497784972190857,
                        -0.5423287153244019,
                        0.4832298159599304,
                        0.1901916265487671,
                        -0.3411131501197815
                    ],
                    [
                        0.0019154951442033052,
                        0.5112199783325195,
                        0.26494136452674866,
                        -0.31728610396385193,
                        0.5067684054374695,
                        0.06956227123737335,
                        -0.5127149224281311,
                        -0.20798146724700928
                    ],
                    [
                        -0.4725842773914337,
                        0.6072475910186768,
                        -0.18943732976913452,
                        0.35334521532058716,
                        -0.2476198673248291,
                        -0.2197847068309784,
                        -0.1285324990749359,
                        0.3478987514972687
                    ],
                    [
                        -0.2881777584552765,
                        -0.040183115750551224,
                        0.4828967750072479,
                        0.6144549250602722,
                        0.1697797328233719,
                        0.45307743549346924,
                        0.14708742499351501,
                        -0.22103354334831238
                    ],
                    [
                        0.6091469526290894,
                        0.41071608662605286,
                        0.3023149073123932,
                        0.23364627361297607,
                        -0.2905896008014679,
                        -0.3169235587120056,
                        0.2112915962934494,
                        -0.29110202193260193
                    ],
                    [
                        0.5023923516273499,
                        0.07591593265533447,
                        -0.23707576096057892,
                        0.23116180300712585,
                        -0.15197205543518066,
                        0.6012634634971619,
                        -0.38465580344200134,
                        0.3156335651874542
                    ],
                    [
                        -0.08561597019433975,
                        -0.2724679410457611,
                        0.6379638314247131,
                        -0.13355043530464172,
                        -0.45751479268074036,
                        -0.1307394951581955,
                        -0.43980056047439575,
                        0.27158868312835693
                    ],
                    [
                        0.10101483017206192,
                        0.225941002368927,
                        0.3247668445110321,
                        -0.27028635144233704,
                        0.20510230958461761,
                        0.17033600807189941,
                        0.5260859131813049,
                        0.6421611309051514
                    ]
                ],
                [
                    0.062010277062654495,
                    0.09584252536296844,
                    0.09384388476610184,
                    0.021569563075900078,
                    0.004517736379057169,
                    -0.010429102927446365,
                    0.012121074832975864,
                    -0.03672878071665764
                ]
            ]
        },
        {
            "type": "activation",
            "activation": "softmax",
            "shape": [
                null,
                8
            ],
            "weights": []
        },
        {
            "type": "dense",
            "activation": "",
            "shape": [
                null,
                1
            ],
            "weights": [
                [
                    [
                        0.32605302333831787
                    ],
                    [
                        -0.2512890696525574
                    ],
                    [
                        -0.5557641983032227
                    ],
                    [
                        0.0710105150938034
                    ],
                    [
                        0.07906752824783325
                    ],
                    [
                        0.684708833694458
                    ],
                    [
                        -0.17853347957134247
                    ],
                    [
                        0.09836094826459885
                    ]
                ]
            ]
        }
    ]
}