{
    "in_shape": [
        null,
        1
    ],
    "layers": [
        {
            "type": "dense",
            "activation": "tanh",
            "shape": [
                null,
                8
            ],
            "weights": [
                [
                    [
                        -0.02795032039284706,
                        -0.017689138650894165,
                        -0.04604412615299225,
                        -0.016458310186862946,
                        -0.0125854117795825,
                        -0.022696269676089287,
                        0.01418315526098013,
                        0.03284061327576637
                    ]
                ],
                [
                    -0.07302601635456085,
                    0.018092451617121696,
                    0.10060788691043854,
                    -0.025250857695937157,
                    0.02533242478966713,
                    0.06936153769493103,
                    0.010007590986788273,
                    0.0608380101621151
                ]
            ]
        },
        {
            "type": "dense",
            "activation": "relu",
            "shape": [
                null,
                8
            ],
            "weights": [
                [
                    [
                        -0.4777522087097168,
                        -0.4518096446990967,
                        0.5032387375831604,
                        0.20834031701087952,
                        0.0334809236228466,
                        0.1791415512561798,
                        0.2539824843406677,
                        0.4162285625934601
                    ],
                    [
                        0.3026936650276184,
                        -0.24075385928153992,
                        0.2800672650337219,
                        -0.1147274374961853,
                        0.6624220013618469,
                        0.36628949642181396,
                        0.03830048069357872,
                        -0.4293903708457947
                    ],
                    [
                        0.32424306869506836,
                        0.3931608200073242,
                        0.47686275839805603,
                        0.22228440642356873,
                        0.09586525708436966,
                        0.054457925260066986,
                        -0.5349433422088623,
                        0.40640154480934143
                    ],
                    [
                        -0.6578643321990967,
                        0.3415849208831787,
                        0.1853993535041809,
                        -0.5156870484352112,
                        0.1387975513935089,
                        0.029159702360630035,
                        -0.3095512092113495,
                        -0.1851786971092224
                    ],
                    [
                        -0.21460366249084473,
                        0.06850212812423706,
                        -0.5245227217674255,
                        0.20764073729515076,
                        0.6869370937347412,
                        -0.10032422095537186,
                        -0.058163467794656754,
                        0.38168492913246155
                    ],
                    [
                        0.20496556162834167,
                        -0.023441433906555176,
                        -0.22337979078292847,
                        -0.5750998258590698,
                        -0.11091414839029312,
                        0.5680580139160156,
                        0.07595837116241455,
                        0.485839307308197
                    ],
                    [
                        0.19649425148963928,
                        0.2635855972766876,
                        0.2855145335197449,
                        -0.3584018349647522,
                        0.21607857942581177,
                        -0.5232760906219482,
                        0.5633508563041687,
                        0.20992885529994965
                    ],
                    [
                        -0.12463842332363129,
                        0.6260435581207275,
                        -0.0009279735386371613,
                        0.35465753078460693,
                        -0.02732357382774353,
                        0.4726009666919708,
                        0.47489216923713684,
                        -0.13088533282279968
                    ]
                ],
                [
                    0.015381385572254658,
                    -0.05559542402625084,
                    -0.06000825762748718,
                    -0.050414808094501495,
                    0.0028085054364055395,
                    0.04203573241829872,
                    0.09666521102190018,
                    0.01441863365471363
                ]
            ]
        },
        {
            "type": "dense",
            "activation": "elu",
            "shape": [
                null,
                8
            ],
            "weights": [
                [
                    [
                        0.4690420627593994,
                        0.24115967750549316,
                        -0.5128207206726074,
                        0.3225766122341156,
                        0.20078349113464355,
                        -0.5308889746665955,
                        -0.09380528330802917,
                        -0.15441513061523438
                    ],
                    [
                        -0.4199007451534271,
                        0.07399624586105347,
                        0.2900863587856293,
                        0.1382320076227188,
                        -0.06819035112857819,
                        -0.4311004877090454,
                        -0.7241896986961365,
                        -0.0011018812656402588
                    ],
                    [
                        0.41144636273384094,
                        -0.505821943283081,
                        0.027436405420303345,
                        0.30669519305229187,
                        -0.564703643321991,
                        0.0045405179262161255,
                        -0.1708003282546997,
                        0.3632599115371704
                    ],
                    [
                        0.4805830419063568,
                        0.4793916344642639,
                        0.22479495406150818,
                        -0.550970196723938,
                        -0.069954514503479,
                        0.005248531699180603,
                        -0.2418600469827652,
                        0.3488627076148987
                    ],
                    [
                        0.12049572169780731,
                        -0.6534485816955566,
                        -0.05315438285470009,
                        -0.42090684175491333,
                        0.552319347858429,
                        -0.1787865161895752,
                        -0.18397843837738037,
                        0.08734060823917389
                    ],
                    [
                        -0.33493998646736145,
                        0.10902063548564911,
                        -0.18478605151176453,
                        0.1057993620634079,
                        0.1507074236869812,
                        -0.23462405800819397,
                        0.27574658393859863,
                        0.8226742744445801
                    ],
                    [
                        0.265072226524353,
                        0.06719561666250229,
                        0.5532079935073853,
                        0.5285627841949463,
                        0.5275532603263855,
                        0.21625381708145142,
                        -0.0029333187267184258,
                        0.12131425738334656
                    ],
                    [
                        -0.08041997253894806,
                        0.08543184399604797,
                        -0.5084968209266663,
                        0.10710488259792328,
                        0.15865173935890198,
                        0.6312543153762817,
                        -0.5188330411911011,
                        0.15281815826892853
                    ]
                ],
                [
                    0.06352853029966354,
                    0.040159307420253754,
                    0.04231569543480873,
                    -0.06824637204408646,
                    -0.06664212793111801,
                    -0.008028789423406124,
                    0.09364527463912964,
                    -0.03695525974035263
                ]
            ]
        },
        {
            "type": "dense",
            "activation": "softmax",
            "shape": [
                null,
                8
            ],
            "weights": [
                [
                    [
                        0.08856368064880371,
                        0.30832457542419434,
                        0.34297969937324524,
                        -0.2752625644207001,
                        0.2105158567428589,
                        -0.28227296471595764,
                        0.06185048446059227,
                        0.7588595151901245
                    ],
                    [
                        -0.22488214075565338,
                        0.06416258960962296,
                        0.09245780110359192,
                        -0.09617914259433746,
                        -0.8886392116546631,
                        0.2591877281665802,
                        0.033288344740867615,
                        0.26371583342552185
                    ],
                    [
                        0.47451308369636536,
                        0.39776211977005005,
                        -0.05425192415714264,
                        0.027375780045986176,
                        -0.34636786580085754,
                        -0.5367018580436707,
                        -0.37357398867607117,
                        -0.2556418478488922
                    ],
                    [
                        -0.1856270730495453,
                        0.471597820520401,
                        0.5697685480117798,
                        0.3068872094154358,
                        0.1491634100675583,
                        0.3800837993621826,
                        -0.3498625159263611,
                        -0.1876298487186432
                    ],
                    [
                        -0.7886977791786194,
                        -0.04509790241718292,
                        -0.031867966055870056,
                        0.1082383468747139,
                        -0.0008435249328613281,
                        -0.5676880478858948,
                        -0.19996072351932526,
                        -0.0305975079536438
                    ],
                    [
                        0.03571082279086113,
                        -0.010374925099313259,
                        0.5153942704200745,
                        0.1217823252081871,
                        -0.12234319001436234,
                        -0.2900099754333496,
                        0.7182711362838745,
                        -0.3211974501609802
                    ],
                    [
                        -0.18234588205814362,
                        0.21962036192417145,
                        0.03141867741942406,
                        -0.8695482611656189,
                        0.07005016505718231,
                        0.08524275571107864,
                        0.010787059552967548,
                        -0.38616812229156494
                    ],
                    [
                        0.15935871005058289,
                        -0.6854379773139954,
                        0.5278286337852478,
                        -0.19336575269699097,
                        -0.06250804662704468,
                        -0.08360062539577484,
                        -0.42082178592681885,
                        -0.02826351672410965
                    ]
                ],
                [
                    0.04385601729154587,
                    -0.09440674632787704,
                    -0.058378905057907104,
                    -0.01835736446082592,
                    -0.016429733484983444,
                    -0.02974102832376957,
                    0.060019511729478836,
                    -0.05405721068382263
                ]
            ]
        },
        {
            "type": "dense",
            "activation": "",
            "shape": [
                null,
                1
            ],
            "weights": [
                [
                    [
                        0.36341238021850586
                    ],
                    [
                        -0.3732028901576996
                    ],
                    [
                        -0.33270150423049927
                    ],
                    [
                        0.20385627448558807
                    ],
                    [
                        0.568448007106781
                    ],
                    [
                        -0.1065567135810852
                    ],
                    [
                        0.48391565680503845
                    ],
                    [
                        -0.08798530697822571
                    ]
                ],
                [
                    -0.03936911001801491
                ]
            ]
        }
    ]
}