{
    "in_shape": [
        null,
        null,
        1
    ],
    "layers": [
        {
            "type": "time-distributed-dense",
            "activation": "tanh",
            "shape": [
                null,
                null,
                8
            ],
            "weights": [
                [
                    [
                        0.011032545939087868,
                        0.09943009167909622,
                        -0.015638425946235657,
                        0.0059796469286084175,
                        0.03955777361989021,
                        -0.0416153222322464,
                        -0.020317895337939262,
                        -0.016446994617581367
                    ]
                ],
                [
                    -0.056149955838918686,
                    -0.026954928413033485,
                    -0.0011420705122873187,
                    -0.0019851080141961575,
                    0.026908719912171364,
                    0.0034013239201158285,
                    -0.00521500688046217,
                    0.0896020457148552
                ]
            ]
        },
        {
            "type": "gru",
            "activation": "tanh",
            "shape": [
                null,
                null,
                8
            ],
            "weights": [
                [
                    [
                        -0.21959678828716278,
                        0.12706258893013,
                        -0.21049560606479645,
                        0.3216384947299957,
                        -0.16456428170204163,
                        0.2555067837238312,
                        0.2348826825618744,
                        0.2084544599056244,
                        0.12245771288871765,
                        0.1815061867237091,
                        -0.21797791123390198,
                        0.42997780442237854,
                        -0.1888333261013031,
                        0.07848182320594788,
                        0.3924724757671356,
                        -0.09882843494415283,
                        0.1118762195110321,
                        0.023355692625045776,
                        0.16712859272956848,
                        0.3853691518306732,
                        -0.21814587712287903,
                        0.07179036736488342,
                        0.3662419021129608,
                        0.16357848048210144
                    ],
                    [
                        0.3084140121936798,
                        -0.3958863615989685,
                        -0.3409178555011749,
                        0.2638462483882904,
                        -0.2608310580253601,
                        0.22287139296531677,
                        -0.0018540620803833008,
                        0.09695425629615784,
                        -0.09688520431518555,
                        -0.2544788122177124,
                        -0.2607526183128357,
                        -0.351533442735672,
                        0.2706177532672882,
                        0.3483631908893585,
                        0.12061712145805359,
                        -0.29813870787620544,
                        -0.19692152738571167,
                        0.09348288178443909,
                        -0.2864471673965454,
                        0.026676654815673828,
                        0.288125604391098,
                        -0.16794410347938538,
                        0.3838488757610321,
                        0.18252012133598328
                    ],
                    [
                        -0.11400064826011658,
                        -0.0873115062713623,
                        -0.35649093985557556,
                        -0.187759131193161,
                        0.052959591150283813,
                        0.06252998113632202,
                        0.3225511610507965,
                        -0.16084563732147217,
                        0.4273899495601654,
                        0.2572961151599884,
                        0.2659868896007538,
                        -0.08428093791007996,
                        -0.24926456809043884,
                        -0.417236328125,
                        0.08705070614814758,
                        0.2390393316745758,
                        -0.333560049533844,
                        0.1422547996044159,
                        -0.39959847927093506,
                        0.049423784017562866,
                        0.15076091885566711,
                        -0.10650679469108582,
                        0.2594081461429596,
                        0.09914806485176086
                    ],
                    [
                        0.3667297065258026,
                        0.32404860854148865,
                        0.28793248534202576,
                        0.3432663381099701,
                        0.05659356713294983,
                        0.07285204529762268,
                        -0.24989216029644012,
                        -0.3973994255065918,
                        0.30736157298088074,
                        0.18799647688865662,
                        -0.1472257375717163,
                        0.26331034302711487,
                        -0.10482308268547058,
                        0.39952418208122253,
                        -0.1489892303943634,
                        -0.40994617342948914,
                        0.23203769326210022,
                        0.01321759819984436,
                        0.05797314643859863,
                        -0.12086516618728638,
                        -0.3533148169517517,
                        -0.09576216340065002,
                        -0.21763134002685547,
                        0.27372345328330994
                    ],
                    [
                        0.17818036675453186,
                        0.36682912707328796,
                        -0.28196603059768677,
                        -0.0018153488636016846,
                        0.3200576603412628,
                        0.04480871558189392,
                        -0.08500567078590393,
                        -0.3707057237625122,
                        0.43095019459724426,
                        -0.3649391233921051,
                        0.1735202968120575,
                        0.11938980221748352,
                        0.12986072897911072,
                        -0.03805920481681824,
                        0.1339033544063568,
                        -0.07805648446083069,
                        -0.39110496640205383,
                        0.35076794028282166,
                        -0.42211484909057617,
                        -0.2785148620605469,
                        0.29984357953071594,
                        -0.3883516192436218,
                        0.08293530344963074,
                        -0.2953106164932251
                    ],
                    [
                        -0.25063133239746094,
                        -0.183745339512825,
                        0.4326634109020233,
                        0.15516337752342224,
                        -0.07112342119216919,
                        -0.17239883542060852,
                        -0.16577112674713135,
                        0.07574066519737244,
                        -0.29322540760040283,
                        0.35278233885765076,
                        -0.3880200982093811,
                        -0.019184142351150513,
                        -0.27062416076660156,
                        0.08612868189811707,
                        0.12259605526924133,
                        -0.15278613567352295,
                        -0.09532350301742554,
                        -0.2365519106388092,
                        0.019510477781295776,
                        -0.09371981024742126,
                        -0.13377645611763,
                        0.11484852433204651,
                        -0.24870915710926056,
                        0.30718472599983215
                    ],
                    [
                        -0.3725946545600891,
                        0.35743793845176697,
                        0.06081610918045044,
                        0.42774054408073425,
                        0.3125930726528168,
                        0.13335677981376648,
                        -0.19193419814109802,
                        0.05061978101730347,
                        0.23081013560295105,
                        -0.35444921255111694,
                        0.26011553406715393,
                        -0.024011671543121338,
                        -0.12230968475341797,
                        -0.09157037734985352,
                        0.1293570101261139,
                        0.3129850924015045,
                        0.2479589283466339,
                        0.2744694650173187,
                        0.36926183104515076,
                        0.08529940247535706,
                        -0.28124499320983887,
                        0.23674091696739197,
                        0.3064558804035187,
                        -0.2552105784416199
                    ],
                    [
                        -0.11562323570251465,
                        -0.3521488308906555,
                        0.16259709000587463,
                        0.18159356713294983,
                        0.29862621426582336,
                        0.24845179915428162,
                        -0.22631026804447174,
                        -0.07838726043701172,
                        0.11823537945747375,
                        0.32196900248527527,
                        0.19208255410194397,
                        0.0817963182926178,
                        -0.24426712095737457,
                        -0.4050871431827545,
                        0.2536763846874237,
                        -0.38779640197753906,
                        -0.35164523124694824,
                        -0.43187272548675537,
                        0.050443559885025024,
                        0.16444042325019836,
                        -0.33597904443740845,
                        0.3889482319355011,
                        -0.41677147150039673,
                        -0.3140594959259033
                    ]
                ],
                [
                    [
                        -0.05280113220214844,
                        -0.36219221353530884,
                        -0.10409174859523773,
                        -0.21683931350708008,
                        -0.23335915803909302,
                        -0.06272795796394348,
                        0.16016735136508942,
                        -0.06728207319974899,
                        -0.32169532775878906,
                        0.24144794046878815,
                        -0.046183839440345764,
                        -0.1980629861354828,
                        0.11238472908735275,
                        0.012505295686423779,
                        -0.1603545844554901,
                        0.04368523508310318,
                        0.3454478979110718,
                        -0.23990154266357422,
                        -0.1816684901714325,
                        0.10159417241811752,
                        -0.2734919488430023,
                        0.37705087661743164,
                        0.06736675649881363,
                        -0.18528808653354645
                    ],
                    [
                        -0.26651307940483093,
                        -0.0475730374455452,
                        -0.016375191509723663,
                        -0.22062015533447266,
                        -0.2116892784833908,
                        0.2575904130935669,
                        0.08576148003339767,
                        -0.10104654729366302,
                        0.4159075617790222,
                        -0.16977837681770325,
                        0.3162745237350464,
                        0.1484990417957306,
                        0.12165015935897827,
                        0.305815726518631,
                        0.04940680041909218,
                        0.1874569207429886,
                        0.37752649188041687,
                        0.06662561744451523,
                        0.09084664285182953,
                        -0.08554158359766006,
                        0.056873127818107605,
                        0.002332635223865509,
                        -0.32830214500427246,
                        -0.07542695105075836
                    ],
                    [
                        -0.044466037303209305,
                        -0.13925667107105255,
                        -0.3718365728855133,
                        -0.12098150700330734,
                        -0.18457412719726562,
                        0.08583194762468338,
                        -0.4876919388771057,
                        0.3454020321369171,
                        0.12411710619926453,
                        0.024577731266617775,
                        0.08548737317323685,
                        0.19791755080223083,
                        -0.2397938370704651,
                        0.10994908213615417,
                        -0.14171747863292694,
                        -0.14407727122306824,
                        -0.1978439837694168,
                        -0.020313849672675133,
                        -0.22996705770492554,
                        -0.2931361794471741,
                        0.03603946045041084,
                        0.24460864067077637,
                        0.11618202924728394,
                        0.03508573770523071
                    ],
                    [
                        -0.2679726183414459,
                        -0.036745037883520126,
                        0.6472247242927551,
                        -0.10589543730020523,
                        0.18847694993019104,
                        0.2635306119918823,
                        -0.3769424855709076,
                        0.18892787396907806,
                        0.036122724413871765,
                        0.2474183440208435,
                        -0.009177754633128643,
                        -0.010787274688482285,
                        0.04379233717918396,
                        -0.21423576772212982,
                        -0.01930028758943081,
                        0.09808976948261261,
                        0.03983272239565849,
                        0.03733063489198685,
                        -0.0828627347946167,
                        0.17026770114898682,
                        0.06468608975410461,
                        0.21594823896884918,
                        -0.0462762713432312,
                        0.04060054197907448
                    ],
                    [
                        0.06307147443294525,
                        -0.22527813911437988,
                        0.028684603050351143,
                        0.3718249201774597,
                        -0.034003932029008865,
                        -0.143406480550766,
                        -0.03887747973203659,
                        0.18670496344566345,
                        -0.34937581419944763,
                        -0.18026436865329742,
                        0.406279981136322,
                        0.17099317908287048,
                        -0.03959251567721367,
                        -0.07291023433208466,
                        0.45236697793006897,
                        0.11742008477449417,
                        0.15442289412021637,
                        0.18074281513690948,
                        -0.036202915012836456,
                        0.013764789327979088,
                        -0.0881582573056221,
                        0.19476281106472015,
                        -0.12329944968223572,
                        0.23455071449279785
                    ],
                    [
                        0.116715207695961,
                        -0.19079533219337463,
                        -0.16687582433223724,
                        -0.05030801147222519,
                        0.23330961167812347,
                        0.5046237111091614,
                        -0.007243882864713669,
                        -0.3071712553501129,
                        -0.06448523700237274,
                        0.2203344702720642,
                        0.22767162322998047,
                        0.12616565823554993,
                        -0.22073307633399963,
                        0.008432479575276375,
                        0.154358372092247,
                        -0.40798720717430115,
                        0.07735587656497955,
                        -0.1709064245223999,
                        0.07560941576957703,
                        0.25833603739738464,
                        0.015938008204102516,
                        -0.12565146386623383,
                        0.08297658711671829,
                        0.16125914454460144
                    ],
                    [
                        0.0685020387172699,
                        0.1011270135641098,
                        0.09882886707782745,
                        0.10840342193841934,
                        -0.243448868393898,
                        -0.2645055055618286,
                        -0.09842653572559357,
                        -0.0461910180747509,
                        0.0074427127838134766,
                        0.40952068567276,
                        0.48549699783325195,
                        -0.025022562593221664,
                        -0.09507922828197479,
                        -0.07958373427391052,
                        -0.2970394790172577,
                        0.12350364029407501,
                        0.1551014631986618,
                        -0.11415453255176544,
                        0.3302150368690491,
                        -0.1022181585431099,
                        0.2187822461128235,
                        -0.15866898000240326,
                        0.251816987991333,
                        0.08076921850442886
                    ],
                    [
                        -0.13481394946575165,
                        0.21774530410766602,
                        -0.002955293282866478,
                        -0.24018672108650208,
                        -0.3381946086883545,
                        0.19432500004768372,
                        -0.09097920358181,
                        0.2161582112312317,
                        -0.2620358467102051,
                        -0.05496770143508911,
                        -0.04735201224684715,
                        -0.2004247009754181,
                        -0.12140048295259476,
                        -0.1703696846961975,
                        0.025989839807152748,
                        -0.05533190816640854,
                        0.027044285088777542,
                        -0.044223424047231674,
                        0.1902569830417633,
                        -0.09028348326683044,
                        -0.44575461745262146,
                        -0.3689170181751251,
                        -0.2004045844078064,
                        0.29322707653045654
                    ]
                ],
                [
                    [
                        0.09921228140592575,
                        -0.017563162371516228,
                        0.0713508352637291,
                        0.033193960785865784,
                        -0.03491273149847984,
                        0.037785936146974564,
                        -0.0076997666619718075,
                        0.07986075431108475,
                        -0.10157745331525803,
                        0.02468494325876236,
                        0.04288644343614578,
                        -0.06178976967930794,
                        0.09349779784679413,
                        0.03183457627892494,
                        -0.019658001139760017,
                        0.056345369666814804,
                        0.03303840756416321,
                        0.100125253200531,
                        -0.005209281574934721,
                        -0.006412746850401163,
                        0.009648218750953674,
                        0.014187405817210674,
                        -0.05839569494128227,
                        0.0002846091229002923
                    ],
                    [
                        -0.0402747206389904,
                        -0.05045771226286888,
                        -0.0330212377011776,
                        0.08065719902515411,
                        -0.0002594147517811507,
                        0.0786098763346672,
                        -0.042640723288059235,
                        0.056803494691848755,
                        0.008323032408952713,
                        -0.023423312231898308,
                        0.023695457726716995,
                        0.002735828049480915,
                        0.007901354692876339,
                        0.002812144346535206,
                        -0.16444091498851776,
                        -0.002982943318784237,
                        -0.05599236488342285,
                        0.014744740910828114,
                        0.06999935209751129,
                        -0.02806924097239971,
                        -0.024144450202584267,
                        -0.04135354235768318,
                        0.14055326581001282,
                        -0.05703740194439888
                    ]
                ]
            ]
        },
        {
            "type": "dense",
            "activation": "relu",
            "shape": [
                null,
                null,
                8
            ],
            "weights": [
                [
                    [
                        -0.3392505645751953,
                        0.6381694078445435,
                        0.31910741329193115,
                        -0.11970905214548111,
                        0.05182049423456192,
                        0.30164358019828796,
                        -0.40967273712158203,
                        -0.3162008821964264
                    ],
                    [
                        0.5950201749801636,
                        0.39207741618156433,
                        0.46499791741371155,
                        -0.21747222542762756,
                        -0.13108126819133759,
                        0.027672916650772095,
                        0.43553847074508667,
                        0.14514517784118652
                    ],
                    [
                        0.11251910775899887,
                        0.3448810875415802,
                        -0.6080197095870972,
                        0.31419894099235535,
                        -0.17447125911712646,
                        0.37158796191215515,
                        0.3687191903591156,
                        -0.3090565800666809
                    ],
                    [
                        0.633061945438385,
                        -0.18806830048561096,
                        -0.15855813026428223,
                        -0.218640998005867,
                        -0.1533387303352356,
                        0.04747593402862549,
                        -0.5504071712493896,
                        -0.40274491906166077
                    ],
                    [
                        0.15647931396961212,
                        0.299375057220459,
                        0.08902048319578171,
                        0.6612374186515808,
                        -0.045438382774591446,
                        -0.6278847455978394,
                        -0.19668275117874146,
                        -0.07577179372310638
                    ],
                    [
                        -0.1811153143644333,
                        0.0796787440776825,
                        -0.1332254260778427,
                        -0.47516173124313354,
                        0.07085917145013809,
                        -0.5659989714622498,
                        0.3177421987056732,
                        -0.5394302606582642
                    ],
                    [
                        -0.18786229193210602,
                        0.17016929388046265,
                        -0.19573770463466644,
                        -0.23789425194263458,
                        -0.821654200553894,
                        -0.1766446828842163,
                        -0.15342991054058075,
                        0.33314207196235657
                    ],
                    [
                        -0.15764299035072327,
                        -0.3997131586074829,
                        0.47236841917037964,
                        0.2687813937664032,
                        -0.49394145607948303,
                        0.14871659874916077,
                        0.20096644759178162,
                        -0.46208274364471436
                    ]
                ],
                [
                    0.002905018627643585,
                    -0.07063177227973938,
                    0.053775589913129807,
                    0.023512789979577065,
                    -0.0426943264901638,
                    0.01792057231068611,
                    0.10542192310094833,
                    0.05334988236427307
                ]
            ]
        },
        {
            "type": "dense",
            "activation": "",
            "shape": [
                null,
                null,
                1
            ],
            "weights": [
                [
                    [
                        0.7439223527908325
                    ],
                    [
                        0.10675960034132004
                    ],
                    [
                        0.2581642270088196
                    ],
                    [
                        0.22122842073440552
                    ],
                    [
                        0.17533637583255768
                    ],
                    [
                        -0.43486252427101135
                    ],
                    [
                        0.23683440685272217
                    ],
                    [
                        -0.2089313268661499
                    ]
                ],
                [
                    -0.04689313471317291
                ]
            ]
        }
    ]
}