{
    "in_shape": [
        null,
        null,
        1
    ],
    "layers": [
        {
            "type": "time-distributed-dense",
            "activation": "tanh",
            "shape": [
                null,
                null,
                8
            ],
            "weights": [
                [
                    [
                        -0.00320485164411366,
                        -0.13063032925128937,
                        -0.061269886791706085,
                        0.03385929390788078,
                        0.04615743085741997,
                        -0.046625204384326935,
                        0.007416085805743933,
                        0.018088409677147865
                    ]
                ],
                [
                    -0.0024274077732115984,
                    -0.02281350828707218,
                    0.13374024629592896,
                    0.00963667407631874,
                    0.10078560560941696,
                    0.01566328853368759,
                    0.01982731930911541,
                    0.013274500146508217
                ]
            ]
        },
        {
            "type": "gru",
            "activation": "tanh",
            "shape": [
                null,
                null,
                8
            ],
            "weights": [
                [
                    [
                        0.3213730752468109,
                        0.2996898591518402,
                        -0.3612838685512543,
                        0.1438640058040619,
                        0.4161643087863922,
                        -0.29205238819122314,
                        -0.2530161440372467,
                        0.13320133090019226,
                        0.20499959588050842,
                        -0.40240782499313354,
                        -0.3574986457824707,
                        0.26427045464515686,
                        0.42600128054618835,
                        -0.42448458075523376,
                        0.047692686319351196,
                        -0.2071535736322403,
                        0.08355394005775452,
                        0.3405676782131195,
                        -0.012924402952194214,
                        -0.36243632435798645,
                        -0.3243418335914612,
                        0.27129241824150085,
                        -0.1683935821056366,
                        -0.025121599435806274
                    ],
                    [
                        0.29012563824653625,
                        -0.08758342266082764,
                        -0.33954954147338867,
                        0.2455941140651703,
                        0.12546423077583313,
                        -0.02196630835533142,
                        0.12408599257469177,
                        -0.11206433176994324,
                        -0.062093496322631836,
                        -0.06944498419761658,
                        -0.23587952554225922,
                        -0.0016967356204986572,
                        0.3566456735134125,
                        0.4058379828929901,
                        0.39852532744407654,
                        0.08299645781517029,
                        0.0405711829662323,
                        -0.10215902328491211,
                        -0.00995299220085144,
                        -0.21910527348518372,
                        0.23622116446495056,
                        0.04214164614677429,
                        -0.12440067529678345,
                        -0.43105074763298035
                    ],
                    [
                        -0.07914575934410095,
                        0.3531016409397125,
                        -0.3428288996219635,
                        -0.38426265120506287,
                        0.3064406216144562,
                        -0.3396771550178528,
                        0.14734455943107605,
                        0.25882962346076965,
                        -0.053739339113235474,
                        -0.25380581617355347,
                        0.4102077782154083,
                        -0.21232344210147858,
                        0.10446938872337341,
                        -0.2916710376739502,
                        0.11414292454719543,
                        -0.0068634748458862305,
                        -0.347948282957077,
                        -0.14303022623062134,
                        0.08348742127418518,
                        -0.1456887125968933,
                        -0.098856121301651,
                        -0.26624903082847595,
                        -0.284856915473938,
                        -0.22038428485393524
                    ],
                    [
                        0.20493099093437195,
                        0.04810634255409241,
                        0.02071899175643921,
                        0.0447944700717926,
                        0.35012009739875793,
                        -0.3070411682128906,
                        0.2705884277820587,
                        -0.19131425023078918,
                        0.07589259743690491,
                        -0.3831366300582886,
                        -0.3299683928489685,
                        -0.05528399348258972,
                        0.3326301872730255,
                        0.04543662071228027,
                        -0.2859330475330353,
                        -0.4324469566345215,
                        -0.2596103847026825,
                        0.1792246401309967,
                        -0.4160624146461487,
                        -0.06741872429847717,
                        -0.16672122478485107,
                        -0.2746102809906006,
                        -0.20155631005764008,
                        0.17735829949378967
                    ],
                    [
                        -0.4021718204021454,
                        0.27806296944618225,
                        -0.08863562345504761,
                        0.12642106413841248,
                        0.2707872688770294,
                        0.15654465556144714,
                        -0.08229699730873108,
                        0.35173162817955017,
                        0.3225266635417938,
                        0.11827513575553894,
                        -0.325558066368103,
                        -0.43125423789024353,
                        -0.20531387627124786,
                        0.06832197308540344,
                        -0.29948997497558594,
                        0.02646079659461975,
                        0.1076907217502594,
                        -0.0838119387626648,
                        0.29226890206336975,
                        0.40623143315315247,
                        0.11579832434654236,
                        -0.3787723481655121,
                        -0.2579970955848694,
                        0.22426387667655945
                    ],
                    [
                        0.19280895590782166,
                        0.2825841009616852,
                        0.21172818541526794,
                        0.231236070394516,
                        -0.07923176884651184,
                        -0.22921136021614075,
                        -0.03658786416053772,
                        0.3487442433834076,
                        -0.1910294145345688,
                        0.3456069529056549,
                        -0.22589999437332153,
                        0.0001533031463623047,
                        0.12247785925865173,
                        -0.4125078320503235,
                        -0.288971871137619,
                        0.12965211272239685,
                        -0.015924811363220215,
                        0.24972966313362122,
                        -0.2972256541252136,
                        0.35969123244285583,
                        -0.2508280277252197,
                        0.20145872235298157,
                        0.3382861912250519,
                        -0.43225720524787903
                    ],
                    [
                        -0.07877740263938904,
                        0.1445765197277069,
                        -0.00341874361038208,
                        0.2109813392162323,
                        -0.0739196240901947,
                        -0.2116868793964386,
                        -0.08745333552360535,
                        -0.2427864819765091,
                        0.22050878405570984,
                        -0.0667562484741211,
                        0.2921277582645416,
                        -0.2584034204483032,
                        0.1733279526233673,
                        -0.42052435874938965,
                        0.404800683259964,
                        -0.23911181092262268,
                        0.17688336968421936,
                        0.074730783700943,
                        -0.10334047675132751,
                        -0.16688621044158936,
                        0.145700603723526,
                        -0.21598933637142181,
                        0.3976878821849823,
                        0.33714553713798523
                    ],
                    [
                        0.13805881142616272,
                        0.3515945374965668,
                        -0.12488940358161926,
                        -0.1644667088985443,
                        -0.3506719172000885,
                        0.275503009557724,
                        -0.03782525658607483,
                        -0.4053816795349121,
                        0.1969403326511383,
                        0.22201338410377502,
                        -0.09528127312660217,
                        -0.32300373911857605,
                        -0.2783839702606201,
                        0.2504056394100189,
                        -0.038031548261642456,
                        0.012433916330337524,
                        -0.1569715142250061,
                        -0.389745831489563,
                        -0.02770295739173889,
                        0.13751474022865295,
                        -0.3081490993499756,
                        0.22871562838554382,
                        -0.1585601568222046,
                        0.23903551697731018
                    ]
                ],
                [
                    [
                        -0.005027055740356445,
                        -0.1744588315486908,
                        -0.09950658679008484,
                        0.1303064227104187,
                        -0.04105398803949356,
                        -0.06842775642871857,
                        -0.39634349942207336,
                        -0.2330126017332077,
                        -0.011330080218613148,
                        -0.4472848176956177,
                        0.16481828689575195,
                        -0.06248826906085014,
                        0.08168546855449677,
                        -0.031504079699516296,
                        -0.004529973492026329,
                        -0.18804675340652466,
                        0.4497632086277008,
                        0.1841779500246048,
                        0.14176923036575317,
                        0.04648175090551376,
                        -0.04013267904520035,
                        -0.12460754066705704,
                        0.38310205936431885,
                        0.16800424456596375
                    ],
                    [
                        -0.134688600897789,
                        0.03297396004199982,
                        0.1837204098701477,
                        -0.27600330114364624,
                        0.3404601812362671,
                        -0.09386542439460754,
                        0.47107288241386414,
                        -0.14966541528701782,
                        0.05059324949979782,
                        -0.1813497692346573,
                        -0.07767605781555176,
                        -0.02541292831301689,
                        0.19978010654449463,
                        -0.035365231335163116,
                        0.13600501418113708,
                        -0.3310801386833191,
                        -0.07970407605171204,
                        0.17151963710784912,
                        -0.0436861515045166,
                        0.24901771545410156,
                        -0.0889815241098404,
                        -0.08443515747785568,
                        -0.03919848054647446,
                        0.41729241609573364
                    ],
                    [
                        -0.058631882071495056,
                        -0.06071014329791069,
                        0.1734507530927658,
                        -0.047927647829055786,
                        -0.45226675271987915,
                        0.2730865180492401,
                        0.11882796883583069,
                        0.003687123768031597,
                        0.0076887765899300575,
                        -0.3586883544921875,
                        -0.08110020309686661,
                        0.09624917060136795,
                        0.12199967354536057,
                        0.2154308706521988,
                        0.1503593474626541,
                        0.09772265702486038,
                        0.08288086950778961,
                        0.3167377710342407,
                        0.22563330829143524,
                        0.13119558990001678,
                        0.22503577172756195,
                        0.005415244027972221,
                        -0.42081594467163086,
                        -0.1617351472377777
                    ],
                    [
                        0.08570017665624619,
                        -0.529128909111023,
                        0.01083998940885067,
                        -0.028386402875185013,
                        0.19107499718666077,
                        0.07148487120866776,
                        0.005737967789173126,
                        -0.4073401987552643,
                        -0.012898692861199379,
                        -0.020256981253623962,
                        -0.18383589386940002,
                        0.11219729483127594,
                        -0.004251688718795776,
                        -0.01959153823554516,
                        0.10803578794002533,
                        0.4323684573173523,
                        0.07238287478685379,
                        -0.10744396597146988,
                        -0.3664078414440155,
                        -0.09739025682210922,
                        0.1517956703901291,
                        -0.22772571444511414,
                        -0.1285380870103836,
                        0.07907760143280029
                    ],
                    [
                        0.1513451784849167,
                        0.2414342164993286,
                        -0.020770378410816193,
                        -0.06043372303247452,
                        0.0907452329993248,
                        0.41882655024528503,
                        -0.13259342312812805,
                        0.0538083091378212,
                        -0.1074916422367096,
                        0.06143040210008621,
                        -0.3557477295398712,
                        0.09593163430690765,
                        0.29214248061180115,
                        0.32070106267929077,
                        -0.40392613410949707,
                        -0.036035358905792236,
                        0.10408929735422134,
                        -0.20045067369937897,
                        0.03179999440908432,
                        0.12207906693220139,
                        -0.04147176444530487,
                        -0.34660905599594116,
                        0.06492425501346588,
                        0.1176970973610878
                    ],
                    [
                        -0.06280698627233505,
                        -0.1003541499376297,
                        0.1929527074098587,
                        0.06517107039690018,
                        0.4040415287017822,
                        0.05178266763687134,
                        -0.05826679617166519,
                        0.026461660861968994,
                        0.05079376697540283,
                        0.011709947139024734,
                        -0.09734852612018585,
                        0.3850475251674652,
                        -0.05552691966295242,
                        0.011449769139289856,
                        -0.24144020676612854,
                        -0.12130744755268097,
                        -0.023852264508605003,
                        0.242476686835289,
                        0.3259007930755615,
                        -0.4916476011276245,
                        0.2880687117576599,
                        0.21324522793293,
                        -0.009385338053107262,
                        0.044315654784440994
                    ],
                    [
                        -0.3056597411632538,
                        0.09375722706317902,
                        0.19852584600448608,
                        -0.22336310148239136,
                        -0.0874146968126297,
                        -0.034415990114212036,
                        -0.17343080043792725,
                        0.41397982835769653,
                        0.2896193563938141,
                        -0.09764164686203003,
                        -0.04883453622460365,
                        0.0748734325170517,
                        -0.08332189917564392,
                        -0.0057592918165028095,
                        -0.16270430386066437,
                        0.3579830527305603,
                        0.02173779159784317,
                        0.2983921766281128,
                        -0.39325612783432007,
                        0.022483505308628082,
                        -0.0031914450228214264,
                        -0.017609864473342896,
                        0.22009481489658356,
                        0.20435786247253418
                    ],
                    [
                        -0.04822348803281784,
                        -0.09243802726268768,
                        -0.035371292382478714,
                        0.014771917834877968,
                        0.17295877635478973,
                        0.27027443051338196,
                        -0.3059746325016022,
                        0.0724119320511818,
                        0.05942949280142784,
                        0.4236837327480316,
                        -0.13603512942790985,
                        0.1687423139810562,
                        -0.18190112709999084,
                        0.024310577660799026,
                        0.49279457330703735,
                        -0.09610500186681747,
                        0.035699475556612015,
                        0.1821652501821518,
                        0.11431627720594406,
                        0.44563889503479004,
                        0.09066358953714371,
                        0.057415347546339035,
                        0.1036195307970047,
                        0.04096519947052002
                    ]
                ],
                [
                    [
                        0.009545070119202137,
                        0.07496589422225952,
                        0.030432408675551414,
                        -0.07010728865861893,
                        -0.09280452132225037,
                        0.050316233187913895,
                        0.10688149929046631,
                        0.07334059476852417,
                        0.008183087222278118,
                        0.062465693801641464,
                        -0.09221135079860687,
                        -0.033700622618198395,
                        -0.143033966422081,
                        -0.047773804515600204,
                        -0.043964650481939316,
                        0.03866932913661003,
                        0.00933610089123249,
                        0.08015795797109604,
                        -0.028781572356820107,
                        0.014851309359073639,
                        0.08021927624940872,
                        -0.0512608103454113,
                        0.036351606249809265,
                        -0.031946729868650436
                    ],
                    [
                        0.04348917305469513,
                        0.039634764194488525,
                        0.01972018927335739,
                        0.07544713467359543,
                        0.09418266266584396,
                        -0.04569117724895477,
                        0.024620002135634422,
                        -0.020096808671951294,
                        -0.044816963374614716,
                        0.015015966258943081,
                        -0.015430285595357418,
                        -0.02087930589914322,
                        0.05941718816757202,
                        -0.001272927736863494,
                        -0.028664356097579002,
                        0.013193762861192226,
                        -0.07730966061353683,
                        0.006937560625374317,
                        -0.0456429161131382,
                        -0.06435401737689972,
                        -0.07048199325799942,
                        -0.027300631627440453,
                        -0.045152369886636734,
                        -0.11047063022851944
                    ]
                ]
            ]
        },
        {
            "type": "dense",
            "activation": "sigmoid",
            "shape": [
                null,
                null,
                8
            ],
            "weights": [
                [
                    [
                        0.2998776435852051,
                        0.16728390753269196,
                        0.790982186794281,
                        -0.2372366189956665,
                        0.14539481699466705,
                        -0.06242382898926735,
                        0.0718923807144165,
                        -0.4122508764266968
                    ],
                    [
                        0.6553425788879395,
                        0.10595407336950302,
                        -0.3197517395019531,
                        0.0613207146525383,
                        -0.5821766257286072,
                        0.028950214385986328,
                        0.011853037402033806,
                        -0.33673447370529175
                    ],
                    [
                        0.17702333629131317,
                        0.056637659668922424,
                        -0.016152113676071167,
                        0.38179874420166016,
                        0.33975768089294434,
                        0.21051934361457825,
                        -0.7981922030448914,
                        -0.15019744634628296
                    ],
                    [
                        -0.3771718144416809,
                        0.28949615359306335,
                        -0.3575853109359741,
                        -0.3098469376564026,
                        0.1783645749092102,
                        0.32530516386032104,
                        0.07759907841682434,
                        -0.6374968886375427
                    ],
                    [
                        0.08149082958698273,
                        -0.07455829530954361,
                        -0.26137736439704895,
                        0.2003723531961441,
                        0.3857932388782501,
                        -0.7858611345291138,
                        0.12923401594161987,
                        -0.31018948554992676
                    ],
                    [
                        0.30793359875679016,
                        0.7485576868057251,
                        -0.17162573337554932,
                        -0.16262145340442657,
                        0.3161301016807556,
                        -0.01945330947637558,
                        0.09686312079429626,
                        0.42336511611938477
                    ],
                    [
                        0.07731859385967255,
                        0.03313332051038742,
                        0.06941016018390656,
                        0.6935209035873413,
                        0.20735172927379608,
                        0.3851400315761566,
                        0.5555728673934937,
                        -0.08453606069087982
                    ],
                    [
                        -0.44672343134880066,
                        0.5538759827613831,
                        0.20343708992004395,
                        0.38809457421302795,
                        -0.4482320249080658,
                        -0.28077462315559387,
                        -0.12966682016849518,
                        -0.07138490676879883
                    ]
                ],
                [
                    -0.012899504974484444,
                    0.0638197809457779,
                    -0.020608248189091682,
                    0.034333616495132446,
                    0.05228818207979202,
                    0.03093896619975567,
                    -0.024520715698599815,
                    0.0336458720266819
                ]
            ]
        },
        {
            "type": "dense",
            "activation": "",
            "shape": [
                null,
                null,
                1
            ],
            "weights": [
                [
                    [
                        -0.3652263879776001
                    ],
                    [
                        -0.7592402696609497
                    ],
                    [
                        0.3100072741508484
                    ],
                    [
                        0.12903833389282227
                    ],
                    [
                        -0.016771862283349037
                    ],
                    [
                        0.4095587432384491
                    ],
                    [
                        0.09361651539802551
                    ],
                    [
                        0.02499428391456604
                    ]
                ],
                [
                    0.005539645906537771
                ]
            ]
        }
    ]
}