{
    "in_shape": [
        null,
        null,
        1
    ],
    "layers": [
        {
            "type": "gru",
            "activation": "tanh",
            "shape": [
                null,
                null,
                8
            ],
            "weights": [
                [
                    [
                        -0.16294759511947632,
                        0.005527019500732422,
                        -0.2849133014678955,
                        -0.08631330728530884,
                        0.05566200613975525,
                        -0.26668769121170044,
                        0.42466846108436584,
                        0.39141151309013367,
                        -0.04059666395187378,
                        0.014669805765151978,
                        -0.03753882646560669,
                        -0.13489729166030884,
                        0.3408232629299164,
                        0.27049633860588074,
                        -0.10641777515411377,
                        -0.08989149332046509,
                        0.040113240480422974,
                        0.33411338925361633,
                        -0.1506689190864563,
                        0.40540704131126404,
                        0.3137238323688507,
                        -0.4540504813194275,
                        -0.15607258677482605,
                        0.21522513031959534
                    ]
                ],
                [
                    [
                        0.12281978130340576,
                        0.24783430993556976,
                        -0.09690167009830475,
                        -0.001697850995697081,
                        0.29729846119880676,
                        -0.009389780461788177,
                        0.254083514213562,
                        -0.1364065557718277,
                        0.0038630219642072916,
                        -0.3427256643772125,
                        -0.24182985723018646,
                        0.19991855323314667,
                        0.26861628890037537,
                        0.18903258442878723,
                        0.34016183018684387,
                        0.21428269147872925,
                        0.0033130620140582323,
                        -0.16938556730747223,
                        0.29220816493034363,
                        -0.100621797144413,
                        -0.22658692300319672,
                        -0.27420032024383545,
                        -0.03739294037222862,
                        -0.06987278908491135
                    ],
                    [
                        0.23466676473617554,
                        0.05401517078280449,
                        -0.2949555814266205,
                        0.09189348667860031,
                        -0.06295605003833771,
                        0.16028442978858948,
                        -0.030474022030830383,
                        -0.14615435898303986,
                        -0.023245036602020264,
                        0.17492032051086426,
                        -0.17925527691841125,
                        0.032340168952941895,
                        0.2288862019777298,
                        0.1704544872045517,
                        -0.014239370822906494,
                        0.40216875076293945,
                        0.023757722228765488,
                        -0.31747689843177795,
                        -0.4841991364955902,
                        0.03777603805065155,
                        0.22018222510814667,
                        0.2658587694168091,
                        0.12523522973060608,
                        0.12185053527355194
                    ],
                    [
                        0.08386354893445969,
                        0.18621744215488434,
                        0.12673072516918182,
                        0.009056547656655312,
                        -0.24307018518447876,
                        -0.004071003757417202,
                        0.14677506685256958,
                        0.08563695847988129,
                        0.2837202548980713,
                        0.2530592083930969,
                        -0.09706772118806839,
                        0.031556762754917145,
                        -0.19975532591342926,
                        -0.3070676922798157,
                        0.2560845911502838,
                        0.36915984749794006,
                        -0.008879129774868488,
                        0.2677319347858429,
                        0.0689641535282135,
                        -0.2026394009590149,
                        0.06813479214906693,
                        -0.14818459749221802,
                        0.46776917576789856,
                        -0.013364629819989204
                    ],
                    [
                        0.06454826146364212,
                        -0.13235802948474884,
                        -0.15294161438941956,
                        0.1494930535554886,
                        -0.10416539013385773,
                        -0.10117758810520172,
                        -0.2999822199344635,
                        0.07149498164653778,
                        -0.08239787817001343,
                        -0.12606044113636017,
                        0.23851962387561798,
                        -0.013910608366131783,
                        -0.342811644077301,
                        0.10653335601091385,
                        0.3672907054424286,
                        0.12013138830661774,
                        0.06839875131845474,
                        -0.21099722385406494,
                        -0.08047822117805481,
                        0.3774887025356293,
                        0.173249289393425,
                        -0.4201880991458893,
                        0.03452334925532341,
                        -0.22908610105514526
                    ],
                    [
                        -0.13699795305728912,
                        -0.05965773016214371,
                        -0.03444739431142807,
                        -0.18928995728492737,
                        -0.1325392723083496,
                        -0.10166481137275696,
                        0.22966809570789337,
                        -0.04160023480653763,
                        0.09019109606742859,
                        0.08711998909711838,
                        0.14890116453170776,
                        0.2390316128730774,
                        0.12460237741470337,
                        -0.31824052333831787,
                        0.18191297352313995,
                        -0.13383418321609497,
                        0.6831271052360535,
                        -0.26206716895103455,
                        -0.08377747237682343,
                        -0.07645739614963531,
                        0.10069674253463745,
                        -0.012407593429088593,
                        -0.18449437618255615,
                        0.05383226275444031
                    ],
                    [
                        0.2831355631351471,
                        0.2780192494392395,
                        0.19707632064819336,
                        0.017496561631560326,
                        0.21553055942058563,
                        -0.002553484868258238,
                        -0.13660350441932678,
                        -0.2882956862449646,
                        0.101170614361763,
                        -0.1392819583415985,
                        -0.2150481939315796,
                        -0.41541558504104614,
                        -0.08668861538171768,
                        -0.04826946556568146,
                        -0.0673883855342865,
                        -0.24914570152759552,
                        0.2722409665584564,
                        0.12820649147033691,
                        -0.2919837534427643,
                        -0.11210530996322632,
                        0.20152021944522858,
                        -0.30366820096969604,
                        -0.04220288619399071,
                        0.08525903522968292
                    ],
                    [
                        0.14212241768836975,
                        -0.13275118172168732,
                        0.11837469041347504,
                        0.26626914739608765,
                        -0.13731440901756287,
                        -0.1538069248199463,
                        0.000422108918428421,
                        -0.321613609790802,
                        -0.3664359450340271,
                        -0.09214100241661072,
                        -0.044533368200063705,
                        0.3610936403274536,
                        -0.18251198530197144,
                        0.2454449087381363,
                        -0.14956757426261902,
                        0.09011831134557724,
                        0.29726898670196533,
                        0.309544175863266,
                        0.08117131888866425,
                        -0.22797714173793793,
                        0.11078087240457535,
                        0.14748841524124146,
                        0.05040924251079559,
                        -0.22982940077781677
                    ],
                    [
                        0.04380689933896065,
                        -0.07637136429548264,
                        -0.26822665333747864,
                        -0.22123248875141144,
                        0.1550544798374176,
                        -0.37105676531791687,
                        -0.2416873276233673,
                        -0.4593329131603241,
                        -0.06126687303185463,
                        0.3073258399963379,
                        0.26727601885795593,
                        -0.1882779449224472,
                        -0.07740801572799683,
                        -0.054250817745923996,
                        0.01233658380806446,
                        0.1874806135892868,
                        -0.07765131443738937,
                        -0.06790558993816376,
                        0.23038502037525177,
                        -0.2479551136493683,
                        -0.13897690176963806,
                        -0.03346618637442589,
                        -0.03589843213558197,
                        0.20973153412342072
                    ]
                ],
                [
                    [
                        0.04998345300555229,
                        0.04062075540423393,
                        0.020227894186973572,
                        0.03362129256129265,
                        -0.04572721943259239,
                        -0.030574122443795204,
                        0.08220548182725906,
                        5.160140062798746e-05,
                        0.014320166781544685,
                        -0.0430060550570488,
                        -0.11725973337888718,
                        -0.044962890446186066,
                        0.07505198568105698,
                        -0.006141653284430504,
                        0.06539358198642731,
                        0.05943329259753227,
                        -0.05983426049351692,
                        0.05121592432260513,
                        0.03431476652622223,
                        0.03739829733967781,
                        0.030841438099741936,
                        0.0712556466460228,
                        -0.0033028058242052794,
                        -0.07106912136077881
                    ],
                    [
                        0.1005851998925209,
                        -0.035184718668460846,
                        0.004353902768343687,
                        0.09818869829177856,
                        -0.05422717332839966,
                        0.03532471880316734,
                        0.041883960366249084,
                        -0.009880333207547665,
                        -0.007554156240075827,
                        -0.09302174299955368,
                        0.013870353810489178,
                        -0.012776399962604046,
                        -0.04499168321490288,
                        -0.115475594997406,
                        -0.002384854480624199,
                        -0.021600205451250076,
                        0.030344342812895775,
                        -0.07004326581954956,
                        -0.01295953243970871,
                        0.010704836808145046,
                        -0.07639449089765549,
                        0.0709930807352066,
                        -0.027038946747779846,
                        0.021489400416612625
                    ]
                ]
            ]
        },
        {
            "type": "dense",
            "activation": "sigmoid",
            "shape": [
                null,
                null,
                8
            ],
            "weights": [
                [
                    [
                        0.11559903621673584,
                        0.3681933879852295,
                        -0.6329699754714966,
                        0.5758451819419861,
                        -0.23810996115207672,
                        0.048925191164016724,
                        -0.2419302761554718,
                        0.034660108387470245
                    ],
                    [
                        -0.36981263756752014,
                        -0.20985275506973267,
                        0.30917486548423767,
                        0.3914214074611664,
                        -0.06682204455137253,
                        0.16920316219329834,
                        -0.17122283577919006,
                        0.7127330899238586
                    ],
                    [
                        0.4711567759513855,
                        -0.6853388547897339,
                        -0.10506404936313629,
                        0.3438851237297058,
                        -0.13433396816253662,
                        -0.03258343040943146,
                        0.3997880518436432,
                        -0.00941699743270874
                    ],
                    [
                        -0.26545774936676025,
                        -0.19358564913272858,
                        -0.04673740267753601,
                        -0.0562015026807785,
                        -0.4189787805080414,
                        -0.82059246301651,
                        -0.19141273200511932,
                        -0.03405192866921425
                    ],
                    [
                        -0.6130557060241699,
                        -0.01848246157169342,
                        -0.3408805727958679,
                        0.1665324866771698,
                        0.3694819211959839,
                        -0.1084267795085907,
                        0.5716620683670044,
                        -0.0694086104631424
                    ],
                    [
                        0.022488689050078392,
                        0.3253379464149475,
                        0.6110064387321472,
                        0.558323860168457,
                        -0.031431473791599274,
                        -0.16664594411849976,
                        0.17832233011722565,
                        -0.3847563862800598
                    ],
                    [
                        -0.15594954788684845,
                        -0.422590970993042,
                        -0.03088163584470749,
                        0.22384685277938843,
                        0.4494451880455017,
                        0.06381668150424957,
                        -0.5952301621437073,
                        -0.43088603019714355
                    ],
                    [
                        -0.3959236145019531,
                        -0.16870449483394623,
                        0.007408082485198975,
                        -0.06488361954689026,
                        -0.6369801759719849,
                        0.500942051410675,
                        0.05279715731739998,
                        -0.38864412903785706
                    ]
                ],
                [
                    -0.09023292362689972,
                    -0.016700221225619316,
                    0.045110415667295456,
                    0.04093816131353378,
                    -0.012842207215726376,
                    0.05997512489557266,
                    -0.026872187852859497,
                    0.001834413269534707
                ]
            ]
        },
        {
            "type": "dense",
            "activation": "",
            "shape": [
                null,
                null,
                1
            ],
            "weights": [
                [
                    [
                        -0.656242847442627
                    ],
                    [
                        0.4747081696987152
                    ],
                    [
                        -0.10795571655035019
                    ],
                    [
                        0.24474558234214783
                    ],
                    [
                        -0.2515595257282257
                    ],
                    [
                        -0.2538630962371826
                    ],
                    [
                        0.15883810818195343
                    ],
                    [
                        -0.3456653654575348
                    ]
                ],
                [
                    0.005789277143776417
                ]
            ]
        }
    ]
}