{
    "in_shape": [
        null,
        null,
        1
    ],
    "layers": [
        {
            "type": "time-distributed-dense",
            "activation": "tanh",
            "shape": [
                null,
                null,
                8
            ],
            "weights": [
                [
                    [
                        0.05712372809648514,
                        0.0014130965573713183,
                        -0.08093174546957016,
                        -0.08464426547288895,
                        0.024060219526290894,
                        -0.09592030197381973,
                        0.03537222743034363,
                        0.07697805017232895
                    ]
                ],
                [
                    -0.05109865590929985,
                    0.0034975693561136723,
                    -0.017203407362103462,
                    0.08156366646289825,
                    -0.014359432272613049,
                    -0.06546756625175476,
                    0.025644823908805847,
                    0.017758209258317947
                ]
            ]
        },
        {
            "type": "lstm",
            "activation": "tanh",
            "shape": [
                null,
                null,
                8
            ],
            "weights": [
                [
                    [
                        0.3029900789260864,
                        0.21477246284484863,
                        -0.03958198428153992,
                        0.17349576950073242,
                        0.14164239168167114,
                        -0.2545584440231323,
                        0.3233641982078552,
                        0.0969783365726471,
                        0.3666401505470276,
                        -0.3237447440624237,
                        -0.26006656885147095,
                        0.37401407957077026,
                        0.36799317598342896,
                        -0.1344321072101593,
                        -0.2075245976448059,
                        0.28735196590423584,
                        0.05869555473327637,
                        -0.11121952533721924,
                        -0.27405595779418945,
                        -0.22055882215499878,
                        0.13216739892959595,
                        -0.1470862478017807,
                        0.046161144971847534,
                        0.015689432621002197,
                        0.16181349754333496,
                        0.0727454125881195,
                        -0.3413752317428589,
                        -0.31424111127853394,
                        0.108326256275177,
                        -0.23483158648014069,
                        -0.01923009753227234,
                        0.24157929420471191
                    ],
                    [
                        0.37824225425720215,
                        -0.27275416254997253,
                        0.3042801022529602,
                        -0.2652640640735626,
                        0.056071460247039795,
                        0.0013617277145385742,
                        -0.15326355397701263,
                        0.16394245624542236,
                        0.16703355312347412,
                        -0.23296254873275757,
                        0.03653267025947571,
                        -0.21077826619148254,
                        -0.009247750043869019,
                        -0.08415234088897705,
                        -0.0427556037902832,
                        0.07078874111175537,
                        0.16187632083892822,
                        0.3186703324317932,
                        -0.33416393399238586,
                        -0.3766160011291504,
                        0.3306995630264282,
                        0.027055740356445312,
                        0.12513864040374756,
                        0.1264140009880066,
                        -0.11735454201698303,
                        -0.09645643830299377,
                        0.14428478479385376,
                        -0.2654421925544739,
                        0.3435697555541992,
                        -0.28359633684158325,
                        -0.19342109560966492,
                        -0.1271626055240631
                    ],
                    [
                        0.05771905183792114,
                        -0.30832505226135254,
                        -0.20258963108062744,
                        -0.29308733344078064,
                        -0.2014852613210678,
                        -0.38402077555656433,
                        0.1571258306503296,
                        -0.1633954644203186,
                        0.18976235389709473,
                        0.07713335752487183,
                        -0.2221646010875702,
                        -0.17100051045417786,
                        -0.07583028078079224,
                        0.0011540651321411133,
                        -0.15584886074066162,
                        -0.38321205973625183,
                        0.022475063800811768,
                        -0.27193206548690796,
                        -0.22706522047519684,
                        0.20546627044677734,
                        -0.3528013825416565,
                        -0.13240283727645874,
                        0.22753751277923584,
                        0.3052932620048523,
                        0.20931977033615112,
                        -0.28443819284439087,
                        0.3427422046661377,
                        0.29586315155029297,
                        0.07609990239143372,
                        0.0006844103336334229,
                        0.3816893696784973,
                        0.18095386028289795
                    ],
                    [
                        0.3273738622665405,
                        -0.044423699378967285,
                        0.21497434377670288,
                        -0.034739166498184204,
                        0.03963637351989746,
                        -0.0315534770488739,
                        -0.12146943807601929,
                        0.370603084564209,
                        0.34355628490448,
                        -0.09289249777793884,
                        -0.37397751212120056,
                        -0.24177013337612152,
                        -0.14411403238773346,
                        0.33413994312286377,
                        0.30922120809555054,
                        0.1968708634376526,
                        0.013319820165634155,
                        0.13097721338272095,
                        -0.20882584154605865,
                        0.04121971130371094,
                        0.26899242401123047,
                        -0.24315272271633148,
                        -0.03456464409828186,
                        -0.12482902407646179,
                        0.2958195209503174,
                        -0.31814974546432495,
                        0.26034045219421387,
                        -0.02373364567756653,
                        0.04756692051887512,
                        0.1998271346092224,
                        0.016910523176193237,
                        0.019083172082901
                    ],
                    [
                        -0.30474209785461426,
                        -0.2853012979030609,
                        -0.3205527663230896,
                        -0.0058141350746154785,
                        0.09487751126289368,
                        0.04552218317985535,
                        -0.09779146313667297,
                        -0.3079163432121277,
                        0.11688369512557983,
                        -0.17448003590106964,
                        0.16773855686187744,
                        -0.21620170772075653,
                        0.3058255910873413,
                        -0.14615482091903687,
                        -0.2705708146095276,
                        0.20957303047180176,
                        -0.14382095634937286,
                        -0.34143221378326416,
                        0.3818706274032593,
                        0.3334037661552429,
                        -0.03965070843696594,
                        0.3328098654747009,
                        0.3473018407821655,
                        -0.0566592812538147,
                        0.2202390432357788,
                        0.2373095154762268,
                        -0.21474477648735046,
                        -0.28395286202430725,
                        -0.09747779369354248,
                        -0.1917887181043625,
                        0.17358237504959106,
                        -0.15057435631752014
                    ],
                    [
                        -0.35688599944114685,
                        0.193301260471344,
                        0.3150908350944519,
                        -0.12202271819114685,
                        0.058592408895492554,
                        0.26006942987442017,
                        0.18815898895263672,
                        0.05536985397338867,
                        -0.28792068362236023,
                        0.004001051187515259,
                        -0.35027876496315,
                        -0.3531598448753357,
                        -0.3201853632926941,
                        0.15371233224868774,
                        -0.10571259260177612,
                        -0.03888225555419922,
                        -0.33764392137527466,
                        0.22460031509399414,
                        0.02578026056289673,
                        -0.13046234846115112,
                        0.28548723459243774,
                        0.03581446409225464,
                        0.10640078783035278,
                        -0.1955367624759674,
                        0.3568592071533203,
                        0.11335229873657227,
                        -0.12090221047401428,
                        -0.28560489416122437,
                        -0.22957897186279297,
                        -0.3242015540599823,
                        0.3707798719406128,
                        0.2026270031929016
                    ],
                    [
                        -0.06715047359466553,
                        0.3648856282234192,
                        -0.3028995394706726,
                        -0.20633472502231598,
                        0.34799760580062866,
                        0.3166649341583252,
                        0.28082412481307983,
                        -0.14314040541648865,
                        -0.18621227145195007,
                        0.10988882184028625,
                        0.029144078493118286,
                        0.3420654535293579,
                        -0.06473442912101746,
                        -0.28532567620277405,
                        0.2880100607872009,
                        -0.15198464691638947,
                        0.09832453727722168,
                        -0.10751515626907349,
                        0.2516133189201355,
                        0.3049766421318054,
                        -0.07041153311729431,
                        0.16991376876831055,
                        0.1767696738243103,
                        0.05901041626930237,
                        0.1836177110671997,
                        -0.07205665111541748,
                        -0.12938353419303894,
                        -0.2578966021537781,
                        -0.09270969033241272,
                        0.21024483442306519,
                        -0.1521318405866623,
                        -0.11185738444328308
                    ],
                    [
                        0.02373144030570984,
                        -0.24962551891803741,
                        -0.21790564060211182,
                        -0.2469654083251953,
                        0.27941763401031494,
                        -0.10981982946395874,
                        0.13876402378082275,
                        0.17016643285751343,
                        0.26517415046691895,
                        0.2142053246498108,
                        0.33484262228012085,
                        -0.26059550046920776,
                        -0.2125788778066635,
                        0.34337520599365234,
                        0.2059764266014099,
                        0.22961491346359253,
                        0.3751288652420044,
                        0.2316332459449768,
                        -0.13401278853416443,
                        0.21888184547424316,
                        0.29728055000305176,
                        -0.2282157689332962,
                        0.1760239601135254,
                        -0.1914670169353485,
                        0.2123228907585144,
                        0.22138339281082153,
                        0.3409311771392822,
                        -0.32320529222488403,
                        -0.29216891527175903,
                        0.17965370416641235,
                        -0.16526947915554047,
                        -0.3449500501155853
                    ]
                ],
                [
                    [
                        0.15653181076049805,
                        -0.010070247575640678,
                        0.07088122516870499,
                        0.39822593331336975,
                        -0.07225977629423141,
                        0.16433152556419373,
                        0.19023853540420532,
                        0.23844154179096222,
                        0.16056759655475616,
                        -0.04798164218664169,
                        -0.11488296836614609,
                        0.09006325900554657,
                        -0.3189840018749237,
                        0.2870369255542755,
                        -0.1121557429432869,
                        -0.09765792638063431,
                        0.22553862631320953,
                        0.14044634997844696,
                        -0.1590035855770111,
                        -0.045498594641685486,
                        0.10149849206209183,
                        -0.17651385068893433,
                        0.23267973959445953,
                        -0.18832352757453918,
                        0.19603076577186584,
                        0.24950747191905975,
                        0.22846701741218567,
                        0.11428560316562653,
                        -0.0019449613755568862,
                        0.008943322114646435,
                        0.17772908508777618,
                        0.0651494562625885
                    ],
                    [
                        0.0037892719265073538,
                        0.19499292969703674,
                        -0.06349363923072815,
                        0.12758922576904297,
                        0.18054986000061035,
                        0.125901997089386,
                        -0.13553749024868011,
                        0.09643673896789551,
                        0.026564406231045723,
                        -0.17599721252918243,
                        -0.028984609991312027,
                        0.03430664911866188,
                        -0.0007865617517381907,
                        -0.2761958837509155,
                        -0.2428652048110962,
                        -0.030508175492286682,
                        0.24924571812152863,
                        -0.07497487962245941,
                        0.14199428260326385,
                        0.013729351572692394,
                        -0.4424053430557251,
                        -0.3101818263530731,
                        -0.008016915991902351,
                        0.214756041765213,
                        0.06391468644142151,
                        0.051179781556129456,
                        -0.17544129490852356,
                        -0.041128531098365784,
                        -0.28811633586883545,
                        0.0665288195014,
                        -0.08855542540550232,
                        0.36737754940986633
                    ],
                    [
                        0.297593891620636,
                        -0.10856541991233826,
                        0.14047063887119293,
                        -0.18467311561107635,
                        0.2783721387386322,
                        0.01121024414896965,
                        -0.0425909049808979,
                        -0.05387810617685318,
                        0.08292099833488464,
                        -0.2339632213115692,
                        0.08365314453840256,
                        -0.011896079406142235,
                        -0.041304200887680054,
                        0.1641860008239746,
                        -0.0487150102853775,
                        -0.061268314719200134,
                        0.07065148651599884,
                        0.3783585727214813,
                        0.0399542897939682,
                        0.007968618534505367,
                        0.15448105335235596,
                        0.08288082480430603,
                        -0.1461208015680313,
                        -0.13371628522872925,
                        -0.021247588098049164,
                        -0.27388796210289,
                        -0.11556783318519592,
                        0.3700232207775116,
                        0.08247998356819153,
                        -0.04102027416229248,
                        -0.2862092852592468,
                        0.3521723747253418
                    ],
                    [
                        0.04337561875581741,
                        -0.30654478073120117,
                        -0.032168421894311905,
                        -0.07191505283117294,
                        -0.33635613322257996,
                        -0.1449739933013916,
                        0.11797518283128738,
                        0.05798277258872986,
                        0.06661549210548401,
                        -0.27428433299064636,
                        0.026987262070178986,
                        0.005880336742848158,
                        0.03999637812376022,
                        -0.28691020607948303,
                        -0.04594540596008301,
                        -0.10737930983304977,
                        -0.2607741355895996,
                        0.007388086058199406,
                        0.23263412714004517,
                        -0.06582130491733551,
                        0.035241562873125076,
                        0.17309033870697021,
                        0.2685834467411041,
                        -0.1825002133846283,
                        0.19201862812042236,
                        0.23712031543254852,
                        -0.23975057899951935,
                        -0.10759442299604416,
                        0.12446832656860352,
                        0.12915745377540588,
                        0.07031108438968658,
                        0.3257179856300354
                    ],
                    [
                        0.07135941833257675,
                        0.25762391090393066,
                        0.3833504319190979,
                        -0.045719921588897705,
                        -0.3340509235858917,
                        -0.11794567853212357,
                        -0.0834708884358406,
                        0.03626334294676781,
                        0.008885754272341728,
                        -0.24802382290363312,
                        0.039709918200969696,
                        0.02663278579711914,
                        -0.08183783292770386,
                        0.15558043122291565,
                        -0.18903076648712158,
                        -0.19761058688163757,
                        0.05700305104255676,
                        -0.16978447139263153,
                        -0.1916617900133133,
                        -0.14762212336063385,
                        0.3098617494106293,
                        0.03137287497520447,
                        -0.07937467098236084,
                        0.15195555984973907,
                        -0.20381103456020355,
                        -0.17115752398967743,
                        -0.08491688966751099,
                        -0.3667476177215576,
                        -0.1800035685300827,
                        0.05743283033370972,
                        -0.03299057483673096,
                        0.09905126690864563
                    ],
                    [
                        0.1125292256474495,
                        -0.054364487528800964,
                        0.1122298389673233,
                        0.3279135525226593,
                        0.11534292995929718,
                        -0.40983012318611145,
                        -0.0031647291034460068,
                        0.4567505717277527,
                        -0.04987475648522377,
                        0.10253322869539261,
                        0.04719742015004158,
                        0.15369847416877747,
                        0.16166472434997559,
                        -0.2854030430316925,
                        -0.2086828202009201,
                        -0.2366766780614853,
                        0.024344876408576965,
                        0.08408744633197784,
                        0.17337089776992798,
                        0.0008803447708487511,
                        0.04562224820256233,
                        0.06090053915977478,
                        -0.24743761122226715,
                        -0.01800253987312317,
                        -0.16066820919513702,
                        0.018281184136867523,
                        0.06908408552408218,
                        0.03934774175286293,
                        0.13885851204395294,
                        -0.18266735970973969,
                        -0.034603551030159,
                        -0.1923016905784607
                    ],
                    [
                        -0.04567508399486542,
                        0.11442098021507263,
                        0.1484309434890747,
                        -0.26969239115715027,
                        -0.2690463066101074,
                        0.033346064388751984,
                        -0.25010567903518677,
                        0.15782320499420166,
                        -0.02627275139093399,
                        -0.16641364991664886,
                        0.12607504427433014,
                        0.07497070729732513,
                        -0.3515031933784485,
                        -0.2043108195066452,
                        0.16698698699474335,
                        0.07397256791591644,
                        0.1305837482213974,
                        0.2531730532646179,
                        0.01920197904109955,
                        0.18190650641918182,
                        -0.2353276014328003,
                        0.2500091791152954,
                        -0.11892454326152802,
                        -0.18609091639518738,
                        0.009642524644732475,
                        0.2038559764623642,
                        0.18753963708877563,
                        0.0709763914346695,
                        -0.24267323315143585,
                        -0.05198270455002785,
                        -0.08922338485717773,
                        -0.21878647804260254
                    ],
                    [
                        -0.024550609290599823,
                        -0.13701190054416656,
                        0.29638126492500305,
                        -0.11139219999313354,
                        0.15973052382469177,
                        0.11925391107797623,
                        -0.19306549429893494,
                        0.15672345459461212,
                        0.1668853908777237,
                        0.012306776829063892,
                        0.23088006675243378,
                        0.04682241752743721,
                        -0.1365455985069275,
                        0.02823224663734436,
                        -0.00950949639081955,
                        0.11222571134567261,
                        -0.31516164541244507,
                        0.12059476226568222,
                        -0.10439786314964294,
                        0.2818392813205719,
                        0.09248029440641403,
                        -0.3125365674495697,
                        -0.09734641760587692,
                        0.3216148018836975,
                        -0.01132909394800663,
                        0.25568318367004395,
                        -0.2538731098175049,
                        -0.03570891544222832,
                        0.2028111070394516,
                        0.029319079592823982,
                        0.25193479657173157,
                        -0.05601678043603897
                    ]
                ],
                [
                    -0.023775188252329826,
                    0.02313382737338543,
                    0.02289491333067417,
                    -0.061270128935575485,
                    0.029877817258238792,
                    -0.14135956764221191,
                    0.12018982321023941,
                    -0.07825882732868195,
                    0.026471927762031555,
                    -0.06766699254512787,
                    -0.03185449168086052,
                    -0.07613015919923782,
                    0.032227616757154465,
                    -0.0486876480281353,
                    -0.011605116538703442,
                    0.01794498972594738,
                    -0.013318965211510658,
                    0.009234807454049587,
                    -0.044334135949611664,
                    -0.08917342126369476,
                    -0.06460156291723251,
                    0.03237380087375641,
                    -0.0334932804107666,
                    0.08003359287977219,
                    -0.038807764649391174,
                    -0.06195826455950737,
                    -0.06356964260339737,
                    0.016228605061769485,
                    -0.005773716140538454,
                    -0.015228243544697762,
                    0.0160443764179945,
                    0.011942013166844845
                ]
            ]
        },
        {
            "type": "dense",
            "activation": "",
            "shape": [
                null,
                null,
                1
            ],
            "weights": [
                [
                    [
                        0.417741060256958
                    ],
                    [
                        -0.196712926030159
                    ],
                    [
                        -0.24735717475414276
                    ],
                    [
                        0.18843449652194977
                    ],
                    [
                        0.11024785786867142
                    ],
                    [
                        -0.46976789832115173
                    ],
                    [
                        -0.40224650502204895
                    ],
                    [
                        -0.5435664057731628
                    ]
                ],
                [
                    0.019001342356204987
                ]
            ]
        }
    ]
}