{"lstm.weight_ih_l0": [[-0.0026469826698303223], [0.18966147303581238], [-0.2909903824329376], [-0.26019373536109924], [-0.13617262244224548], [0.0948079526424408], [-0.0070050060749053955], [0.28032878041267395], [-0.031375765800476074], [0.09355467557907104], [-0.10684844851493835], [-0.06949636340141296], [-0.33776670694351196], [-0.23415207862854004], [-0.14574287831783295], [0.013096868991851807], [0.13977208733558655], [0.21214011311531067], [-0.23968836665153503], [-0.15395936369895935], [0.12841662764549255], [0.29358646273612976], [-0.07276135683059692], [0.26456817984580994], [-0.05698692798614502], [0.03741094470024109], [0.3201341927051544], [-0.32798099517822266], [-0.22257526218891144], [-0.08950743079185486], [-0.13781508803367615], [0.30547037720680237]], "lstm.weight_hh_l0": [[-0.22916612029075623, -0.16275224089622498, -0.24700669944286346, -0.33112430572509766, -0.20638342201709747, 0.30391380190849304, 0.15776202082633972, 0.17135760188102722], [0.018593937158584595, -0.18126098811626434, 0.059815824031829834, -0.33011093735694885, -0.2554657459259033, -0.18226736783981323, 0.22307023406028748, 0.20729586482048035], [-0.15679916739463806, -0.012757062911987305, 0.22611883282661438, 0.3514791429042816, 0.14031904935836792, 0.047762542963027954, 0.23705270886421204, -0.20817306637763977], [0.06588256359100342, -0.27411189675331116, -0.24504294991493225, -0.18263986706733704, 0.1599733531475067, 0.14218518137931824, -0.20942823588848114, 0.10681098699569702], [0.19409093260765076, -0.04462456703186035, 0.013499200344085693, 0.08191999793052673, 0.21933624148368835, 0.33947989344596863, -0.2724565863609314, -0.12956660985946655], [0.13894999027252197, 0.29293641448020935, 0.3076647222042084, 0.3119601905345917, 0.07036226987838745, -0.30744388699531555, 0.03252425789833069, -0.2211848944425583], [-0.32949554920196533, 0.314129501581192, 0.26882776618003845, -0.35267937183380127, 0.06617531180381775, -0.05955961346626282, -0.058181166648864746, -0.1618414968252182], [0.1359611451625824, -0.2094109058380127, 0.129609614610672, 0.17879483103752136, 0.25309881567955017, 0.1321975588798523, -0.349924236536026, -0.22934898734092712], [0.176534503698349, 0.07399919629096985, -0.2758013606071472, -0.20358292758464813, 0.3326050937175751, 0.2382306158542633, -0.15415816009044647, -0.08898401260375977], [-0.33679428696632385, -0.006354808807373047, -0.2662465274333954, -0.2727157771587372, -0.019480645656585693, 0.05308428406715393, -0.14479081332683563, 0.2097906768321991], [-0.21515105664730072, 0.32080379128456116, 0.24229010939598083, -0.2981455326080322, -0.08799389004707336, 0.015953242778778076, 0.051583826541900635, 0.08385378122329712], [0.13874435424804688, 0.02117791771888733, -0.1725088655948639, 0.1672975718975067, -0.339145690202713, -0.20955345034599304, -0.08850497007369995, -0.17222057282924652], [-0.12368477880954742, -0.28978002071380615, -0.07520616054534912, 0.07557430863380432, -0.23032793402671814, -0.01814413070678711, 0.2530914843082428, -0.03634536266326904], [0.009826034307479858, -0.03050065040588379, 0.07155260443687439, 0.22480317950248718, 0.3349020779132843, 0.22452613711357117, 0.3356683552265167, -0.025569558143615723], [-0.31760460138320923, -0.16761161386966705, 0.24073633551597595, -0.0022919178009033203, -0.17573241889476776, -0.2709321081638336, -0.33087366819381714, -0.29840195178985596], [-0.07171362638473511, 0.193890780210495, 0.19114550948143005, -0.34097814559936523, 0.22054025530815125, -0.2766588628292084, -0.0747448205947876, -0.14335621893405914], [-0.06809976696968079, -0.06941762566566467, -0.31726109981536865, -0.3052713871002197, -0.05532383918762207, 0.0045722126960754395, -0.16061042249202728, 0.13318327069282532], [-0.3182186782360077, -0.02386033535003662, 0.31092169880867004, -0.14421159029006958, 0.31925979256629944, 0.12804070115089417, -0.31906813383102417, 0.22369226813316345], [-0.04079809784889221, -0.15782864391803741, 0.2827201187610626, -0.2857047915458679, 0.03793802857398987, -0.07402300834655762, 0.2524769604206085, 0.09869250655174255], [0.16988429427146912, 0.12486055493354797, -0.08502063155174255, -0.07435420155525208, -0.29135677218437195, 0.19157084822654724, 0.28071364760398865, 0.24191001057624817], [-0.24938887357711792, 0.015768438577651978, -0.24923184514045715, -0.19462554156780243, -0.20601749420166016, 0.12082511186599731, -0.21068711578845978, -0.0077135562896728516], [0.014873325824737549, 0.2279086410999298, -0.2672581076622009, -0.24271872639656067, -0.20529484748840332, 0.24746385216712952, -0.12709006667137146, 0.2982182800769806], [0.1278475821018219, 0.0447690486907959, -0.0026318728923797607, -0.06989097595214844, 0.044359058141708374, -0.08073204755783081, -0.002484232187271118, 0.04511094093322754], [-0.2765512466430664, -0.18530844151973724, 0.28549179434776306, -0.2869250774383545, -0.025387316942214966, 0.3497487008571625, 0.1277165710926056, 0.010010182857513428], [-0.3063928782939911, 0.1751425564289093, -0.25182926654815674, -0.100361168384552, -0.11862292885780334, -0.05235680937767029, 0.0038672685623168945, 0.29161348938941956], [0.04413717985153198, 0.31667521595954895, 0.2162729799747467, -0.2235213816165924, 0.15857014060020447, -0.24992549419403076, -0.14984481036663055, 0.10398808121681213], [0.11674052476882935, 0.265245646238327, -0.11381444334983826, 0.0005659759044647217, 0.18201759457588196, -0.3419187068939209, 0.25561222434043884, -0.29236122965812683], [0.00487285852432251, -0.060110002756118774, -0.18620701134204865, 0.04672950506210327, 0.2923599183559418, -0.10335054993629456, -0.2099025547504425, -0.13075776398181915], [-0.3504238426685333, 0.1595918834209442, -0.1697988659143448, -0.23594041168689728, -0.20368260145187378, 0.20327767729759216, 0.1872325837612152, 0.27135995030403137], [0.12824198603630066, -0.11807258427143097, -0.09879985451698303, 0.10445025563240051, 0.2906331717967987, 0.09612840414047241, -0.16728214919567108, -0.16619744896888733], [-0.3342737853527069, 0.0763845145702362, -0.19840797781944275, -0.3152196407318115, 0.31002262234687805, -0.22960153222084045, -0.04022076725959778, 0.101290762424469], [0.011263608932495117, -0.23789960145950317, -0.28578487038612366, 0.2818112075328827, 0.05757218599319458, 0.2933165729045868, -0.1185254454612732, 0.10414105653762817]], "lstm.bias_ih_l0": [-0.08084923028945923, -0.015722930431365967, -0.2153296321630478, 0.11957207322120667, 0.1117815375328064, -0.00729331374168396, -0.07951492071151733, -0.21794083714485168, 0.24449798464775085, -0.26319366693496704, 0.1448386013507843, -0.11888356506824493, -0.17057819664478302, 0.0635141134262085, -0.1836557686328888, 0.08146041631698608, 0.0694311261177063, -0.26250964403152466, 0.05886611342430115, 0.150588721036911, 0.13994738459587097, -0.04450485110282898, -0.28983867168426514, -0.05450168251991272, 0.12279179692268372, -0.12900353968143463, 0.13420218229293823, 0.23545333743095398, -0.18460845947265625, 0.0034866929054260254, 0.1461939811706543, 0.027710765600204468], "lstm.bias_hh_l0": [0.02953284978866577, 0.044146597385406494, -0.2779451906681061, 0.027785152196884155, 0.24482503533363342, 0.31859180331230164, 0.20780131220817566, 0.04737722873687744, 0.16511443257331848, -0.17199651896953583, -0.29298558831214905, -0.3040280044078827, 0.3527083098888397, 0.22443190217018127, -0.24438804388046265, 0.13832515478134155, 0.26699206233024597, 0.35341718792915344, 0.3091453015804291, 0.2739168107509613, -0.08105537295341492, -0.12407660484313965, 0.2902846038341522, 0.19812414050102234, -0.21276099979877472, 0.3178505599498749, 0.1708223521709442, 0.1927345097064972, -0.22159889340400696, 0.10143440961837769, -0.1239425390958786, 0.27625128626823425], "dense.weight": [[-0.06361860036849976, 0.1376427412033081, 0.06279879808425903, 0.15042570233345032, -0.12014716863632202, 0.17238250374794006, -0.2469467669725418, 0.07985180616378784]], "dense.bias": [-0.23921135067939758]}