{
    "in_shape": [
        null,
        1000,
        1
    ],
    "layers": [
        {
            "name": "lstm",
            "type": "lstm",
            "activation": "tanh",
            "shape": [
                null,
                1000,
                8
            ],
            "weights": [
                [
                    [
                        -0.0026469905860722065,
                        0.18966144323349,
                        -0.2909903824329376,
                        -0.26019373536109924,
                        -0.13617262244224548,
                        0.0948079451918602,
                        -0.007005016785115004,
                        0.28032875061035156,
                        -0.03137575834989548,
                        0.09355466812849045,
                        -0.10684845596551895,
                        -0.06949635595083237,
                        -0.33776670694351196,
                        -0.23415207862854004,
                        -0.14574287831783295,
                        0.013096880167722702,
                        0.13977210223674774,
                        0.21214008331298828,
                        -0.23968836665153503,
                        -0.15395936369895935,
                        0.12841664254665375,
                        0.29358646273612976,
                        -0.07276134938001633,
                        0.26456815004348755,
                        -0.05698692053556442,
                        0.037410933524370193,
                        0.3201341927051544,
                        -0.32798099517822266,
                        -0.22257526218891144,
                        -0.08950743079185486,
                        -0.13781508803367615,
                        0.30547040700912476
                    ]
                ],
                [
                    [
                        -0.22916610538959503,
                        0.01859392412006855,
                        -0.15679916739463806,
                        0.06588256359100342,
                        0.19409091770648956,
                        0.13894997537136078,
                        -0.32949554920196533,
                        0.1359611302614212,
                        0.1765345185995102,
                        -0.33679428696632385,
                        -0.21515105664730072,
                        0.13874433934688568,
                        -0.12368477135896683,
                        0.009826031513512135,
                        -0.31760460138320923,
                        -0.07171361893415451,
                        -0.06809978187084198,
                        -0.3182186782360077,
                        -0.04079810529947281,
                        0.16988429427146912,
                        -0.2493888884782791,
                        0.014873327687382698,
                        0.1278475672006607,
                        -0.2765512764453888,
                        -0.3063928782939911,
                        0.04413719102740288,
                        0.11674053221940994,
                        0.004872850142419338,
                        -0.3504238426685333,
                        0.12824198603630066,
                        -0.3342737853527069,
                        0.011263618245720863
                    ],
                    [
                        -0.16275224089622498,
                        -0.18126098811626434,
                        -0.01275704987347126,
                        -0.27411189675331116,
                        -0.04462457820773125,
                        0.29293644428253174,
                        0.3141295313835144,
                        -0.2094109058380127,
                        0.07399920374155045,
                        -0.006354817189276218,
                        0.32080376148223877,
                        0.021177906543016434,
                        -0.28978002071380615,
                        -0.030500661581754684,
                        -0.16761161386966705,
                        0.1938907951116562,
                        -0.06941762566566467,
                        -0.023860342800617218,
                        -0.15782864391803741,
                        0.12486054003238678,
                        0.015768442302942276,
                        0.227908656001091,
                        0.044769056141376495,
                        -0.18530844151973724,
                        0.17514252662658691,
                        0.31667521595954895,
                        0.2652456760406494,
                        -0.060110002756118774,
                        0.15959186851978302,
                        -0.11807258427143097,
                        0.07638449966907501,
                        -0.23789961636066437
                    ],
                    [
                        -0.24700669944286346,
                        0.05981581658124924,
                        0.22611884772777557,
                        -0.24504294991493225,
                        0.013499214313924313,
                        0.30766475200653076,
                        0.26882776618003845,
                        0.1296095997095108,
                        -0.27580133080482483,
                        -0.2662465274333954,
                        0.24229009449481964,
                        -0.1725088655948639,
                        -0.07520616054534912,
                        0.07155261933803558,
                        0.24073635041713715,
                        0.19114547967910767,
                        -0.31726109981536865,
                        0.31092172861099243,
                        0.2827201187610626,
                        -0.08502064645290375,
                        -0.24923184514045715,
                        -0.2672581076622009,
                        -0.002631859853863716,
                        0.28549179434776306,
                        -0.25182926654815674,
                        0.2162730097770691,
                        -0.11381444334983826,
                        -0.18620701134204865,
                        -0.1697988659143448,
                        -0.09879983961582184,
                        -0.19840797781944275,
                        -0.28578487038612366
                    ],
                    [
                        -0.33112430572509766,
                        -0.33011093735694885,
                        0.35147911310195923,
                        -0.18263986706733704,
                        0.08191998302936554,
                        0.31196022033691406,
                        -0.35267937183380127,
                        0.17879481613636017,
                        -0.20358292758464813,
                        -0.2727157771587372,
                        -0.2981455326080322,
                        0.1672975718975067,
                        0.07557431608438492,
                        0.22480319440364838,
                        -0.0022919033654034138,
                        -0.34097814559936523,
                        -0.3052713871002197,
                        -0.14421159029006958,
                        -0.2857047915458679,
                        -0.07435420155525208,
                        -0.19462554156780243,
                        -0.24271872639656067,
                        -0.06989098340272903,
                        -0.2869250774383545,
                        -0.100361168384552,
                        -0.2235213816165924,
                        0.0005659899907186627,
                        0.04672951623797417,
                        -0.23594041168689728,
                        0.10445025563240051,
                        -0.3152196407318115,
                        0.2818111777305603
                    ],
                    [
                        -0.20638342201709747,
                        -0.2554657459259033,
                        0.14031903445720673,
                        0.1599733829498291,
                        0.21933624148368835,
                        0.07036226242780685,
                        0.06617531180381775,
                        0.25309881567955017,
                        0.3326050937175751,
                        -0.01948065310716629,
                        -0.08799389749765396,
                        -0.339145690202713,
                        -0.23032793402671814,
                        0.3349021077156067,
                        -0.17573241889476776,
                        0.22054025530815125,
                        -0.055323850363492966,
                        0.31925979256629944,
                        0.03793802112340927,
                        -0.29135677218437195,
                        -0.20601749420166016,
                        -0.20529484748840332,
                        0.04435905069112778,
                        -0.025387322530150414,
                        -0.11862293630838394,
                        0.15857014060020447,
                        0.18201760947704315,
                        0.2923599183559418,
                        -0.20368260145187378,
                        0.2906331419944763,
                        0.31002265214920044,
                        0.057572171092033386
                    ],
                    [
                        0.30391380190849304,
                        -0.18226736783981323,
                        0.04776253551244736,
                        0.14218516647815704,
                        0.33947986364364624,
                        -0.30744388699531555,
                        -0.05955960601568222,
                        0.1321975439786911,
                        0.23823058605194092,
                        0.05308429151773453,
                        0.01595325581729412,
                        -0.20955345034599304,
                        -0.018144134432077408,
                        0.22452616691589355,
                        -0.2709321081638336,
                        -0.2766588628292084,
                        0.004572216421365738,
                        0.12804068624973297,
                        -0.07402301579713821,
                        0.19157083332538605,
                        0.12082510441541672,
                        0.24746382236480713,
                        -0.08073203265666962,
                        0.3497487008571625,
                        -0.052356794476509094,
                        -0.24992549419403076,
                        -0.3419187068939209,
                        -0.10335056483745575,
                        0.20327766239643097,
                        0.09612840414047241,
                        -0.22960153222084045,
                        0.2933165729045868
                    ],
                    [
                        0.15776202082633972,
                        0.22307024896144867,
                        0.23705270886421204,
                        -0.20942823588848114,
                        -0.272456556558609,
                        0.03252425789833069,
                        -0.05818115174770355,
                        -0.349924236536026,
                        -0.15415816009044647,
                        -0.14479081332683563,
                        0.051583822816610336,
                        -0.08850497007369995,
                        0.2530914843082428,
                        0.3356683552265167,
                        -0.33087366819381714,
                        -0.0747448205947876,
                        -0.16061042249202728,
                        -0.3190681040287018,
                        0.25247693061828613,
                        0.28071364760398865,
                        -0.21068711578845978,
                        -0.12709006667137146,
                        -0.002484219614416361,
                        0.12771658599376678,
                        0.003867268329486251,
                        -0.14984481036663055,
                        0.25561225414276123,
                        -0.2099025547504425,
                        0.18723256886005402,
                        -0.16728214919567108,
                        -0.040220778435468674,
                        -0.11852545291185379
                    ],
                    [
                        0.17135761678218842,
                        0.20729584991931915,
                        -0.20817306637763977,
                        0.10681098699569702,
                        -0.12956660985946655,
                        -0.2211848944425583,
                        -0.1618414968252182,
                        -0.22934898734092712,
                        -0.08898400515317917,
                        0.2097906619310379,
                        0.08385376632213593,
                        -0.17222057282924652,
                        -0.03634537756443024,
                        -0.02556956559419632,
                        -0.29840195178985596,
                        -0.14335621893405914,
                        0.1331832855939865,
                        0.22369228303432465,
                        0.09869249165058136,
                        0.24191001057624817,
                        -0.007713547442108393,
                        0.2982182800769806,
                        0.045110952109098434,
                        0.010010171681642532,
                        0.29161348938941956,
                        0.10398807376623154,
                        -0.29236122965812683,
                        -0.13075776398181915,
                        0.27135995030403137,
                        -0.16619744896888733,
                        0.101290762424469,
                        0.10414106398820877
                    ]
                ],
                [
                    -0.08084924519062042,
                    -0.01572292298078537,
                    -0.2153296321630478,
                    0.11957208067178726,
                    0.1117815300822258,
                    -0.007293301168829203,
                    -0.07951492071151733,
                    -0.21794083714485168,
                    0.24449799954891205,
                    -0.26319366693496704,
                    0.1448386162519455,
                    -0.11888357251882553,
                    -0.17057819664478302,
                    0.06351412087678909,
                    -0.1836557686328888,
                    0.08146041631698608,
                    0.0694311186671257,
                    -0.26250967383384705,
                    0.05886612460017204,
                    0.15058870613574982,
                    0.13994738459587097,
                    -0.044504836201667786,
                    -0.2898387014865875,
                    -0.05450168997049332,
                    0.12279180437326431,
                    -0.12900353968143463,
                    0.13420218229293823,
                    0.23545332252979279,
                    -0.18460845947265625,
                    0.0034866821952164173,
                    0.1461939662694931,
                    0.027710752561688423
                ]
            ]
        },
        {
            "name": "lstm2",
            "type": "lstm",
            "activation": "tanh",
            "shape": [
                null,
                1000,
                8
            ],
            "weights": [
                [
                    [
                        -0.06361860036849976,
                        0.1376427561044693,
                        0.06279880553483963,
                        0.1504257172346115,
                        -0.12014717608690262,
                        0.17238250374794006,
                        -0.2469467669725418,
                        0.07985179871320724,
                        -0.23921135067939758,
                        -0.3487936854362488,
                        -0.28392308950424194,
                        0.2791198194026947,
                        0.19128498435020447,
                        0.3317093551158905,
                        0.28323912620544434,
                        -0.315739244222641,
                        -0.2412758320569992,
                        -0.057128071784973145,
                        -0.22960898280143738,
                        0.24550622701644897,
                        -0.26728910207748413,
                        -0.17249920964241028,
                        -0.3415648937225342,
                        -0.2007283717393875,
                        0.2907896935939789,
                        0.28947538137435913,
                        0.2530868351459503,
                        0.2729882001876831,
                        0.3143748939037323,
                        -0.09053193777799606,
                        0.15556421875953674,
                        0.31499147415161133,
                        0.11696209758520126,
                        0.35343894362449646,
                        0.1833750307559967,
                        0.2197858691215515,
                        -0.12374091148376465,
                        0.16964463889598846,
                        0.04062559828162193,
                        -0.08443467319011688,
                        -0.19930152595043182,
                        -0.19838465750217438,
                        -0.2720525562763214,
                        0.23735110461711884,
                        0.25135213136672974,
                        -0.04023886099457741,
                        -0.2045964002609253,
                        0.2732633352279663,
                        0.22609347105026245,
                        0.026281045749783516,
                        -0.16692502796649933,
                        0.3249324858188629,
                        0.1445823609828949,
                        -0.2683984041213989,
                        0.3383798897266388,
                        0.2684791684150696,
                        -0.1288669854402542,
                        0.19875164330005646,
                        -0.20088514685630798,
                        -0.055406879633665085,
                        0.3002026081085205,
                        0.014608519151806831,
                        -0.25003936886787415,
                        -0.11816918104887009,
                        -0.09597035497426987,
                        -0.06821062415838242,
                        0.0338352769613266,
                        0.32697662711143494,
                        0.01892937161028385,
                        -0.21829800307750702,
                        0.01812112145125866,
                        0.16952431201934814,
                        0.17537669837474823,
                        -0.32312604784965515,
                        -0.06326570361852646,
                        -0.2627412676811218,
                        -0.1508561223745346,
                        0.12738294899463654,
                        -0.25106894969940186,
                        0.13142529129981995,
                        0.30008837580680847,
                        0.023188984021544456,
                        -0.23563897609710693,
                        -0.1266728639602661,
                        0.07720337063074112,
                        -0.269520103931427,
                        0.17564897239208221,
                        -0.32098037004470825,
                        -0.3398685157299042,
                        -0.3435339033603668,
                        -0.07172302156686783,
                        0.23774093389511108,
                        -0.3346308469772339,
                        0.2938690185546875,
                        -0.14142943918704987,
                        0.10355016589164734,
                        0.01612306572496891,
                        -0.31880584359169006,
                        0.29321208596229553,
                        0.19036850333213806,
                        0.3514305353164673,
                        0.17861947417259216,
                        -0.2333696186542511,
                        0.2950699031352997,
                        0.01900152675807476,
                        0.16766083240509033,
                        -0.2834894061088562,
                        -0.10169132798910141,
                        -0.3471461236476898,
                        -0.13770639896392822,
                        0.07627247273921967,
                        -0.2775965929031372,
                        0.11270016431808472,
                        0.18978986144065857,
                        0.04925327003002167,
                        -0.23655667901039124,
                        -0.2741169035434723,
                        -0.1090770959854126,
                        0.15519514679908752,
                        0.3487437963485718,
                        0.20330345630645752,
                        -0.039813388139009476,
                        0.12396163493394852,
                        -0.34685811400413513,
                        -0.30197039246559143,
                        0.16497081518173218,
                        -0.20025800168514252,
                        0.17009299993515015,
                        -0.24958470463752747,
                        -0.1751188486814499,
                        -0.2912180423736572,
                        0.18449854850769043,
                        -0.036025356501340866,
                        0.27209508419036865,
                        0.21880434453487396,
                        0.19563613831996918,
                        0.01136890146881342,
                        -0.10931092500686646,
                        -0.07687369734048843,
                        0.04698745533823967,
                        0.1752597838640213,
                        -0.2476959228515625,
                        0.29672953486442566,
                        -0.03844188526272774,
                        -0.29625850915908813,
                        -0.19129282236099243,
                        0.3128302991390228,
                        0.3233341872692108,
                        -0.32748931646347046,
                        0.2493606060743332,
                        0.1771865338087082,
                        0.2092747837305069,
                        0.29929327964782715,
                        -0.19054770469665527,
                        0.11164358258247375,
                        0.1446857899427414,
                        -0.10447268187999725,
                        0.11831775307655334,
                        -0.10172204673290253,
                        0.21858838200569153,
                        -0.09809501469135284,
                        -0.13180318474769592,
                        0.08900672197341919,
                        0.12540313601493835,
                        -0.17273615300655365,
                        0.03125353157520294,
                        0.20489682257175446,
                        -0.03517740219831467,
                        0.10759828984737396,
                        -0.08527246862649918,
                        0.12392032891511917,
                        -0.2561120092868805,
                        -0.2078995704650879,
                        -0.179460346698761,
                        0.3249194025993347,
                        -0.09513559192419052,
                        -0.0009653313900344074,
                        -0.17129503190517426,
                        0.3529488444328308,
                        0.34530502557754517,
                        -0.266645222902298,
                        -0.2866150736808777,
                        -0.26799097657203674,
                        -0.0017050928436219692,
                        -0.09012214094400406,
                        -0.23141683638095856,
                        -0.1268097460269928,
                        0.06679714471101761,
                        -0.18472836911678314,
                        0.07834125310182571,
                        -0.08107540756464005,
                        -0.17131900787353516,
                        0.04857310280203819,
                        0.2907121777534485,
                        -0.23903010785579681,
                        0.016417039558291435,
                        -0.1303790807723999,
                        0.3469441831111908,
                        -0.33543846011161804,
                        -0.338937908411026,
                        0.34838616847991943,
                        -0.22368967533111572,
                        0.06778443604707718,
                        -0.030513811856508255,
                        -0.07447849214076996,
                        -0.07896536588668823,
                        0.2246621698141098,
                        0.016898779198527336,
                        -0.3442247211933136,
                        -0.20872382819652557,
                        -0.12052645534276962,
                        0.1779138594865799,
                        -0.2287963181734085,
                        0.33337241411209106,
                        -0.07874670624732971,
                        -0.06348474323749542,
                        0.2770295739173889,
                        0.17769865691661835,
                        0.2998558282852173,
                        0.20451095700263977,
                        -0.10725180059671402,
                        -0.23457291722297668,
                        -0.02630545012652874,
                        0.29261407256126404,
                        -0.11865951865911484,
                        -0.3278747797012329,
                        0.1449315845966339,
                        0.3441741168498993,
                        -0.10065072029829025,
                        -0.2927505373954773,
                        -0.3206940293312073,
                        0.0886002629995346,
                        -0.02677096053957939,
                        -0.1785399466753006,
                        0.071464404463768,
                        0.1342650204896927,
                        0.2811877131462097,
                        0.2744925618171692,
                        -0.05292118340730667,
                        -0.31175175309181213,
                        -0.3194790184497833,
                        0.3301091194152832,
                        0.15629011392593384,
                        0.15411652624607086,
                        -0.30590182542800903,
                        0.3273960053920746,
                        0.33493635058403015,
                        0.3192093074321747,
                        -0.2982523441314697,
                        -0.1334039568901062,
                        -0.24316121637821198,
                        0.33480289578437805,
                        -0.1519148200750351,
                        -0.16141639649868011,
                        0.18523117899894714,
                        -0.16355109214782715
                    ]
                ],
                [
                    [
                        -0.17413286864757538,
                        0.1783027946949005,
                        -0.10065367072820663,
                        0.11179514229297638,
                        -0.20934368669986725,
                        -0.2812546491622925,
                        0.057152051478624344,
                        0.03755208104848862,
                        -0.06210038810968399,
                        0.3099367916584015,
                        0.17518295347690582,
                        0.24819089472293854,
                        -0.22413550317287445,
                        -0.3078741729259491,
                        0.286737859249115,
                        0.2139720916748047,
                        -0.045703787356615067,
                        0.16640587151050568,
                        0.26602596044540405,
                        0.054444920271635056,
                        -0.2712584137916565,
                        0.35213953256607056,
                        -0.19578315317630768,
                        0.33546948432922363,
                        0.15728263556957245,
                        0.062978096306324,
                        -0.1393248289823532,
                        -0.051644597202539444,
                        0.035454392433166504,
                        -0.06392842531204224,
                        0.016269948333501816,
                        0.005668329540640116
                    ],
                    [
                        -0.030925840139389038,
                        0.05005604028701782,
                        -0.24082906544208527,
                        0.032835640013217926,
                        0.050723057240247726,
                        -0.08504673093557358,
                        0.3255363404750824,
                        0.3324848413467407,
                        0.11458134651184082,
                        -0.23540014028549194,
                        0.10575903952121735,
                        -0.2621425986289978,
                        -0.038231026381254196,
                        -0.3243917226791382,
                        -0.26194173097610474,
                        -0.18330566585063934,
                        -0.2585855722427368,
                        0.30381593108177185,
                        0.29787424206733704,
                        0.21191473305225372,
                        -0.10333559662103653,
                        -0.20957283675670624,
                        -0.1483069658279419,
                        0.09400420635938644,
                        -0.15112173557281494,
                        0.04176267981529236,
                        0.2936759889125824,
                        -0.05991709604859352,
                        -0.1315184384584427,
                        0.23103861510753632,
                        0.06918788701295853,
                        -0.16259604692459106
                    ],
                    [
                        -0.03398338332772255,
                        0.3008233904838562,
                        0.30997899174690247,
                        0.13181132078170776,
                        0.11285121738910675,
                        0.1923220157623291,
                        -0.16878670454025269,
                        -0.048582546412944794,
                        0.13870869576931,
                        -0.03825795650482178,
                        0.14202214777469635,
                        0.08127205818891525,
                        0.04547716677188873,
                        0.34528401494026184,
                        -0.05664519593119621,
                        -0.06886310130357742,
                        0.10352408140897751,
                        0.23449814319610596,
                        0.032986778765916824,
                        -0.3187607526779175,
                        0.11595854163169861,
                        0.35296666622161865,
                        -0.10337458550930023,
                        -0.12942613661289215,
                        0.2818540632724762,
                        -0.16576409339904785,
                        -0.023267503827810287,
                        -0.0021964830812066793,
                        -0.29608461260795593,
                        0.020026369020342827,
                        0.012846569530665874,
                        0.23335710167884827
                    ],
                    [
                        -0.2754104733467102,
                        0.047526851296424866,
                        -0.0583878830075264,
                        -0.08614398539066315,
                        0.025032952427864075,
                        -0.14445507526397705,
                        0.12644067406654358,
                        0.27451232075691223,
                        0.2714642584323883,
                        -0.01898968406021595,
                        -0.21809564530849457,
                        0.05137759819626808,
                        0.30120784044265747,
                        -0.08817604929208755,
                        -0.2092108428478241,
                        0.2806403934955597,
                        -0.25138258934020996,
                        -0.18546032905578613,
                        0.08030011504888535,
                        0.31960076093673706,
                        -0.30974283814430237,
                        -0.33930179476737976,
                        -0.34441596269607544,
                        -0.14550372958183289,
                        -0.24808140099048615,
                        -0.12215087562799454,
                        0.16041165590286255,
                        -0.13356129825115204,
                        0.1430714726448059,
                        0.13355007767677307,
                        0.24478885531425476,
                        -0.3291720151901245
                    ],
                    [
                        0.29474619030952454,
                        -0.16357381641864777,
                        -0.32227271795272827,
                        -0.14064361155033112,
                        -0.2292262464761734,
                        0.2970000207424164,
                        -0.0886383205652237,
                        -0.10887917131185532,
                        -0.05267449840903282,
                        0.15775902569293976,
                        0.22754539549350739,
                        -0.16547590494155884,
                        -0.16868749260902405,
                        0.017659571021795273,
                        -0.2020033448934555,
                        -0.07996327430009842,
                        -0.28054720163345337,
                        -0.03875647112727165,
                        -0.1530609130859375,
                        0.12718413770198822,
                        0.19381733238697052,
                        -0.31500545144081116,
                        0.018373707309365273,
                        -0.22620542347431183,
                        0.0010048651602119207,
                        0.09576134383678436,
                        0.350126177072525,
                        0.08286828547716141,
                        0.04523996263742447,
                        0.15404188632965088,
                        -0.14926858246326447,
                        0.21437092125415802
                    ],
                    [
                        -0.1559600681066513,
                        0.3344613313674927,
                        -0.022225549444556236,
                        -0.3304693400859833,
                        0.33811312913894653,
                        -0.24330005049705505,
                        -0.07667240500450134,
                        0.28459709882736206,
                        -0.014020191505551338,
                        0.24171601235866547,
                        0.3348698616027832,
                        0.1231057196855545,
                        0.2264990508556366,
                        0.09585268050432205,
                        0.08386535942554474,
                        0.03219306841492653,
                        0.021538177505135536,
                        -0.11125790327787399,
                        0.26687708497047424,
                        -0.24770401418209076,
                        0.18404138088226318,
                        0.21715117990970612,
                        0.0625290647149086,
                        -0.24508985877037048,
                        0.31781619787216187,
                        -0.24584871530532837,
                        -0.10807008296251297,
                        0.013322028331458569,
                        -0.1415923833847046,
                        -0.0867500975728035,
                        -0.18793831765651703,
                        0.34979042410850525
                    ],
                    [
                        0.12541064620018005,
                        0.0836791917681694,
                        0.22203607857227325,
                        -0.26634481549263,
                        -0.2055910974740982,
                        -0.296904057264328,
                        0.25996899604797363,
                        -0.3420029282569885,
                        0.24211733043193817,
                        -0.05603954568505287,
                        0.030678311362862587,
                        -0.3162297010421753,
                        -0.044913239777088165,
                        0.24032162129878998,
                        0.3318621814250946,
                        -0.24714532494544983,
                        0.28031253814697266,
                        -0.28430038690567017,
                        -0.14711657166481018,
                        -0.07615804672241211,
                        0.21927575767040253,
                        0.03695090115070343,
                        -0.00029932690085843205,
                        -0.05693971738219261,
                        0.35156822204589844,
                        0.05833477899432182,
                        0.19212378561496735,
                        0.22411388158798218,
                        -0.11953815072774887,
                        0.15297013521194458,
                        0.1540621519088745,
                        0.0715380385518074
                    ],
                    [
                        0.3075149357318878,
                        -0.3449552655220032,
                        0.0918533205986023,
                        0.1532309353351593,
                        0.2907978594303131,
                        -0.15942399203777313,
                        -0.273998886346817,
                        -0.05095541104674339,
                        -0.09566204994916916,
                        -0.2929121255874634,
                        -0.3302359879016876,
                        0.08052513748407364,
                        -0.1679123193025589,
                        0.301748663187027,
                        -0.28323301672935486,
                        0.3009590804576874,
                        -0.1000499576330185,
                        0.0001460809726268053,
                        -0.24559684097766876,
                        0.3067358136177063,
                        -0.2254069447517395,
                        0.02039625123143196,
                        0.11417311429977417,
                        -0.06253142654895782,
                        -0.20480012893676758,
                        0.15299127995967865,
                        -0.10112659633159637,
                        -0.07156109064817429,
                        0.09246175736188889,
                        0.26089879870414734,
                        -0.30770251154899597,
                        -0.02355608344078064
                    ]
                ],
                [
                    0.3480202257633209,
                    -0.15109185874462128,
                    -0.028331490233540535,
                    -0.15482278168201447,
                    -0.04880495369434357,
                    0.07684090733528137,
                    0.04722107574343681,
                    -0.06677737832069397,
                    -0.3534970283508301,
                    0.018103377893567085,
                    -0.010472944006323814,
                    0.053187426179647446,
                    0.270910382270813,
                    0.3436572253704071,
                    -0.2097570151090622,
                    -0.022045625373721123,
                    -0.14165951311588287,
                    -0.3258509337902069,
                    -0.2572663426399231,
                    0.3318314552307129,
                    0.20614323019981384,
                    0.1899115890264511,
                    0.19648489356040955,
                    -0.28089073300361633,
                    0.03712989762425423,
                    0.3290573060512543,
                    -0.19731315970420837,
                    0.31451907753944397,
                    0.09292743355035782,
                    0.24874019622802734,
                    -0.15145790576934814,
                    0.162994384765625
                ]
            ]
        },
        {
            "name": "dense",
            "type": "dense",
            "activation": "",
            "shape": [
                null,
                1000,
                1
            ],
            "weights": [
                [
                    [
                        -0.13772843778133392
                    ],
                    [
                        -0.2366744875907898
                    ],
                    [
                        -0.2948282063007355
                    ],
                    [
                        0.2821406424045563
                    ],
                    [
                        -0.04464801028370857
                    ],
                    [
                        -0.009808329865336418
                    ],
                    [
                        -0.1759527623653412
                    ],
                    [
                        0.2464277744293213
                    ]
                ],
                [
                    -0.20236454904079437
                ]
            ]
        }
    ]
}