{
    "in_shape": [
        null,
        null,
        1
    ],
    "layers": [
        {
            "type": "lstm",
            "activation": "tanh",
            "shape": [
                null,
                null,
                8
            ],
            "weights": [
                [
                    [
                        -0.11731097102165222,
                        -0.24536597728729248,
                        -0.08287802338600159,
                        -0.24852502346038818,
                        0.17160600423812866,
                        -0.012547940015792847,
                        -0.16823285818099976,
                        0.20108157396316528,
                        -0.3718709349632263,
                        0.3479154109954834,
                        -0.2966933846473694,
                        -0.1465408205986023,
                        0.3847097158432007,
                        0.12157464027404785,
                        0.06745123863220215,
                        -0.35288363695144653,
                        0.3889281749725342,
                        0.3788498640060425,
                        0.004335582256317139,
                        0.374961793422699,
                        -0.12560120224952698,
                        0.4018172025680542,
                        0.19477033615112305,
                        -0.268630713224411,
                        0.264703631401062,
                        -0.3788459897041321,
                        0.028947442770004272,
                        0.4116154909133911,
                        -0.3819016218185425,
                        -0.15227437019348145,
                        -0.37784522771835327,
                        -0.19925065338611603
                    ]
                ],
                [
                    [
                        -0.10127377510070801,
                        -0.033281680196523666,
                        -0.08172455430030823,
                        -0.10725052654743195,
                        0.01780541241168976,
                        -0.20782877504825592,
                        0.13465681672096252,
                        0.1996413767337799,
                        0.2472214698791504,
                        -0.36179789900779724,
                        0.10668230801820755,
                        -0.1252317875623703,
                        -0.21540096402168274,
                        0.04588817432522774,
                        0.11882267892360687,
                        0.074375681579113,
                        -0.23545239865779877,
                        -0.0587557777762413,
                        0.04763909801840782,
                        0.2215978056192398,
                        0.15764915943145752,
                        0.12681347131729126,
                        -0.0934251919388771,
                        0.13515518605709076,
                        0.1198011189699173,
                        -0.3914168179035187,
                        0.18443050980567932,
                        0.09675824642181396,
                        0.1082676574587822,
                        0.203521266579628,
                        0.18097563087940216,
                        0.32664182782173157
                    ],
                    [
                        -0.022270483896136284,
                        0.0034998832270503044,
                        0.031967174261808395,
                        0.13492077589035034,
                        0.31326383352279663,
                        0.020159658044576645,
                        0.08754308521747589,
                        0.1560237556695938,
                        -0.20613759756088257,
                        -0.16215601563453674,
                        -0.11940266191959381,
                        0.06976234912872314,
                        -0.06415893137454987,
                        0.08466169238090515,
                        -0.32320648431777954,
                        0.15901899337768555,
                        0.21369679272174835,
                        0.0030310400761663914,
                        0.033359408378601074,
                        -0.09971235692501068,
                        -0.10864217579364777,
                        -0.3264407515525818,
                        -0.09751992672681808,
                        0.05131120607256889,
                        -0.24746373295783997,
                        -0.12640678882598877,
                        -0.12559662759304047,
                        0.020445145666599274,
                        -0.2596299350261688,
                        -0.2088678926229477,
                        0.2252325415611267,
                        0.4223276972770691
                    ],
                    [
                        -0.17709890007972717,
                        -0.22837476432323456,
                        -0.10543136298656464,
                        -0.2792888879776001,
                        0.11735892295837402,
                        -0.09315227717161179,
                        0.09554843604564667,
                        0.0437793955206871,
                        0.036923911422491074,
                        0.09712886065244675,
                        0.04041823744773865,
                        -0.052156537771224976,
                        -0.026971979066729546,
                        -0.001700631808489561,
                        -0.2770717442035675,
                        -0.18200822174549103,
                        -0.009696714580059052,
                        -0.1902841031551361,
                        0.4454175531864166,
                        -0.2509702742099762,
                        -0.15474644303321838,
                        -0.0607081837952137,
                        0.3148868978023529,
                        -0.1531670242547989,
                        0.21164996922016144,
                        0.03798731416463852,
                        -0.15701398253440857,
                        -0.054517507553100586,
                        -0.030603211373090744,
                        0.3192542791366577,
                        -0.16121509671211243,
                        0.1320735514163971
                    ],
                    [
                        -0.10304256528615952,
                        0.1550205945968628,
                        -0.008875718340277672,
                        -0.017181038856506348,
                        0.10604733228683472,
                        -0.18502067029476166,
                        -0.11056363582611084,
                        -0.03548081964254379,
                        -0.3489895761013031,
                        0.30860161781311035,
                        0.161228209733963,
                        -0.10699772089719772,
                        -0.0945223942399025,
                        0.4258634150028229,
                        -0.011564561165869236,
                        0.3080410659313202,
                        -0.1260840892791748,
                        -0.016999147832393646,
                        0.11880216747522354,
                        0.04735339432954788,
                        0.39584413170814514,
                        0.043061889708042145,
                        -0.1370910406112671,
                        -0.32749924063682556,
                        0.06368888169527054,
                        -0.021226312965154648,
                        -0.0124125424772501,
                        0.14014579355716705,
                        -0.049994584172964096,
                        -0.023107251152396202,
                        -0.14640110731124878,
                        0.017847834154963493
                    ],
                    [
                        0.03212503343820572,
                        -0.36721670627593994,
                        0.3672254979610443,
                        0.07430759072303772,
                        0.24218285083770752,
                        -0.17953996360301971,
                        0.007954312488436699,
                        0.22483223676681519,
                        0.06171628087759018,
                        -0.111507847905159,
                        0.39226824045181274,
                        -0.14875054359436035,
                        0.24686644971370697,
                        -0.04081480950117111,
                        0.15895728766918182,
                        0.007837839424610138,
                        0.24065107107162476,
                        0.06939932703971863,
                        -0.2799645960330963,
                        0.0369202122092247,
                        -0.0022878721356391907,
                        0.11377745121717453,
                        0.16150040924549103,
                        -0.2192600667476654,
                        0.09006959199905396,
                        0.025417014956474304,
                        -0.10121286660432816,
                        0.1365249902009964,
                        -0.17906425893306732,
                        -0.0123369712382555,
                        -0.045303210616111755,
                        -0.023905087262392044
                    ],
                    [
                        -0.184334397315979,
                        -0.13342712819576263,
                        0.016137585043907166,
                        0.014008717611432076,
                        0.05100907012820244,
                        -0.21732835471630096,
                        -0.012716421857476234,
                        0.3477219045162201,
                        0.10228410363197327,
                        0.2948508858680725,
                        -0.13777291774749756,
                        0.04399004578590393,
                        -0.021049434319138527,
                        0.09541734308004379,
                        -0.39030811190605164,
                        -0.1901688426733017,
                        -0.04285476729273796,
                        -0.16219714283943176,
                        -0.43206891417503357,
                        -0.07793225347995758,
                        0.15230047702789307,
                        0.0660271942615509,
                        -0.03816397488117218,
                        0.07969377934932709,
                        -0.042998917400836945,
                        -0.010671649128198624,
                        0.2369323968887329,
                        -0.2856484353542328,
                        0.21054793894290924,
                        -0.12426342070102692,
                        -0.060070477426052094,
                        -0.03389163687825203
                    ],
                    [
                        0.038758017122745514,
                        -0.23418761789798737,
                        0.3302959203720093,
                        -0.05561356991529465,
                        -0.06340864300727844,
                        0.2616804838180542,
                        0.2802906334400177,
                        -0.21837425231933594,
                        -0.17292028665542603,
                        0.1346682608127594,
                        -0.1299361139535904,
                        0.16143617033958435,
                        0.24288134276866913,
                        0.2678573429584503,
                        0.1011289730668068,
                        -0.1592990905046463,
                        -0.019677286967635155,
                        -0.4710066616535187,
                        -0.05041983723640442,
                        0.19709083437919617,
                        0.025897594168782234,
                        0.010137772187590599,
                        -0.12944160401821136,
                        0.06652265787124634,
                        0.04029030352830887,
                        -0.016120001673698425,
                        0.02148977294564247,
                        0.1215936616063118,
                        0.07537508755922318,
                        0.1307062804698944,
                        0.139274001121521,
                        0.17471718788146973
                    ],
                    [
                        -0.0632738471031189,
                        0.09509571641683578,
                        0.005048433318734169,
                        0.04519723728299141,
                        -0.13992872834205627,
                        0.020616084337234497,
                        0.017414800822734833,
                        0.1543893963098526,
                        -0.28450071811676025,
                        -0.0017864201217889786,
                        0.12180009484291077,
                        0.1881556212902069,
                        -0.048552561551332474,
                        -0.18399253487586975,
                        -0.10463560372591019,
                        0.03822588548064232,
                        -0.21630865335464478,
                        0.1692260056734085,
                        -0.19130003452301025,
                        0.40035971999168396,
                        -0.2044299840927124,
                        -0.06404368579387665,
                        0.07890316843986511,
                        -0.34570690989494324,
                        -0.0075460560619831085,
                        0.2691006064414978,
                        -0.08206507563591003,
                        -0.21211491525173187,
                        0.14297078549861908,
                        0.31286054849624634,
                        0.17520339787006378,
                        0.2092314511537552
                    ]
                ],
                [
                    0.04883558675646782,
                    -0.08419084548950195,
                    0.014836263842880726,
                    -0.04533681273460388,
                    0.046810563653707504,
                    0.018787754699587822,
                    -0.01672271080315113,
                    -0.0020380632486194372,
                    0.029827816411852837,
                    -0.00477270781993866,
                    -0.06106051802635193,
                    0.0003030999796465039,
                    -0.037035293877124786,
                    -0.017859485000371933,
                    -0.04334474354982376,
                    0.031113749369978905,
                    0.0064749764278531075,
                    0.04207169637084007,
                    0.002343400614336133,
                    0.008305324241518974,
                    0.019129445776343346,
                    -0.05447409301996231,
                    -0.008968674577772617,
                    0.02615872025489807,
                    0.002741784555837512,
                    0.09402105212211609,
                    -0.06001957878470421,
                    0.04410819336771965,
                    0.005576908588409424,
                    -0.0614159069955349,
                    0.016165658831596375,
                    -0.0940740779042244
                ]
            ]
        },
        {
            "type": "dense",
            "activation": "",
            "shape": [
                null,
                null,
                1
            ],
            "weights": [
                [
                    [
                        -0.3998255729675293
                    ],
                    [
                        -0.3008609712123871
                    ],
                    [
                        0.3317834138870239
                    ],
                    [
                        -0.0030416229274123907
                    ],
                    [
                        0.3594125807285309
                    ],
                    [
                        0.3605520725250244
                    ],
                    [
                        0.6010988354682922
                    ],
                    [
                        0.1379767507314682
                    ]
                ],
                [
                    0.022848142310976982
                ]
            ]
        }
    ]
}