{
    "in_shape": [
        null,
        null,
        1
    ],
    "layers": [
        {
            "type": "time-distributed-dense",
            "activation": "tanh",
            "shape": [
                null,
                null,
                8
            ],
            "weights": [
                [
                    [
                        0.06146838143467903,
                        -0.13778002560138702,
                        -0.013835598714649677,
                        -0.02434897981584072,
                        -0.014357427135109901,
                        -0.047107353806495667,
                        -0.02034047245979309,
                        -0.12949176132678986
                    ]
                ],
                [
                    -0.03799887374043465,
                    0.07130146026611328,
                    -0.047429267317056656,
                    -0.06590105593204498,
                    0.017264721915125847,
                    0.00833134725689888,
                    0.003938520327210426,
                    -0.02083538845181465
                ]
            ]
        },
        {
            "type": "lstm",
            "activation": "tanh",
            "shape": [
                null,
                null,
                8
            ],
            "weights": [
                [
                    [
                        -0.30470341444015503,
                        -0.2364351451396942,
                        -0.35933583974838257,
                        -0.179513618350029,
                        0.07103389501571655,
                        0.019521862268447876,
                        0.11116576194763184,
                        -0.21873493492603302,
                        0.03841546177864075,
                        0.08333486318588257,
                        0.2838202714920044,
                        0.22855675220489502,
                        -0.3755958378314972,
                        0.08450117707252502,
                        0.17587333917617798,
                        -0.3848413825035095,
                        -0.1310620903968811,
                        -0.31837791204452515,
                        -0.25288647413253784,
                        -0.09039455652236938,
                        0.30502021312713623,
                        0.008185863494873047,
                        -0.05112457275390625,
                        0.2137521505355835,
                        -0.3790605962276459,
                        0.29224973917007446,
                        -9.641051292419434e-05,
                        0.3324461579322815,
                        -0.05054771900177002,
                        -0.07200253009796143,
                        0.06672525405883789,
                        -0.049749284982681274
                    ],
                    [
                        0.11191704869270325,
                        -0.28774717450141907,
                        -0.2083573192358017,
                        0.2762242555618286,
                        0.36736857891082764,
                        0.2404407262802124,
                        -0.11451077461242676,
                        0.1373184323310852,
                        -0.23969794809818268,
                        0.3252109885215759,
                        0.2882370352745056,
                        0.14370882511138916,
                        0.3075375556945801,
                        0.1695951223373413,
                        0.3240050673484802,
                        0.04986089468002319,
                        0.14372730255126953,
                        0.10474681854248047,
                        -0.3158108592033386,
                        0.0725986659526825,
                        -0.19202262163162231,
                        -0.30233341455459595,
                        -0.29323646426200867,
                        0.36875057220458984,
                        0.3225117325782776,
                        0.3214663863182068,
                        -0.2792532742023468,
                        -0.09744971990585327,
                        0.27604347467422485,
                        0.2916680574417114,
                        0.1813848614692688,
                        0.3043406009674072
                    ],
                    [
                        -0.15369929373264313,
                        -0.3449671268463135,
                        -0.3192768096923828,
                        -0.09851706027984619,
                        0.17889106273651123,
                        0.329453706741333,
                        0.35613757371902466,
                        -0.10566198825836182,
                        0.11267107725143433,
                        -0.37489497661590576,
                        -0.32301968336105347,
                        -0.13682830333709717,
                        -0.1776183694601059,
                        0.26396411657333374,
                        -0.32881784439086914,
                        0.030642271041870117,
                        -0.09301882982254028,
                        -0.14761239290237427,
                        -0.2542453408241272,
                        -0.1518784612417221,
                        -0.2083088457584381,
                        0.15821683406829834,
                        0.1862187385559082,
                        -0.008071541786193848,
                        0.14792382717132568,
                        -0.16027744114398956,
                        -0.35384488105773926,
                        -0.16860605776309967,
                        -0.18241353332996368,
                        -0.09257715940475464,
                        0.09353676438331604,
                        -0.0686226487159729
                    ],
                    [
                        0.3120812773704529,
                        0.13941895961761475,
                        0.05673518776893616,
                        -0.27519911527633667,
                        0.17085230350494385,
                        -0.24368570744991302,
                        0.12693685293197632,
                        0.14657974243164062,
                        -0.216678649187088,
                        -0.2247462123632431,
                        -0.24732673168182373,
                        0.21743839979171753,
                        0.024845510721206665,
                        0.08294287323951721,
                        -0.3791591227054596,
                        -0.05713677406311035,
                        0.36552637815475464,
                        0.039258986711502075,
                        0.3259255290031433,
                        0.24027615785598755,
                        -0.12984958291053772,
                        -0.12510749697685242,
                        -0.3457082509994507,
                        -0.11778971552848816,
                        -0.305860698223114,
                        0.37297236919403076,
                        0.21462124586105347,
                        0.06836777925491333,
                        -0.2326074242591858,
                        -0.23158983886241913,
                        0.3096228837966919,
                        0.10823613405227661
                    ],
                    [
                        -0.28906622529029846,
                        0.007339298725128174,
                        0.2060357928276062,
                        -0.32125425338745117,
                        -0.21439482271671295,
                        0.3629702925682068,
                        0.20179671049118042,
                        0.2837437391281128,
                        -0.2714114487171173,
                        0.2374745011329651,
                        0.1407129168510437,
                        0.054965317249298096,
                        0.02301865816116333,
                        0.06672286987304688,
                        -0.11751353740692139,
                        0.1865525245666504,
                        0.2536664605140686,
                        0.17972350120544434,
                        -0.09868282079696655,
                        0.10813972353935242,
                        -0.03669852018356323,
                        0.23715722560882568,
                        -0.21820038557052612,
                        -0.3017238974571228,
                        -0.035930365324020386,
                        -0.3643761873245239,
                        0.32578587532043457,
                        -0.15112987160682678,
                        -0.1683739274740219,
                        -0.2440575659275055,
                        0.10630062222480774,
                        -0.1128486692905426
                    ],
                    [
                        0.12759381532669067,
                        0.17583942413330078,
                        -0.12620246410369873,
                        -0.05852952599525452,
                        0.20111554861068726,
                        -0.3110101819038391,
                        0.03604742884635925,
                        0.04254138469696045,
                        -0.3218017518520355,
                        0.043688416481018066,
                        -0.11798280477523804,
                        0.10192501544952393,
                        -0.14825037121772766,
                        0.11811316013336182,
                        0.33704525232315063,
                        -0.36161965131759644,
                        0.1258399486541748,
                        0.2255457043647766,
                        0.0611116886138916,
                        0.05752727389335632,
                        0.04649662971496582,
                        -0.0705731213092804,
                        -0.23619063198566437,
                        0.2963332533836365,
                        -0.1794842630624771,
                        0.19863474369049072,
                        0.32835036516189575,
                        0.06358388066291809,
                        -0.16670489311218262,
                        -0.022836029529571533,
                        -0.053552716970443726,
                        -0.1440782994031906
                    ],
                    [
                        0.18903976678848267,
                        0.32822948694229126,
                        -0.01633995771408081,
                        -0.29188406467437744,
                        0.1242709755897522,
                        -0.12353819608688354,
                        -0.019457131624221802,
                        0.2621533274650574,
                        -0.31730279326438904,
                        -0.26984602212905884,
                        -0.3819328844547272,
                        -0.1517193615436554,
                        -0.33895474672317505,
                        -0.1731605976819992,
                        0.2092927098274231,
                        0.09133964776992798,
                        -0.061883002519607544,
                        -0.2089024931192398,
                        -0.04799380898475647,
                        -0.025347083806991577,
                        0.012257635593414307,
                        0.38356316089630127,
                        0.33938735723495483,
                        0.3270024061203003,
                        0.12807482481002808,
                        -0.045276641845703125,
                        -0.08236297965049744,
                        0.14606904983520508,
                        -0.2968370318412781,
                        -0.3532186448574066,
                        0.3794722557067871,
                        -0.28600621223449707
                    ],
                    [
                        0.3459540605545044,
                        0.07199597358703613,
                        -0.2810274660587311,
                        0.0710630714893341,
                        0.35663992166519165,
                        0.27593034505844116,
                        0.36820030212402344,
                        0.06665131449699402,
                        -0.12172567844390869,
                        0.10424929857254028,
                        -0.03436759114265442,
                        0.28969860076904297,
                        0.3217710852622986,
                        -0.19325654208660126,
                        0.20640921592712402,
                        -0.17661777138710022,
                        -0.01512172818183899,
                        0.07225066423416138,
                        -0.1271982491016388,
                        0.07619649171829224,
                        -0.09630075097084045,
                        0.18184471130371094,
                        0.11751675605773926,
                        0.23578029870986938,
                        0.08700460195541382,
                        -0.33341237902641296,
                        0.3226415514945984,
                        0.09371525049209595,
                        0.17475926876068115,
                        -0.21087835729122162,
                        0.0041176676750183105,
                        -0.2887803614139557
                    ]
                ],
                [
                    [
                        0.34533393383026123,
                        -0.05198299512267113,
                        0.16773822903633118,
                        0.09163376688957214,
                        -0.051940687000751495,
                        0.06434106081724167,
                        -0.1004091203212738,
                        0.09125310182571411,
                        0.35265401005744934,
                        -0.32605910301208496,
                        0.06413119286298752,
                        -0.17728888988494873,
                        -0.0005479786777868867,
                        -0.1769036203622818,
                        -0.17119891941547394,
                        0.0871095210313797,
                        -0.2647572457790375,
                        0.008488836698234081,
                        0.0831531211733818,
                        -0.08982253819704056,
                        0.3465956747531891,
                        0.03688007965683937,
                        -0.06470636278390884,
                        -0.2632637023925781,
                        -0.005972954910248518,
                        -0.04358738288283348,
                        0.039596427232027054,
                        0.07095004618167877,
                        0.4062914252281189,
                        -0.06268024444580078,
                        -0.1541266143321991,
                        -0.02046104148030281
                    ],
                    [
                        0.23682065308094025,
                        0.1869947910308838,
                        -0.3595958948135376,
                        0.1724439263343811,
                        -0.06627051532268524,
                        -0.009135313332080841,
                        0.22505483031272888,
                        0.19975528120994568,
                        -0.1664101928472519,
                        0.014529522508382797,
                        -0.18319913744926453,
                        0.06050199642777443,
                        -0.23967254161834717,
                        -0.05476018041372299,
                        0.19286960363388062,
                        0.17961087822914124,
                        -0.1025596410036087,
                        -0.08708707243204117,
                        0.07800468802452087,
                        -0.12591105699539185,
                        0.03992120176553726,
                        0.32174283266067505,
                        -0.09844288975000381,
                        0.09069262444972992,
                        -0.19493304193019867,
                        -0.2146410048007965,
                        0.19007614254951477,
                        -0.18011127412319183,
                        0.1063225120306015,
                        0.2043449878692627,
                        0.09593741595745087,
                        0.28614017367362976
                    ],
                    [
                        -0.012756356038153172,
                        0.15990494191646576,
                        0.2972762882709503,
                        -0.04882596433162689,
                        -0.18701301515102386,
                        -0.18909569084644318,
                        0.29556071758270264,
                        0.09943945705890656,
                        -0.06874576210975647,
                        0.010611914098262787,
                        -0.3330410420894623,
                        0.09784538298845291,
                        0.08348020166158676,
                        -0.05399065092206001,
                        -0.2929082214832306,
                        0.19038620591163635,
                        0.05189492926001549,
                        0.21585609018802643,
                        0.04072790965437889,
                        0.19185669720172882,
                        0.2580207884311676,
                        0.12842130661010742,
                        0.15439343452453613,
                        0.1167885884642601,
                        0.07544318586587906,
                        0.1754160076379776,
                        0.25327038764953613,
                        0.009456759318709373,
                        -0.02407931722700596,
                        -0.020353704690933228,
                        0.29953381419181824,
                        -0.24201157689094543
                    ],
                    [
                        0.023134442046284676,
                        0.27296486496925354,
                        0.14128755033016205,
                        0.08895208686590195,
                        -0.10858161747455597,
                        0.005133350379765034,
                        -0.30867111682891846,
                        -0.05679813027381897,
                        0.012553342618048191,
                        0.13699477910995483,
                        0.07916257530450821,
                        0.12172555923461914,
                        0.3161156475543976,
                        -0.1180880144238472,
                        0.07778249680995941,
                        0.20920054614543915,
                        0.31712111830711365,
                        0.23619182407855988,
                        0.34826570749282837,
                        0.11695750802755356,
                        0.0890752524137497,
                        -0.1832345724105835,
                        -0.08045847713947296,
                        -0.0019810465164482594,
                        -0.17465481162071228,
                        -0.20892246067523956,
                        0.0878969356417656,
                        -0.30043619871139526,
                        -0.03930085152387619,
                        -0.026190638542175293,
                        -0.21136517822742462,
                        0.15718954801559448
                    ],
                    [
                        0.09777665883302689,
                        0.21560892462730408,
                        -0.03437665104866028,
                        -0.13997173309326172,
                        -0.40564167499542236,
                        -0.18612323701381683,
                        0.030862098559737206,
                        -0.19283118844032288,
                        -0.03874113783240318,
                        -0.13076627254486084,
                        0.03708618879318237,
                        -0.11038483679294586,
                        -0.1827055960893631,
                        -0.003094334155321121,
                        -0.08067775517702103,
                        0.3023478388786316,
                        0.15824995934963226,
                        -0.45451611280441284,
                        0.14105060696601868,
                        -0.031130047515034676,
                        -0.03354785591363907,
                        -0.07621510326862335,
                        -0.10169581323862076,
                        -0.030141666531562805,
                        -0.12282096594572067,
                        -0.09406466037034988,
                        -0.17869015038013458,
                        0.3240010738372803,
                        -0.23159512877464294,
                        -0.12797251343727112,
                        -0.0632004365324974,
                        -0.12982922792434692
                    ],
                    [
                        0.1269533485174179,
                        -0.07182691246271133,
                        -0.01799604669213295,
                        0.04189059138298035,
                        -0.31671255826950073,
                        -0.10406524688005447,
                        -0.19468337297439575,
                        -0.08475261926651001,
                        0.035184599459171295,
                        0.2695995569229126,
                        -0.2076563835144043,
                        0.17285466194152832,
                        0.09161229431629181,
                        0.5687447786331177,
                        0.09796936810016632,
                        -0.12127053737640381,
                        -0.15643443167209625,
                        0.17603176832199097,
                        0.02386176958680153,
                        -0.23152469098567963,
                        0.09888206422328949,
                        0.15852336585521698,
                        -0.14503875374794006,
                        -0.19463708996772766,
                        0.06186354532837868,
                        -0.18423150479793549,
                        -0.1196635290980339,
                        0.023478709161281586,
                        0.01334032416343689,
                        0.0032792300917208195,
                        0.024485554546117783,
                        -0.24586117267608643
                    ],
                    [
                        -0.1466277688741684,
                        0.3057748079299927,
                        -0.3077281415462494,
                        -0.1921413093805313,
                        0.008548632264137268,
                        -0.01360460463911295,
                        0.058084409683942795,
                        -0.023367945104837418,
                        0.24297885596752167,
                        0.04271519556641579,
                        0.14867517352104187,
                        0.11619918793439865,
                        -0.034752145409584045,
                        -0.0305463969707489,
                        0.06528516113758087,
                        -0.10405844449996948,
                        -0.1404753029346466,
                        0.05052097141742706,
                        0.14317725598812103,
                        -0.03312686085700989,
                        0.32672110199928284,
                        0.13280905783176422,
                        0.46143457293510437,
                        -0.11403795331716537,
                        0.24296243488788605,
                        -0.07064425945281982,
                        -0.13381846249103546,
                        -0.02834775671362877,
                        -0.18626363575458527,
                        -0.29784661531448364,
                        0.03357560187578201,
                        0.18451961874961853
                    ],
                    [
                        -0.29631850123405457,
                        0.017527678981423378,
                        -0.13415244221687317,
                        0.24898973107337952,
                        -0.08505668491125107,
                        -0.1938190460205078,
                        -0.10811445862054825,
                        -0.10398873686790466,
                        0.18725654482841492,
                        0.04093990474939346,
                        0.07676897197961807,
                        0.24142912030220032,
                        0.14367015659809113,
                        0.1329801082611084,
                        -0.034535136073827744,
                        0.2793331444263458,
                        0.07767578959465027,
                        -0.15280015766620636,
                        -0.37539538741111755,
                        -0.003830358386039734,
                        0.06320027261972427,
                        -0.05158333480358124,
                        0.264992356300354,
                        -0.042687710374593735,
                        -0.29842060804367065,
                        0.15474070608615875,
                        -0.030151162296533585,
                        0.10336979478597641,
                        0.36658918857574463,
                        0.10954353213310242,
                        0.08881046622991562,
                        0.13505765795707703
                    ]
                ],
                [
                    -0.031229058280587196,
                    0.05029887706041336,
                    -0.042562615126371384,
                    -0.02948867157101631,
                    -0.05481826141476631,
                    0.034425150603055954,
                    0.056555550545454025,
                    0.02600419893860817,
                    0.0041213869117200375,
                    -0.05708131939172745,
                    0.03612057492136955,
                    0.03758568689227104,
                    -0.06886150687932968,
                    0.05056383088231087,
                    -0.014912639744579792,
                    -0.04579312726855278,
                    0.02893003262579441,
                    0.0021561882458627224,
                    -0.043701134622097015,
                    0.03932066634297371,
                    -0.03442198038101196,
                    -0.05320466309785843,
                    -0.006092192605137825,
                    -0.03535712510347366,
                    0.033980414271354675,
                    -0.06205792352557182,
                    -0.015554291196167469,
                    0.012166911736130714,
                    -0.02086441032588482,
                    0.028482584282755852,
                    -0.0007622177363373339,
                    0.028209704905748367
                ]
            ]
        },
        {
            "type": "dense",
            "activation": "sigmoid",
            "shape": [
                null,
                null,
                8
            ],
            "weights": [
                [
                    [
                        0.39747488498687744,
                        0.13918595016002655,
                        -0.5074996948242188,
                        -0.16012179851531982,
                        -0.008386095054447651,
                        0.567884087562561,
                        0.1765546202659607,
                        -0.43094298243522644
                    ],
                    [
                        -0.14296184480190277,
                        0.28415605425834656,
                        -0.10471753031015396,
                        0.5453307032585144,
                        -0.5982213616371155,
                        -0.2532595098018646,
                        0.11829410493373871,
                        -0.39301812648773193
                    ],
                    [
                        -0.14789699018001556,
                        -0.7425357103347778,
                        -0.6035566926002502,
                        0.14215584099292755,
                        -0.03178811073303223,
                        -0.18601101636886597,
                        0.055451296269893646,
                        0.05994000285863876
                    ],
                    [
                        -0.5343930125236511,
                        0.36212167143821716,
                        -0.32814663648605347,
                        -0.5014982223510742,
                        -0.06347030401229858,
                        -0.15208451449871063,
                        0.41147828102111816,
                        0.16624890267848969
                    ],
                    [
                        0.37951821088790894,
                        0.03200684115290642,
                        -0.0015153884887695312,
                        -0.18061736226081848,
                        0.36266785860061646,
                        -0.694084882736206,
                        0.20740504562854767,
                        -0.40745308995246887
                    ],
                    [
                        0.01639176532626152,
                        -0.0924440249800682,
                        -0.029921332374215126,
                        -0.5528588891029358,
                        -0.46150732040405273,
                        -0.1506885290145874,
                        -0.631976842880249,
                        -0.22259017825126648
                    ],
                    [
                        -0.3201378583908081,
                        -0.4294295310974121,
                        0.4853190779685974,
                        -0.1925823986530304,
                        -0.08016765862703323,
                        0.21530790627002716,
                        0.38074013590812683,
                        -0.4926784038543701
                    ],
                    [
                        0.5170445442199707,
                        -0.15300706028938293,
                        0.1519382745027542,
                        -0.17292487621307373,
                        -0.534862756729126,
                        -0.06942038238048553,
                        0.44166842103004456,
                        0.41267073154449463
                    ]
                ],
                [
                    0.040442097932100296,
                    -0.010756622068583965,
                    0.001400852925144136,
                    0.03382422775030136,
                    -0.0011529525509104133,
                    0.026236677542328835,
                    -0.08028852939605713,
                    -0.05566532164812088
                ]
            ]
        },
        {
            "type": "dense",
            "activation": "",
            "shape": [
                null,
                null,
                1
            ],
            "weights": [
                [
                    [
                        0.07258808612823486
                    ],
                    [
                        0.5689660310745239
                    ],
                    [
                        -0.1966986209154129
                    ],
                    [
                        0.17105992138385773
                    ],
                    [
                        -0.22288459539413452
                    ],
                    [
                        -0.022702520713210106
                    ],
                    [
                        -0.5575948357582092
                    ],
                    [
                        0.4918859899044037
                    ]
                ],
                [
                    -0.021304147318005562
                ]
            ]
        }
    ]
}