{"lstm.weight_ih_l0": [[-0.0026469905860722065], [0.18966144323349], [-0.2909903824329376], [-0.26019373536109924], [-0.13617262244224548], [0.0948079451918602], [-0.007005016785115004], [0.28032875061035156], [-0.03137575834989548], [0.09355466812849045], [-0.10684845596551895], [-0.06949635595083237], [-0.33776670694351196], [-0.23415207862854004], [-0.14574287831783295], [0.013096880167722702], [0.13977210223674774], [0.21214008331298828], [-0.23968836665153503], [-0.15395936369895935], [0.12841664254665375], [0.29358646273612976], [-0.07276134938001633], [0.26456815004348755], [-0.05698692053556442], [0.037410933524370193], [0.3201341927051544], [-0.32798099517822266], [-0.22257526218891144], [-0.08950743079185486], [-0.13781508803367615], [0.30547040700912476]], "lstm.weight_hh_l0": [[-0.22916610538959503, -0.16275224089622498, -0.24700669944286346, -0.33112430572509766, -0.20638342201709747, 0.30391380190849304, 0.15776202082633972, 0.17135761678218842], [0.01859392412006855, -0.18126098811626434, 0.05981581658124924, -0.33011093735694885, -0.2554657459259033, -0.18226736783981323, 0.22307024896144867, 0.20729584991931915], [-0.15679916739463806, -0.01275704987347126, 0.22611884772777557, 0.35147911310195923, 0.14031903445720673, 0.04776253551244736, 0.23705270886421204, -0.20817306637763977], [0.06588256359100342, -0.27411189675331116, -0.24504294991493225, -0.18263986706733704, 0.1599733829498291, 0.14218516647815704, -0.20942823588848114, 0.10681098699569702], [0.19409091770648956, -0.04462457820773125, 0.013499214313924313, 0.08191998302936554, 0.21933624148368835, 0.33947986364364624, -0.272456556558609, -0.12956660985946655], [0.13894997537136078, 0.29293644428253174, 0.30766475200653076, 0.31196022033691406, 0.07036226242780685, -0.30744388699531555, 0.03252425789833069, -0.2211848944425583], [-0.32949554920196533, 0.3141295313835144, 0.26882776618003845, -0.35267937183380127, 0.06617531180381775, -0.05955960601568222, -0.05818115174770355, -0.1618414968252182], [0.1359611302614212, -0.2094109058380127, 0.1296095997095108, 0.17879481613636017, 0.25309881567955017, 0.1321975439786911, -0.349924236536026, -0.22934898734092712], [0.1765345185995102, 0.07399920374155045, -0.27580133080482483, -0.20358292758464813, 0.3326050937175751, 0.23823058605194092, -0.15415816009044647, -0.08898400515317917], [-0.33679428696632385, -0.006354817189276218, -0.2662465274333954, -0.2727157771587372, -0.01948065310716629, 0.05308429151773453, -0.14479081332683563, 0.2097906619310379], [-0.21515105664730072, 0.32080376148223877, 0.24229009449481964, -0.2981455326080322, -0.08799389749765396, 0.01595325581729412, 0.051583822816610336, 0.08385376632213593], [0.13874433934688568, 0.021177906543016434, -0.1725088655948639, 0.1672975718975067, -0.339145690202713, -0.20955345034599304, -0.08850497007369995, -0.17222057282924652], [-0.12368477135896683, -0.28978002071380615, -0.07520616054534912, 0.07557431608438492, -0.23032793402671814, -0.018144134432077408, 0.2530914843082428, -0.03634537756443024], [0.009826031513512135, -0.030500661581754684, 0.07155261933803558, 0.22480319440364838, 0.3349021077156067, 0.22452616691589355, 0.3356683552265167, -0.02556956559419632], [-0.31760460138320923, -0.16761161386966705, 0.24073635041713715, -0.0022919033654034138, -0.17573241889476776, -0.2709321081638336, -0.33087366819381714, -0.29840195178985596], [-0.07171361893415451, 0.1938907951116562, 0.19114547967910767, -0.34097814559936523, 0.22054025530815125, -0.2766588628292084, -0.0747448205947876, -0.14335621893405914], [-0.06809978187084198, -0.06941762566566467, -0.31726109981536865, -0.3052713871002197, -0.055323850363492966, 0.004572216421365738, -0.16061042249202728, 0.1331832855939865], [-0.3182186782360077, -0.023860342800617218, 0.31092172861099243, -0.14421159029006958, 0.31925979256629944, 0.12804068624973297, -0.3190681040287018, 0.22369228303432465], [-0.04079810529947281, -0.15782864391803741, 0.2827201187610626, -0.2857047915458679, 0.03793802112340927, -0.07402301579713821, 0.25247693061828613, 0.09869249165058136], [0.16988429427146912, 0.12486054003238678, -0.08502064645290375, -0.07435420155525208, -0.29135677218437195, 0.19157083332538605, 0.28071364760398865, 0.24191001057624817], [-0.2493888884782791, 0.015768442302942276, -0.24923184514045715, -0.19462554156780243, -0.20601749420166016, 0.12082510441541672, -0.21068711578845978, -0.007713547442108393], [0.014873327687382698, 0.227908656001091, -0.2672581076622009, -0.24271872639656067, -0.20529484748840332, 0.24746382236480713, -0.12709006667137146, 0.2982182800769806], [0.1278475672006607, 0.044769056141376495, -0.002631859853863716, -0.06989098340272903, 0.04435905069112778, -0.08073203265666962, -0.002484219614416361, 0.045110952109098434], [-0.2765512764453888, -0.18530844151973724, 0.28549179434776306, -0.2869250774383545, -0.025387322530150414, 0.3497487008571625, 0.12771658599376678, 0.010010171681642532], [-0.3063928782939911, 0.17514252662658691, -0.25182926654815674, -0.100361168384552, -0.11862293630838394, -0.052356794476509094, 0.003867268329486251, 0.29161348938941956], [0.04413719102740288, 0.31667521595954895, 0.2162730097770691, -0.2235213816165924, 0.15857014060020447, -0.24992549419403076, -0.14984481036663055, 0.10398807376623154], [0.11674053221940994, 0.2652456760406494, -0.11381444334983826, 0.0005659899907186627, 0.18201760947704315, -0.3419187068939209, 0.25561225414276123, -0.29236122965812683], [0.004872850142419338, -0.060110002756118774, -0.18620701134204865, 0.04672951623797417, 0.2923599183559418, -0.10335056483745575, -0.2099025547504425, -0.13075776398181915], [-0.3504238426685333, 0.15959186851978302, -0.1697988659143448, -0.23594041168689728, -0.20368260145187378, 0.20327766239643097, 0.18723256886005402, 0.27135995030403137], [0.12824198603630066, -0.11807258427143097, -0.09879983961582184, 0.10445025563240051, 0.2906331419944763, 0.09612840414047241, -0.16728214919567108, -0.16619744896888733], [-0.3342737853527069, 0.07638449966907501, -0.19840797781944275, -0.3152196407318115, 0.31002265214920044, -0.22960153222084045, -0.040220778435468674, 0.101290762424469], [0.011263618245720863, -0.23789961636066437, -0.28578487038612366, 0.2818111777305603, 0.057572171092033386, 0.2933165729045868, -0.11852545291185379, 0.10414106398820877]], "lstm.bias_ih_l0": [-0.08084924519062042, -0.01572292298078537, -0.2153296321630478, 0.11957208067178726, 0.1117815300822258, -0.007293301168829203, -0.07951492071151733, -0.21794083714485168, 0.24449799954891205, -0.26319366693496704, 0.1448386162519455, -0.11888357251882553, -0.17057819664478302, 0.06351412087678909, -0.1836557686328888, 0.08146041631698608, 0.0694311186671257, -0.26250967383384705, 0.05886612460017204, 0.15058870613574982, 0.13994738459587097, -0.044504836201667786, -0.2898387014865875, -0.05450168997049332, 0.12279180437326431, -0.12900353968143463, 0.13420218229293823, 0.23545332252979279, -0.18460845947265625, 0.0034866821952164173, 0.1461939662694931, 0.027710752561688423], "lstm.bias_hh_l0": [0.029532844200730324, 0.0441465899348259, -0.2779451906681061, 0.02778514102101326, 0.24482505023479462, 0.31859180331230164, 0.20780132710933685, 0.04737722873687744, 0.16511444747447968, -0.17199651896953583, -0.29298558831214905, -0.3040280044078827, 0.3527083098888397, 0.22443191707134247, -0.24438802897930145, 0.13832515478134155, 0.26699206233024597, 0.35341721773147583, 0.3091452717781067, 0.2739168405532837, -0.08105538785457611, -0.12407661229372025, 0.2902846038341522, 0.19812411069869995, -0.21276099979877472, 0.31785058975219727, 0.1708223521709442, 0.192734494805336, -0.22159889340400696, 0.10143439471721649, -0.1239425390958786, 0.27625125646591187], "lstm2.weight_ih_l0": [[-0.06361860036849976, 0.1376427561044693, 0.06279880553483963, 0.1504257172346115, -0.12014717608690262, 0.17238250374794006, -0.2469467669725418, 0.07985179871320724], [-0.23921135067939758, -0.3487936854362488, -0.28392308950424194, 0.2791198194026947, 0.19128498435020447, 0.3317093551158905, 0.28323912620544434, -0.315739244222641], [-0.2412758320569992, -0.057128071784973145, -0.22960898280143738, 0.24550622701644897, -0.26728910207748413, -0.17249920964241028, -0.3415648937225342, -0.2007283717393875], [0.2907896935939789, 0.28947538137435913, 0.2530868351459503, 0.2729882001876831, 0.3143748939037323, -0.09053193777799606, 0.15556421875953674, 0.31499147415161133], [0.11696209758520126, 0.35343894362449646, 0.1833750307559967, 0.2197858691215515, -0.12374091148376465, 0.16964463889598846, 0.04062559828162193, -0.08443467319011688], [-0.19930152595043182, -0.19838465750217438, -0.2720525562763214, 0.23735110461711884, 0.25135213136672974, -0.04023886099457741, -0.2045964002609253, 0.2732633352279663], [0.22609347105026245, 0.026281045749783516, -0.16692502796649933, 0.3249324858188629, 0.1445823609828949, -0.2683984041213989, 0.3383798897266388, 0.2684791684150696], [-0.1288669854402542, 0.19875164330005646, -0.20088514685630798, -0.055406879633665085, 0.3002026081085205, 0.014608519151806831, -0.25003936886787415, -0.11816918104887009], [-0.09597035497426987, -0.06821062415838242, 0.0338352769613266, 0.32697662711143494, 0.01892937161028385, -0.21829800307750702, 0.01812112145125866, 0.16952431201934814], [0.17537669837474823, -0.32312604784965515, -0.06326570361852646, -0.2627412676811218, -0.1508561223745346, 0.12738294899463654, -0.25106894969940186, 0.13142529129981995], [0.30008837580680847, 0.023188984021544456, -0.23563897609710693, -0.1266728639602661, 0.07720337063074112, -0.269520103931427, 0.17564897239208221, -0.32098037004470825], [-0.3398685157299042, -0.3435339033603668, -0.07172302156686783, 0.23774093389511108, -0.3346308469772339, 0.2938690185546875, -0.14142943918704987, 0.10355016589164734], [0.01612306572496891, -0.31880584359169006, 0.29321208596229553, 0.19036850333213806, 0.3514305353164673, 0.17861947417259216, -0.2333696186542511, 0.2950699031352997], [0.01900152675807476, 0.16766083240509033, -0.2834894061088562, -0.10169132798910141, -0.3471461236476898, -0.13770639896392822, 0.07627247273921967, -0.2775965929031372], [0.11270016431808472, 0.18978986144065857, 0.04925327003002167, -0.23655667901039124, -0.2741169035434723, -0.1090770959854126, 0.15519514679908752, 0.3487437963485718], [0.20330345630645752, -0.039813388139009476, 0.12396163493394852, -0.34685811400413513, -0.30197039246559143, 0.16497081518173218, -0.20025800168514252, 0.17009299993515015], [-0.24958470463752747, -0.1751188486814499, -0.2912180423736572, 0.18449854850769043, -0.036025356501340866, 0.27209508419036865, 0.21880434453487396, 0.19563613831996918], [0.01136890146881342, -0.10931092500686646, -0.07687369734048843, 0.04698745533823967, 0.1752597838640213, -0.2476959228515625, 0.29672953486442566, -0.03844188526272774], [-0.29625850915908813, -0.19129282236099243, 0.3128302991390228, 0.3233341872692108, -0.32748931646347046, 0.2493606060743332, 0.1771865338087082, 0.2092747837305069], [0.29929327964782715, -0.19054770469665527, 0.11164358258247375, 0.1446857899427414, -0.10447268187999725, 0.11831775307655334, -0.10172204673290253, 0.21858838200569153], [-0.09809501469135284, -0.13180318474769592, 0.08900672197341919, 0.12540313601493835, -0.17273615300655365, 0.03125353157520294, 0.20489682257175446, -0.03517740219831467], [0.10759828984737396, -0.08527246862649918, 0.12392032891511917, -0.2561120092868805, -0.2078995704650879, -0.179460346698761, 0.3249194025993347, -0.09513559192419052], [-0.0009653313900344074, -0.17129503190517426, 0.3529488444328308, 0.34530502557754517, -0.266645222902298, -0.2866150736808777, -0.26799097657203674, -0.0017050928436219692], [-0.09012214094400406, -0.23141683638095856, -0.1268097460269928, 0.06679714471101761, -0.18472836911678314, 0.07834125310182571, -0.08107540756464005, -0.17131900787353516], [0.04857310280203819, 0.2907121777534485, -0.23903010785579681, 0.016417039558291435, -0.1303790807723999, 0.3469441831111908, -0.33543846011161804, -0.338937908411026], [0.34838616847991943, -0.22368967533111572, 0.06778443604707718, -0.030513811856508255, -0.07447849214076996, -0.07896536588668823, 0.2246621698141098, 0.016898779198527336], [-0.3442247211933136, -0.20872382819652557, -0.12052645534276962, 0.1779138594865799, -0.2287963181734085, 0.33337241411209106, -0.07874670624732971, -0.06348474323749542], [0.2770295739173889, 0.17769865691661835, 0.2998558282852173, 0.20451095700263977, -0.10725180059671402, -0.23457291722297668, -0.02630545012652874, 0.29261407256126404], [-0.11865951865911484, -0.3278747797012329, 0.1449315845966339, 0.3441741168498993, -0.10065072029829025, -0.2927505373954773, -0.3206940293312073, 0.0886002629995346], [-0.02677096053957939, -0.1785399466753006, 0.071464404463768, 0.1342650204896927, 0.2811877131462097, 0.2744925618171692, -0.05292118340730667, -0.31175175309181213], [-0.3194790184497833, 0.3301091194152832, 0.15629011392593384, 0.15411652624607086, -0.30590182542800903, 0.3273960053920746, 0.33493635058403015, 0.3192093074321747], [-0.2982523441314697, -0.1334039568901062, -0.24316121637821198, 0.33480289578437805, -0.1519148200750351, -0.16141639649868011, 0.18523117899894714, -0.16355109214782715]], "lstm2.weight_hh_l0": [[-0.17413286864757538, -0.030925840139389038, -0.03398338332772255, -0.2754104733467102, 0.29474619030952454, -0.1559600681066513, 0.12541064620018005, 0.3075149357318878], [0.1783027946949005, 0.05005604028701782, 0.3008233904838562, 0.047526851296424866, -0.16357381641864777, 0.3344613313674927, 0.0836791917681694, -0.3449552655220032], [-0.10065367072820663, -0.24082906544208527, 0.30997899174690247, -0.0583878830075264, -0.32227271795272827, -0.022225549444556236, 0.22203607857227325, 0.0918533205986023], [0.11179514229297638, 0.032835640013217926, 0.13181132078170776, -0.08614398539066315, -0.14064361155033112, -0.3304693400859833, -0.26634481549263, 0.1532309353351593], [-0.20934368669986725, 0.050723057240247726, 0.11285121738910675, 0.025032952427864075, -0.2292262464761734, 0.33811312913894653, -0.2055910974740982, 0.2907978594303131], [-0.2812546491622925, -0.08504673093557358, 0.1923220157623291, -0.14445507526397705, 0.2970000207424164, -0.24330005049705505, -0.296904057264328, -0.15942399203777313], [0.057152051478624344, 0.3255363404750824, -0.16878670454025269, 0.12644067406654358, -0.0886383205652237, -0.07667240500450134, 0.25996899604797363, -0.273998886346817], [0.03755208104848862, 0.3324848413467407, -0.048582546412944794, 0.27451232075691223, -0.10887917131185532, 0.28459709882736206, -0.3420029282569885, -0.05095541104674339], [-0.06210038810968399, 0.11458134651184082, 0.13870869576931, 0.2714642584323883, -0.05267449840903282, -0.014020191505551338, 0.24211733043193817, -0.09566204994916916], [0.3099367916584015, -0.23540014028549194, -0.03825795650482178, -0.01898968406021595, 0.15775902569293976, 0.24171601235866547, -0.05603954568505287, -0.2929121255874634], [0.17518295347690582, 0.10575903952121735, 0.14202214777469635, -0.21809564530849457, 0.22754539549350739, 0.3348698616027832, 0.030678311362862587, -0.3302359879016876], [0.24819089472293854, -0.2621425986289978, 0.08127205818891525, 0.05137759819626808, -0.16547590494155884, 0.1231057196855545, -0.3162297010421753, 0.08052513748407364], [-0.22413550317287445, -0.038231026381254196, 0.04547716677188873, 0.30120784044265747, -0.16868749260902405, 0.2264990508556366, -0.044913239777088165, -0.1679123193025589], [-0.3078741729259491, -0.3243917226791382, 0.34528401494026184, -0.08817604929208755, 0.017659571021795273, 0.09585268050432205, 0.24032162129878998, 0.301748663187027], [0.286737859249115, -0.26194173097610474, -0.05664519593119621, -0.2092108428478241, -0.2020033448934555, 0.08386535942554474, 0.3318621814250946, -0.28323301672935486], [0.2139720916748047, -0.18330566585063934, -0.06886310130357742, 0.2806403934955597, -0.07996327430009842, 0.03219306841492653, -0.24714532494544983, 0.3009590804576874], [-0.045703787356615067, -0.2585855722427368, 0.10352408140897751, -0.25138258934020996, -0.28054720163345337, 0.021538177505135536, 0.28031253814697266, -0.1000499576330185], [0.16640587151050568, 0.30381593108177185, 0.23449814319610596, -0.18546032905578613, -0.03875647112727165, -0.11125790327787399, -0.28430038690567017, 0.0001460809726268053], [0.26602596044540405, 0.29787424206733704, 0.032986778765916824, 0.08030011504888535, -0.1530609130859375, 0.26687708497047424, -0.14711657166481018, -0.24559684097766876], [0.054444920271635056, 0.21191473305225372, -0.3187607526779175, 0.31960076093673706, 0.12718413770198822, -0.24770401418209076, -0.07615804672241211, 0.3067358136177063], [-0.2712584137916565, -0.10333559662103653, 0.11595854163169861, -0.30974283814430237, 0.19381733238697052, 0.18404138088226318, 0.21927575767040253, -0.2254069447517395], [0.35213953256607056, -0.20957283675670624, 0.35296666622161865, -0.33930179476737976, -0.31500545144081116, 0.21715117990970612, 0.03695090115070343, 0.02039625123143196], [-0.19578315317630768, -0.1483069658279419, -0.10337458550930023, -0.34441596269607544, 0.018373707309365273, 0.0625290647149086, -0.00029932690085843205, 0.11417311429977417], [0.33546948432922363, 0.09400420635938644, -0.12942613661289215, -0.14550372958183289, -0.22620542347431183, -0.24508985877037048, -0.05693971738219261, -0.06253142654895782], [0.15728263556957245, -0.15112173557281494, 0.2818540632724762, -0.24808140099048615, 0.0010048651602119207, 0.31781619787216187, 0.35156822204589844, -0.20480012893676758], [0.062978096306324, 0.04176267981529236, -0.16576409339904785, -0.12215087562799454, 0.09576134383678436, -0.24584871530532837, 0.05833477899432182, 0.15299127995967865], [-0.1393248289823532, 0.2936759889125824, -0.023267503827810287, 0.16041165590286255, 0.350126177072525, -0.10807008296251297, 0.19212378561496735, -0.10112659633159637], [-0.051644597202539444, -0.05991709604859352, -0.0021964830812066793, -0.13356129825115204, 0.08286828547716141, 0.013322028331458569, 0.22411388158798218, -0.07156109064817429], [0.035454392433166504, -0.1315184384584427, -0.29608461260795593, 0.1430714726448059, 0.04523996263742447, -0.1415923833847046, -0.11953815072774887, 0.09246175736188889], [-0.06392842531204224, 0.23103861510753632, 0.020026369020342827, 0.13355007767677307, 0.15404188632965088, -0.0867500975728035, 0.15297013521194458, 0.26089879870414734], [0.016269948333501816, 0.06918788701295853, 0.012846569530665874, 0.24478885531425476, -0.14926858246326447, -0.18793831765651703, 0.1540621519088745, -0.30770251154899597], [0.005668329540640116, -0.16259604692459106, 0.23335710167884827, -0.3291720151901245, 0.21437092125415802, 0.34979042410850525, 0.0715380385518074, -0.02355608344078064]], "lstm2.bias_ih_l0": [0.3480202257633209, -0.15109185874462128, -0.028331490233540535, -0.15482278168201447, -0.04880495369434357, 0.07684090733528137, 0.04722107574343681, -0.06677737832069397, -0.3534970283508301, 0.018103377893567085, -0.010472944006323814, 0.053187426179647446, 0.270910382270813, 0.3436572253704071, -0.2097570151090622, -0.022045625373721123, -0.14165951311588287, -0.3258509337902069, -0.2572663426399231, 0.3318314552307129, 0.20614323019981384, 0.1899115890264511, 0.19648489356040955, -0.28089073300361633, 0.03712989762425423, 0.3290573060512543, -0.19731315970420837, 0.31451907753944397, 0.09292743355035782, 0.24874019622802734, -0.15145790576934814, 0.162994384765625], "lstm2.bias_hh_l0": [-0.31342074275016785, -0.022449055686593056, 0.117928147315979, 0.10602869838476181, 0.2958563268184662, 0.3474217355251312, 0.32164767384529114, 0.2373729795217514, 0.24856996536254883, -0.04561890661716461, -0.27437400817871094, -0.1312486082315445, -0.0396915003657341, -0.19105549156665802, 0.18072618544101715, 0.12410686910152435, 0.057046517729759216, 0.08540460467338562, 0.310579776763916, 0.1287752240896225, -0.31004488468170166, -0.2566376030445099, 0.1558285355567932, 0.04818198084831238, 0.1724250316619873, -0.35310080647468567, -0.3262835741043091, 0.2168082743883133, 0.22614890336990356, -0.3198636472225189, 0.13420365750789642, -0.27607011795043945], "lstm2.weight_ih_l1": [[0.26774871349334717, 0.11094167083501816, 0.34958896040916443, -0.3486008048057556, -0.3403574228286743, 0.23903816938400269, 0.3138928711414337, 0.21661506593227386], [0.23505283892154694, -0.2977878749370575, 0.25590676069259644, -0.3338063955307007, 0.07898441702127457, -0.23158976435661316, -0.1404297947883606, 0.06260328739881516], [-0.13901013135910034, -0.05594024807214737, -0.3351065218448639, -0.33335602283477783, 0.13695353269577026, -0.14965152740478516, -0.21509820222854614, -0.13950589299201965], [-0.28905412554740906, -0.28263065218925476, 0.2115565687417984, 0.17969071865081787, 0.04709454998373985, -0.1931319385766983, 0.11762755364179611, 0.015883460640907288], [-0.25267499685287476, 0.07608108967542648, 0.3219258785247803, -0.34775733947753906, -0.351570725440979, 0.04529901221394539, 0.2662335932254791, -0.21513360738754272], [0.0778302252292633, 0.24854283034801483, 0.10900628566741943, 0.07651275396347046, 0.35274937748908997, 0.23033037781715393, -0.19884797930717468, 0.030559919774532318], [0.18062065541744232, 0.31180208921432495, -0.3517618775367737, 0.1914510428905487, -0.1026478037238121, -0.34620699286460876, 0.07847966253757477, -0.19247929751873016], [0.05010282248258591, -0.22954344749450684, -0.26605919003486633, -0.029999367892742157, -0.11876767128705978, 0.20678091049194336, 0.030482707545161247, 0.27596911787986755], [0.06625695526599884, -0.11368910223245621, 0.23947358131408691, 0.019319945946335793, 0.0663590282201767, -0.11371076107025146, 0.0012688308488577604, -0.06797882169485092], [-0.030058162286877632, -0.2757289707660675, -0.002174313645809889, -0.2934649586677551, -0.0760602280497551, 0.20490051805973053, -0.24584345519542694, -0.23831328749656677], [-0.08632943034172058, -0.09692101925611496, 0.059852149337530136, 0.058695387095212936, 0.1792856901884079, -0.24355605244636536, -0.024950681254267693, 0.19773931801319122], [0.30581361055374146, -0.025790119543671608, -0.2045731246471405, 0.10163336992263794, 0.20134063065052032, -0.22088244557380676, -0.20516470074653625, 0.15626996755599976], [-0.02477206289768219, -0.33393070101737976, -0.20385359227657318, 0.14337751269340515, -0.11991671472787857, 0.2440328150987625, 0.27949804067611694, 0.05143137648701668], [-0.027957141399383545, -0.11222744733095169, -0.017877724021673203, 0.06435410678386688, -0.270062118768692, -0.08449772745370865, -0.2940860390663147, 0.21699510514736176], [-0.22515562176704407, 0.32298651337623596, -0.09113927185535431, -0.2025419920682907, 0.16986583173274994, 0.05270741507411003, 0.24482016265392303, 0.14759783446788788], [-0.3405919075012207, 0.22361911833286285, -0.06657899916172028, -0.15626037120819092, 0.22452545166015625, 0.25785720348358154, -0.3107489049434662, -0.03196948021650314], [0.2903403639793396, 0.1369265466928482, 0.2978578805923462, -0.1211622804403305, -0.19503504037857056, 0.30402398109436035, 0.1473691463470459, 0.3394050598144531], [-0.14767804741859436, -0.22700490057468414, -0.041441015899181366, -0.3328987658023834, 0.13858415186405182, 0.2607768774032593, 0.08487291634082794, -0.03493349999189377], [0.17529401183128357, -0.22441847622394562, 0.34586116671562195, -0.3515535593032837, -0.3386847674846649, -0.0835452526807785, 0.28879812359809875, 0.03539981320500374], [0.13578066229820251, -0.25915706157684326, 0.12893588840961456, -0.03950727358460426, 0.14171253144741058, 0.24969445168972015, 0.1536826640367508, -0.030074726790189743], [-0.021778583526611328, -0.2217416912317276, -0.1278809905052185, 0.22975245118141174, -0.14177368581295013, 0.21957071125507355, -0.14019520580768585, -0.08234217017889023], [0.007524392567574978, -0.3244437277317047, -0.0035302198957651854, -0.03563667833805084, -0.03176194801926613, -0.07067681103944778, 0.2787334620952606, 0.26091787219047546], [-0.23962336778640747, 0.16423501074314117, -0.27732113003730774, -0.3009875416755676, 0.10807488858699799, 0.005195989739149809, -0.164934903383255, -0.34100356698036194], [-0.1368732750415802, 0.11808665841817856, -0.32724952697753906, -0.3434649109840393, 0.04485621675848961, -0.25470131635665894, -0.30974113941192627, -0.13621924817562103], [-0.056922394782304764, -0.3212758004665375, -0.23607739806175232, 0.0231817364692688, -0.33339083194732666, -0.04969349503517151, -0.2282903790473938, -0.24509640038013458], [0.1389574408531189, -0.27212637662887573, -0.2679348587989807, 0.20162495970726013, 0.06610257178544998, 0.3219856023788452, -0.09450322389602661, -0.17077161371707916], [-0.032720115035772324, 0.0017887543654069304, 0.26963546872138977, -0.35216742753982544, -0.025173258036375046, 0.1563951075077057, -0.194695845246315, -0.17965489625930786], [0.17086096107959747, -0.3387696146965027, 0.08377651125192642, -0.2737162411212921, 0.1757379025220871, -0.30230244994163513, 0.2173662930727005, -0.33468517661094666], [-0.2971852123737335, 0.005210277624428272, 0.2785959839820862, -0.3027815520763397, -0.15770591795444489, 0.3105197548866272, -0.059289995580911636, 0.14647172391414642], [-0.3401177227497101, -0.11118578910827637, -0.17954577505588531, 0.2980671525001526, 0.14673876762390137, -0.25797930359840393, 0.05700234696269035, -0.0040635461919009686], [-0.1452644169330597, -0.20190607011318207, -0.1173226609826088, 0.27868014574050903, -0.253445565700531, -0.2518514096736908, -0.10907798260450363, 0.006150531582534313], [0.09624144434928894, 0.010609457269310951, -0.08510936051607132, -0.21437716484069824, -0.0634390115737915, -0.14232409000396729, 0.2856459617614746, -0.3441522419452667]], "lstm2.weight_hh_l1": [[-0.22551719844341278, -0.287647545337677, -0.06461428105831146, 0.27551475167274475, 0.30990341305732727, -0.30778777599334717, -0.015318356454372406, 0.2075238674879074], [0.15584543347358704, 0.28959694504737854, -0.009806939400732517, -0.23754996061325073, 0.23388634622097015, -0.12123861163854599, 0.1830650418996811, -0.08712845295667648], [0.1502934694290161, 0.3179951012134552, 0.3287535607814789, -0.3217565715312958, -0.23386859893798828, -0.1461825966835022, -0.22546136379241943, 0.33923450112342834], [-0.0312254186719656, -0.23452630639076233, -0.15732751786708832, -0.19529037177562714, 0.14424602687358856, -0.3083873391151428, -0.3296542763710022, -0.3485192060470581], [0.15221326053142548, 0.1748161017894745, -0.2195846140384674, 0.08767366409301758, 0.26098769903182983, 0.05137178301811218, -0.07480538636445999, 0.0261213518679142], [-0.03791071102023125, 0.17801383137702942, -0.2400667518377304, 0.17928780615329742, 0.19927100837230682, -0.21420903503894806, 0.28869882225990295, 0.34725475311279297], [-0.13938088715076447, -0.0990283191204071, 0.17619527876377106, -0.2769809365272522, 0.13981550931930542, 0.08248568326234818, 0.22285521030426025, -0.3070988655090332], [-0.29372677206993103, 0.15879110991954803, 0.1273537427186966, -0.32907554507255554, -0.19716240465641022, -0.32349374890327454, -0.2532937526702881, -0.1595231592655182], [0.2925790250301361, -0.07037512212991714, 0.20306380093097687, 0.3357629179954529, 0.16112567484378815, -0.31650465726852417, 0.17791609466075897, 0.13485747575759888], [0.2740270495414734, -0.34875714778900146, 0.21744097769260406, 0.28939807415008545, -0.32893359661102295, 0.03699098154902458, 0.3018190264701843, -0.25714224576950073], [0.11600767821073532, 0.1562272310256958, 0.09266283363103867, 0.3515295684337616, 0.2894822955131531, 0.3033328056335449, -0.04406929016113281, 0.2965296804904938], [-0.3294808864593506, -0.19078777730464935, -0.07561840116977692, -0.10502543300390244, 0.3265753984451294, 0.16675885021686554, 0.22762227058410645, 0.24049033224582672], [-0.2641056478023529, -0.040948908776044846, 0.05162748694419861, 0.09195658564567566, 0.1818086951971054, -0.14068128168582916, -0.10660851001739502, 0.29583272337913513], [-0.09488818794488907, -0.24559280276298523, 0.23972326517105103, 0.2394106239080429, -0.11086264997720718, -0.07068241387605667, -0.2608799636363983, -0.29525020718574524], [0.13295358419418335, -0.1510353833436966, 0.28146225214004517, -0.2830948531627655, -0.04886994510889053, 0.007633847650140524, 0.1817077398300171, 0.28614160418510437], [0.23942793905735016, 0.15563279390335083, -0.16227881610393524, -0.2524893283843994, -0.3162933886051178, 0.01753789372742176, 0.3429044485092163, -0.06715480983257294], [-0.01488407514989376, -0.256925106048584, 0.10854431986808777, 0.22414696216583252, -0.3485738933086395, -0.24894478917121887, 0.26187974214553833, 0.08370890468358994], [-0.02204267494380474, 0.06320058554410934, -0.053754933178424835, -0.2471214234828949, -0.33037084341049194, 0.23253487050533295, -0.04205045849084854, -0.13130521774291992], [-0.0912574902176857, -0.19283616542816162, -0.10471662133932114, -0.303495317697525, 0.2645794153213501, 0.14437086880207062, -0.1783045530319214, -0.12067244946956635], [0.158617302775383, -0.13092273473739624, 0.09322979301214218, 0.0973479226231575, -0.22255946695804596, 0.0885656550526619, 0.021631870418787003, 0.30878782272338867], [-0.1279226839542389, -0.09088744223117828, 0.3046218156814575, -0.2887125313282013, 0.025543687865138054, 0.34064948558807373, -0.15852200984954834, 0.33894532918930054], [0.31372228264808655, 0.3289247453212738, -0.03373716026544571, 0.31983616948127747, -0.1540500521659851, -0.12102315574884415, 0.13372541964054108, 0.0746871680021286], [0.1949053555727005, 0.3359886109828949, -0.22132055461406708, 0.1876402050256729, 0.11828643828630447, 0.18652348220348358, 0.16764524579048157, -0.13225369155406952], [-0.2794330418109894, 0.28297874331474304, -0.20160873234272003, 0.22603628039360046, -0.3368103504180908, -0.061165571212768555, 0.0037472762633115053, 0.06117307394742966], [0.02857842855155468, 0.11140689253807068, -0.03936625272035599, 0.08658678084611893, 0.349870890378952, -0.22876743972301483, -0.01930287666618824, -0.13495947420597076], [0.3102182149887085, 0.30265578627586365, -0.009641133248806, -0.12255313247442245, -0.218448668718338, 0.25298142433166504, -0.0243469700217247, 0.3329799473285675], [0.2016180455684662, 0.3094668984413147, 0.27963370084762573, -0.22975392639636993, 0.10348585247993469, -0.14660406112670898, 0.17739655077457428, -0.03178790956735611], [0.030607083812355995, -0.2445206344127655, -0.3159797191619873, 0.13313864171504974, 0.08216064423322678, 0.03071063756942749, 0.24013154208660126, -0.1476348489522934], [0.12550467252731323, -0.19472362101078033, 0.0732562392950058, -0.08071572333574295, 0.24760286509990692, 0.3091762661933899, 0.3070695102214813, 0.015904324129223824], [0.20848798751831055, -0.3532487452030182, -0.2073923796415329, 0.06318819522857666, 0.001971755875274539, -0.2775651812553406, -0.15648682415485382, -0.16512857377529144], [-0.3502872884273529, 0.03371865674853325, 0.24101522564888, 0.1434943825006485, -0.16798485815525055, -0.32465577125549316, -0.28523874282836914, 0.006558133754879236], [0.24321407079696655, -0.14317941665649414, -0.19238430261611938, -0.18860533833503723, -0.03060666099190712, -0.3357536196708679, -0.31199124455451965, 0.3480346202850342]], "lstm2.bias_ih_l1": [-0.16861529648303986, -0.0637681782245636, -0.09459417313337326, -0.31059882044792175, -0.06232903525233269, 0.10822859406471252, -0.14356303215026855, -0.01506838295608759, -0.001691226614639163, -0.3519641160964966, 0.2569330334663391, 0.285590797662735, 0.24105463922023773, -0.11610634624958038, 0.18475399911403656, -0.3312520980834961, -0.08746439963579178, -0.07190719991922379, -0.12485725432634354, 0.1484924554824829, -0.161099374294281, -0.04097820073366165, -0.10208974033594131, -0.3320159614086151, -0.058386027812957764, -0.2996281087398529, 0.20615844428539276, 0.1889611780643463, 0.33120599389076233, -0.11872421205043793, 0.017978960648179054, 0.06925781071186066], "lstm2.bias_hh_l1": [0.35292354226112366, 0.3240717947483063, -0.1829778403043747, -0.30083951354026794, -0.31865352392196655, -0.1702570766210556, 0.29726293683052063, 0.11874077469110489, 0.34112709760665894, 0.26206111907958984, 0.0051256888546049595, -0.2191236913204193, 0.3452450931072235, 0.28361034393310547, 0.1530684530735016, -0.19313329458236694, 0.2785220444202423, 0.03217899054288864, 0.23378148674964905, 0.1475614309310913, 0.1877398043870926, -0.31023460626602173, -0.19603869318962097, 0.21205124258995056, -0.07365785539150238, -0.307584285736084, 0.32152119278907776, -0.007645775564014912, 0.28520581126213074, -0.2763432562351227, 0.12172625213861465, -0.13317249715328217], "lstm2.weight_ih_l2": [[-0.1487806886434555, -0.07374054938554764, -0.13086634874343872, 0.19373317062854767, -0.06717482954263687, 0.26807042956352234, 0.0806749239563942, -0.05462939664721489], [-0.2042122185230255, -0.32373929023742676, -0.10313940793275833, -0.32740160822868347, -0.0655030682682991, 0.005778585560619831, -0.022784333676099777, -0.1736713945865631], [0.24538855254650116, 0.1991141438484192, -0.08710746467113495, -0.13969101011753082, 0.2222755253314972, 0.3076000511646271, -0.3237271010875702, -0.07638846337795258], [-0.0328105203807354, -0.12800785899162292, 0.30183175206184387, -0.05222386494278908, 0.29975971579551697, 0.0017478297231718898, -0.038350384682416916, -0.20622827112674713], [-0.11755876988172531, 0.11392537504434586, 0.15638992190361023, -0.012579485774040222, 0.33688080310821533, -0.2447059005498886, 0.1355571150779724, 0.3184369206428528], [-0.0614767000079155, 0.2806892395019531, 0.005828108172863722, -0.2647566497325897, -0.19396518170833588, 0.13159805536270142, -0.1529998481273651, 0.08503349870443344], [0.34798678755760193, 0.1200951635837555, -0.033088985830545425, 0.08837241679430008, -0.2036975771188736, -0.2970743179321289, -0.2657659351825714, -0.29666754603385925], [0.07255604863166809, 0.06886626034975052, -0.15024887025356293, -0.34582844376564026, 0.191521555185318, -0.2006094753742218, -0.059024933725595474, -0.29644811153411865], [-0.19946004450321198, 0.1474882960319519, -0.3294152021408081, -0.20161016285419464, 0.2650696635246277, -0.18131940066814423, -0.14713333547115326, -0.09926851093769073], [0.1511296182870865, -0.2319202721118927, 0.03544916585087776, 0.14439214766025543, -0.02566557563841343, 0.06392905861139297, -0.2697073221206665, 0.15984128415584564], [0.13213331997394562, -0.04434695467352867, -0.29234281182289124, 0.14141270518302917, 0.2307082563638687, -0.06183928623795509, 0.16664302349090576, 0.131047785282135], [-0.14140988886356354, -0.024543795734643936, 0.3519406318664551, 0.001669141580350697, -0.28146862983703613, -0.025784051045775414, 0.1758902221918106, -0.11540818214416504], [-0.18515008687973022, 0.2912496030330658, 0.18703389167785645, -0.060066211968660355, 0.018062664195895195, -0.03739276900887489, 0.08208292722702026, 0.012565113604068756], [-0.21394751965999603, 0.06550433486700058, 0.00924710277467966, 0.02285846881568432, -0.13473491370677948, 0.09058836847543716, -0.2858995497226715, 0.1056852862238884], [0.19158823788166046, -0.0389096736907959, -0.2746403217315674, -0.0012852259678766131, 0.0005018846713937819, -0.305542528629303, -0.2500666081905365, 0.3270151913166046], [0.2643938362598419, 0.19594036042690277, 0.24492718279361725, 0.13610494136810303, 0.19897586107254028, 0.23416607081890106, -0.08259277790784836, -0.04494442790746689], [0.25209999084472656, -0.00012732562026940286, -0.2300524115562439, -0.27414488792419434, 0.19773370027542114, 0.2928551435470581, 0.2745738923549652, 0.05883800983428955], [0.2440510243177414, -0.3246091306209564, -0.25472208857536316, -0.3401998281478882, 0.28485310077667236, -0.0031991563737392426, -0.16279885172843933, 0.1196330264210701], [-0.13234665989875793, -0.22674940526485443, 0.13636495172977448, 0.06473519653081894, -0.25318610668182373, -0.23287217319011688, 0.16577047109603882, 0.26883378624916077], [0.028781745582818985, -0.17758455872535706, 0.1707218736410141, 0.06166163831949234, -0.3095286786556244, -0.2291184812784195, 0.07738465070724487, 0.21876978874206543], [-0.11358390003442764, 0.17095491290092468, -0.21896012127399445, 0.3383271098136902, 0.2519223690032959, 0.06622310727834702, 0.15729326009750366, 0.12309201806783676], [-0.20863085985183716, -0.003082957584410906, 0.09427870810031891, -0.0798020213842392, 0.3390384018421173, -0.1363430768251419, -0.31574779748916626, -0.16831833124160767], [-0.32812753319740295, 0.2913450300693512, -0.15871340036392212, -0.248750701546669, -0.038218677043914795, -0.2382272630929947, -0.18468689918518066, 0.18024508655071259], [-0.26544633507728577, 0.166733056306839, 0.25782474875450134, -0.0007930350839160383, 0.156990647315979, -0.19804596900939941, 0.27570685744285583, 0.3434564471244812], [0.08401725441217422, 0.32218465209007263, -0.3511371612548828, -0.03882044926285744, 0.07024859637022018, -0.3073039650917053, 0.17205029726028442, -0.1347443163394928], [-0.12787409126758575, -0.28051432967185974, 0.14453890919685364, -0.2572549879550934, -0.0750260278582573, 0.15705950558185577, 0.26634809374809265, 0.0799473449587822], [-0.13189050555229187, -0.15378348529338837, 0.19844341278076172, 0.06559748202562332, 0.2976226508617401, 0.13314324617385864, 0.28481629490852356, -0.2848963737487793], [0.2842314839363098, -0.16244158148765564, -0.09464079141616821, 0.0021161511540412903, -0.06630251556634903, 0.0699348971247673, 0.31505030393600464, -0.2112429141998291], [0.10924345254898071, -0.2841523587703705, 0.05551334097981453, 0.29126131534576416, 0.23839512467384338, 0.30276989936828613, 0.19138702750205994, -0.0292512197047472], [0.09231158345937729, -0.1477339267730713, 0.30010417103767395, 0.17702586948871613, -0.2587727904319763, 0.30570220947265625, -0.005246439483016729, -0.015716223046183586], [-0.09676233679056168, -0.09328163415193558, 0.017695480957627296, -0.17260107398033142, -0.3288778066635132, -0.18211746215820312, -0.07035615295171738, 0.26698389649391174], [0.26009342074394226, -0.21183232963085175, -0.013575499877333641, -0.10204131156206131, -0.18913991749286652, -0.06217144802212715, -0.12267442792654037, 0.19761885702610016]], "lstm2.weight_hh_l2": [[-0.17534057796001434, 0.05439518392086029, -0.19951525330543518, -0.11034580320119858, 0.2783256471157074, -0.1735721379518509, -0.021259374916553497, 0.3376607298851013], [0.12100975215435028, -0.1799582690000534, -0.21227453649044037, -0.1239820346236229, -0.11071496456861496, 0.15393251180648804, -0.07860369980335236, 0.2981839179992676], [-0.19398824870586395, -0.11055745929479599, 0.12872183322906494, 0.2823670506477356, 0.3382067084312439, 0.05658901482820511, 0.014902661554515362, -0.15840445458889008], [0.19976429641246796, -0.2049368917942047, -0.09293000400066376, -0.2954987585544586, -0.3398861289024353, 0.19761931896209717, 0.024019403383135796, 0.28184381127357483], [0.281333327293396, 0.18552827835083008, 0.14149004220962524, -0.09175322204828262, 0.1877763420343399, 0.17001241445541382, 0.12239242345094681, -0.010205985978245735], [0.052810169756412506, 0.0015686635160818696, -0.25658270716667175, 0.0820733979344368, -0.2599131166934967, 0.17154458165168762, -0.2106504887342453, -0.11548838764429092], [-0.16767381131649017, 0.2790636420249939, -0.2489788830280304, 0.18052919209003448, 0.17731773853302002, 0.24998855590820312, 0.08858424425125122, 0.19273917376995087], [0.27948397397994995, 0.0696415975689888, 0.12021440267562866, -0.27645543217658997, -0.09483356773853302, 0.03205735608935356, 0.04283594712615013, -0.12491082400083542], [-0.35049083828926086, -0.09194520115852356, 0.13535472750663757, 0.3044343888759613, -0.3192690312862396, 0.16879859566688538, -0.3354775607585907, -0.3381037414073944], [-0.22141088545322418, -0.046698495745658875, 0.09874530136585236, -0.26888129115104675, 0.272391676902771, 0.31971976161003113, 0.02175283059477806, 0.2877867817878723], [-0.16005906462669373, -0.13986384868621826, -0.045624300837516785, 0.038631126284599304, -0.24663399159908295, -0.28310346603393555, 0.1396653801202774, 0.101938895881176], [0.3458702564239502, -0.14414829015731812, 0.12485396862030029, -0.14267238974571228, 0.17453144490718842, -0.019585134461522102, 0.2620919346809387, 0.19642318785190582], [0.2942793369293213, 0.18168950080871582, 0.013282958418130875, 0.30468255281448364, -0.20767083764076233, 0.33346664905548096, 0.3454877734184265, 0.33773815631866455], [-0.1651521772146225, -0.18733316659927368, 0.022368723526597023, 0.11009573936462402, 0.1773519515991211, 0.14379118382930756, 0.3010469675064087, -0.08857931196689606], [-0.1159914955496788, 0.11851116269826889, 0.09852373600006104, -0.20623746514320374, 0.03419731929898262, -0.2684353291988373, -0.10372166335582733, -0.13876019418239594], [0.30991899967193604, -0.31825944781303406, -0.2087467610836029, -0.3459979295730591, 0.08916806429624557, -0.27212613821029663, 0.11438890546560287, -0.24558208882808685], [-0.22647954523563385, -0.18062178790569305, 0.05305740237236023, 0.3248734176158905, 0.33117780089378357, -0.026710860431194305, -0.34630441665649414, -0.11680522561073303], [-0.1347430944442749, -0.07519929111003876, 0.1350886970758438, 0.17792043089866638, 0.15675663948059082, 0.10099897533655167, -0.14312829077243805, -0.0037505635991692543], [0.04499584808945656, -0.1805916577577591, -0.031627584248781204, -0.04413369297981262, -0.3340417444705963, 0.23968182504177094, -0.03574512153863907, -0.30563268065452576], [0.27972209453582764, -0.190237894654274, 0.1251734346151352, 0.35062333941459656, 0.016366885975003242, 0.10171858966350555, 0.14047691226005554, 0.26721248030662537], [-0.10847823321819305, -0.19895119965076447, -0.027667973190546036, 0.2764967978000641, 0.030399173498153687, 0.24565289914608002, -0.0026286146603524685, 0.10847730189561844], [0.012293856590986252, 0.009597553871572018, -0.3364483118057251, -0.30908846855163574, 0.029390934854745865, 0.17498549818992615, 0.23750039935112, 0.015340398997068405], [0.1490304172039032, 0.14786913990974426, -0.305205762386322, -0.310749888420105, -0.27412623167037964, 0.00607854500412941, -0.22355762124061584, -0.11314169317483902], [-0.05289657041430473, 0.13794301450252533, 0.08197452127933502, 0.32798293232917786, 0.3189018964767456, -0.2255517691373825, -0.0011138147674500942, 0.05838387832045555], [0.30865156650543213, -0.10957362502813339, -0.1389472484588623, -0.22396059334278107, 0.26051974296569824, -0.10016438364982605, -0.13241465389728546, 0.23913274705410004], [0.32532697916030884, -0.014899205416440964, -0.24922193586826324, 0.28807002305984497, -0.120916947722435, -0.16292618215084076, -0.2485564798116684, -0.1700362265110016], [-0.27689066529273987, -0.20407605171203613, -0.322072297334671, -0.07125965505838394, 0.14215503633022308, -0.26839137077331543, -0.0004937503254041076, -0.13037697970867157], [0.17101314663887024, 0.306220144033432, -0.04686809703707695, -0.17794331908226013, -0.2716577649116516, -0.2077203243970871, 0.10207903385162354, 0.08112046122550964], [0.1903989315032959, -0.052534319460392, 0.18166758120059967, -0.3149888217449188, 0.0950419008731842, 0.343227356672287, -0.3499112129211426, -0.1835392862558365], [0.22633400559425354, -0.055277615785598755, -0.18845929205417633, 0.21569041907787323, 0.023699931800365448, 0.01384764164686203, -0.10738624632358551, 0.2663811147212982], [0.19611506164073944, 0.06333613395690918, 0.05395631119608879, 0.18282005190849304, 0.22026726603507996, -0.14502809941768646, -0.03873581811785698, 0.15521790087223053], [-0.17132440209388733, 0.33059003949165344, -0.24218378961086273, 0.16314615309238434, -0.25396180152893066, 0.11351414769887924, 0.24694183468818665, 0.0426207035779953]], "lstm2.bias_ih_l2": [-0.03543592989444733, 0.22482940554618835, -0.2538658380508423, -0.23853033781051636, -0.3013322949409485, -0.21762946248054504, 0.009176211431622505, -0.1603173017501831, 0.07876639068126678, 0.011930634267628193, 0.2942473888397217, -0.15330363810062408, -0.09672039747238159, 0.23383808135986328, -0.08939754962921143, 0.3384901285171509, -0.14042435586452484, -0.0038721151649951935, -0.08376673609018326, 0.1649491935968399, 0.1354701668024063, -0.18827717006206512, 0.23297104239463806, -0.022465577349066734, -0.08940573036670685, -0.00713175255805254, 0.24605397880077362, 0.3468150794506073, 0.17203576862812042, 0.0618656724691391, 0.23074105381965637, -0.14784465730190277], "lstm2.bias_hh_l2": [-0.18476806581020355, -0.10210119932889938, -0.22882822155952454, 0.15201693773269653, 0.03358395770192146, -0.12096276134252548, -0.03589356318116188, -0.007010200992226601, 0.30314749479293823, 0.31560519337654114, -0.2721823751926422, 0.1295761913061142, 0.1365237981081009, 0.13518735766410828, -0.04820048436522484, 0.08841948956251144, 0.08896693587303162, 0.3441130816936493, -0.3388553857803345, -0.1341649293899536, -0.23787140846252441, -0.17149822413921356, 0.06941602379083633, 0.21562643349170685, -0.2673620283603668, 0.22995531558990479, 0.2953238785266876, -0.1742689609527588, 0.0617087185382843, -0.18150636553764343, 0.07572641968727112, -0.16391541063785553], "dense.weight": [[-0.13772843778133392, -0.2366744875907898, -0.2948282063007355, 0.2821406424045563, -0.04464801028370857, -0.009808329865336418, -0.1759527623653412, 0.2464277744293213]], "dense.bias": [-0.20236454904079437]}